digraph Tree {
node [shape=box, style="rounded", color="black", fontname="helvetica"] ;
edge [fontname="helvetica"] ;
0 [label="http.request.method_0 <= -0.2\ngini = 0.5\nsamples = 172070\nvalue = [136241, 135993]"] ;
1 [label="gini = 0.0\nsamples = 39701\nvalue = [0, 62476]"] ;
0 -> 1 [labeldistance=2.5, labelangle=45, headlabel="True"] ;
2 [label="mqtt.len <= -0.2\ngini = 0.5\nsamples = 132369\nvalue = [136241, 73517]"] ;
0 -> 2 [labeldistance=2.5, labelangle=-45, headlabel="False"] ;
3 [label="tcp.seq <= -0.3\ngini = 0.5\nsamples = 116609\nvalue = [111330, 73517]"] ;
2 -> 3 ;
4 [label="dns.qry.name.len_8 <= 0.5\ngini = 0.5\nsamples = 81577\nvalue = [59582, 69753]"] ;
3 -> 4 ;
5 [label="http.request.version_1 <= 1.2\ngini = 0.0\nsamples = 37473\nvalue = [59582, 57]"] ;
4 -> 5 ;
6 [label="gini = 0.0\nsamples = 37436\nvalue = [59582, 0]"] ;
5 -> 6 ;
7 [label="gini = 0.0\nsamples = 37\nvalue = [0, 57]"] ;
5 -> 7 ;
8 [label="gini = 0.0\nsamples = 44104\nvalue = [0, 69696]"] ;
4 -> 8 ;
9 [label="udp.time_delta <= 10.4\ngini = 0.1\nsamples = 35032\nvalue = [51748, 3764]"] ;
3 -> 9 ;
10 [label="dns.qry.name.len_0 <= -0.5\ngini = 0.1\nsamples = 35031\nvalue = [51748, 3761]"] ;
9 -> 10 ;
11 [label="gini = 0.0\nsamples = 2363\nvalue = [0, 3761]"] ;
10 -> 11 ;
12 [label="gini = 0.0\nsamples = 32668\nvalue = [51748, 0]"] ;
10 -> 12 ;
13 [label="gini = 0.0\nsamples = 1\nvalue = [0, 3]"] ;
9 -> 13 ;
14 [label="gini = 0.0\nsamples = 15760\nvalue = [24911, 0]"] ;
2 -> 14 ;
}