{"learner":{"attributes":{"best_iteration":"12","best_ntree_limit":"13","best_score":"1.8897541602599397","scikit_learn":"{\"use_label_encoder\": false, \"n_estimators\": 100, \"objective\": \"multi:softprob\", \"max_depth\": 8, \"max_leaves\": null, \"max_bin\": null, \"grow_policy\": null, \"learning_rate\": 0.1, \"verbosity\": 0, \"booster\": \"gbtree\", \"tree_method\": null, \"gamma\": 0, \"min_child_weight\": 1, \"max_delta_step\": 0, \"subsample\": 0.7, \"sampling_method\": null, \"colsample_bytree\": 1, \"colsample_bylevel\": 1, \"colsample_bynode\": 1, \"reg_alpha\": 0, \"reg_lambda\": 1, \"scale_pos_weight\": 1, \"base_score\": 0.5, \"missing\": NaN, \"num_parallel_tree\": null, \"random_state\": 42, \"n_jobs\": 1, \"monotone_constraints\": null, \"interaction_constraints\": null, \"importance_type\": null, \"gpu_id\": null, \"validate_parameters\": null, \"predictor\": null, \"enable_categorical\": false, \"max_cat_to_onehot\": null, \"eval_metric\": null, \"early_stopping_rounds\": null, \"callbacks\": null, \"kwargs\": {\"silent\": null, \"nthread\": null, \"seed\": null, \"num_class\": 15}, \"classes_\": [0, 1, 2, 3, 4, 5, 6, 7, 8, 9, 10, 11, 12, 13, 14], \"n_classes_\": 15, \"evals_result_\": {\"validation_0\": {\"mlogloss\": [2.339874175350372, 2.210637422754126, 2.1362232630317024, 2.0654926763372434, 2.0165139779123824, 1.9818888460165234, 1.9573826761041027, 1.933999142488195, 1.916907603336609, 1.904795890571571, 1.8966895493089129, 1.8918582716205121, 1.8897541602599397, 1.890399922266098, 1.8929287442328362, 1.8970521845140926, 1.9025583448158878, 1.909249162916093, 1.916969272639967, 1.9115059527999532, 1.9082051524730586, 1.9068550576375818, 1.9073899793356268, 1.909385816939738, 1.912852173601787, 1.9176500973667356, 1.9236214434497165, 1.9306652822166195, 1.9384126776211101, 1.9470199364548568, 1.9566854934886035, 1.9670747265706519, 1.978144468189917, 1.9894626619073081, 2.0013160956646763, 2.0140563564376768, 2.0268120304712696, 2.0404356764598903, 2.054471368784791, 2.0686473096680857, 2.083130291602944, 2.097888521197583, 2.1128542192146744, 2.128044106064237, 2.143645856473312, 2.1594784130832787, 2.1746954310217625, 2.1907712461409465, 2.206199342337697, 2.221734325836127, 2.2373105578098267, 2.2529465137114077, 2.268622444900623]}}, \"_estimator_type\": \"classifier\"}"},"feature_names":[],"feature_types":[],"gradient_booster":{"model":{"gbtree_model_param":{"num_parallel_tree":"1","num_trees":"795","size_leaf_vector":"0"},"tree_info":[0,1,2,3,4,5,6,7,8,9,10,11,12,13,14,0,1,2,3,4,5,6,7,8,9,10,11,12,13,14,0,1,2,3,4,5,6,7,8,9,10,11,12,13,14,0,1,2,3,4,5,6,7,8,9,10,11,12,13,14,0,1,2,3,4,5,6,7,8,9,10,11,12,13,14,0,1,2,3,4,5,6,7,8,9,10,11,12,13,14,0,1,2,3,4,5,6,7,8,9,10,11,12,13,14,0,1,2,3,4,5,6,7,8,9,10,11,12,13,14,0,1,2,3,4,5,6,7,8,9,10,11,12,13,14,0,1,2,3,4,5,6,7,8,9,10,11,12,13,14,0,1,2,3,4,5,6,7,8,9,10,11,12,13,14,0,1,2,3,4,5,6,7,8,9,10,11,12,13,14,0,1,2,3,4,5,6,7,8,9,10,11,12,13,14,0,1,2,3,4,5,6,7,8,9,10,11,12,13,14,0,1,2,3,4,5,6,7,8,9,10,11,12,13,14,0,1,2,3,4,5,6,7,8,9,10,11,12,13,14,0,1,2,3,4,5,6,7,8,9,10,11,12,13,14,0,1,2,3,4,5,6,7,8,9,10,11,12,13,14,0,1,2,3,4,5,6,7,8,9,10,11,12,13,14,0,1,2,3,4,5,6,7,8,9,10,11,12,13,14,0,1,2,3,4,5,6,7,8,9,10,11,12,13,14,0,1,2,3,4,5,6,7,8,9,10,11,12,13,14,0,1,2,3,4,5,6,7,8,9,10,11,12,13,14,0,1,2,3,4,5,6,7,8,9,10,11,12,13,14,0,1,2,3,4,5,6,7,8,9,10,11,12,13,14,0,1,2,3,4,5,6,7,8,9,10,11,12,13,14,0,1,2,3,4,5,6,7,8,9,10,11,12,13,14,0,1,2,3,4,5,6,7,8,9,10,11,12,13,14,0,1,2,3,4,5,6,7,8,9,10,11,12,13,14,0,1,2,3,4,5,6,7,8,9,10,11,12,13,14,0,1,2,3,4,5,6,7,8,9,10,11,12,13,14,0,1,2,3,4,5,6,7,8,9,10,11,12,13,14,0,1,2,3,4,5,6,7,8,9,10,11,12,13,14,0,1,2,3,4,5,6,7,8,9,10,11,12,13,14,0,1,2,3,4,5,6,7,8,9,10,11,12,13,14,0,1,2,3,4,5,6,7,8,9,10,11,12,13,14,0,1,2,3,4,5,6,7,8,9,10,11,12,13,14,0,1,2,3,4,5,6,7,8,9,10,11,12,13,14,0,1,2,3,4,5,6,7,8,9,10,11,12,13,14,0,1,2,3,4,5,6,7,8,9,10,11,12,13,14,0,1,2,3,4,5,6,7,8,9,10,11,12,13,14,0,1,2,3,4,5,6,7,8,9,10,11,12,13,14,0,1,2,3,4,5,6,7,8,9,10,11,12,13,14,0,1,2,3,4,5,6,7,8,9,10,11,12,13,14,0,1,2,3,4,5,6,7,8,9,10,11,12,13,14,0,1,2,3,4,5,6,7,8,9,10,11,12,13,14,0,1,2,3,4,5,6,7,8,9,10,11,12,13,14,0,1,2,3,4,5,6,7,8,9,10,11,12,13,14,0,1,2,3,4,5,6,7,8,9,10,11,12,13,14,0,1,2,3,4,5,6,7,8,9,10,11,12,13,14,0,1,2,3,4,5,6,7,8,9,10,11,12,13,14,0,1,2,3,4,5,6,7,8,9,10,11,12,13,14,0,1,2,3,4,5,6,7,8,9,10,11,12,13,14],"trees":[{"base_weights":[-4.3530926E-1,-5.3570867E-1,-1.8391654E-1,-3.3758685E-1,5.413776E0,-4.9464658E-1,1.0392013E0,7.0742226E0,2.6044488E0,-4.9748975E-1,4.9927634E-1,-5.355377E-1,7.372081E0,-4.9268118E-1,7.2133536E0,-3.757882E-1,7.4069643E0,-5.093132E-1,-3.2957795E-1,3.0304003E0,-5.27902E-1,7.4899096E0,-4.9135074E-1,7.453074E0,6.776713E0,-4.602002E-1,5.350318E0,-5.2331984E-1,-3.7321594E-1,3.6210082E0,-5.3545594E-1,5.7900314E0,6.808745E-1,5.4848666E0,7.3934193E0,-5.0308836E-1,4.158416E0,-5.2902114E-1,-4.729447E-1,-4.4880888E-1,4.292591E-1,1.4851484E-1,3.660042E0,-4.962332E-1,5.063694E0,7.264611E0,4.1969624E0,-4.1264427E-1,-5.325767E-1,-5.337399E-1,7.69324E-1,-5.3552455E-1,4.193888E0,-3.4028342E-1,-5.3534925E-1,4.2600794E0,-5.330372E-1,-5.08815E-1,7.2446656E0,-4.7689462E-1,1.6037735E0],"categories":[],"categories_nodes":[],"categories_segments":[],"categories_sizes":[],"default_left":[1,0,1,1,1,1,1,1,1,1,1,0,1,0,1,1,0,1,1,1,0,0,0,0,1,1,0,1,1,1,0,0,1,1,0,1,0,1,1,1,1,0,0,0,0,0,1,1,0,0,0,0,0,0,0,0,0,0,0,0,0],"id":0,"left_children":[1,-1,3,5,7,9,11,13,15,17,19,-1,21,-1,23,25,-1,27,29,31,-1,-1,-1,-1,33,35,-1,37,39,41,-1,-1,43,45,-1,47,-1,49,51,53,55,-1,-1,-1,-1,-1,57,59,-1,-1,-1,-1,-1,-1,-1,-1,-1,-1,-1,-1,-1],"loss_changes":[3.3607168E3,0E0,3.269238E4,7.9989414E3,4.7184824E3,9.407422E1,3.777873E4,6.7487695E2,5.4246006E3,6.556152E1,2.4912329E2,0E0,7.0264844E2,0E0,1.50390625E1,1.1590815E2,0E0,5.8762207E1,1.7756428E3,1.7521298E2,0E0,0E0,0E0,0E0,1.4504883E2,4.809069E1,0E0,7.8027344E0,1.7547269E2,1.4115234E1,0E0,0E0,8.535567E1,1.5093604E2,0E0,3.962555E-1,0E0,1.5468164E2,8.3757635E2,2.4623657E1,9.211635E2,0E0,0E0,0E0,0E0,0E0,6.962366E2,8.697664E0,0E0,0E0,0E0,0E0,0E0,0E0,0E0,0E0,0E0,0E0,0E0,0E0,0E0],"parents":[2147483647,0,0,2,2,3,3,4,4,5,5,6,6,7,7,8,8,9,9,10,10,12,12,14,14,15,15,17,17,18,18,19,19,24,24,25,25,27,27,28,28,29,29,32,32,33,33,35,35,37,37,38,38,39,39,40,40,46,46,47,47],"right_children":[2,-1,4,6,8,10,12,14,16,18,20,-1,22,-1,24,26,-1,28,30,32,-1,-1,-1,-1,34,36,-1,38,40,42,-1,-1,44,46,-1,48,-1,50,52,54,56,-1,-1,-1,-1,-1,58,60,-1,-1,-1,-1,-1,-1,-1,-1,-1,-1,-1,-1,-1],"split_conditions":[4.756739E-1,-5.3570867E-2,-2.666902E-1,-1.4889623E-1,6.770521E-1,-2.6785108E-1,6.403049E-1,-3.8064852E-1,6.939148E-1,1.8282783E0,1.2096502E0,-5.355377E-2,-2.692429E-1,-4.926812E-2,3.7352347E-1,-2.3143303E-1,7.4069643E-1,2.1557217E0,1.2096502E0,6.1803263E-1,-5.2790202E-2,7.4899095E-1,-4.9135074E-2,7.453074E-1,3.9038616E-1,2.9742083E-1,5.350318E-1,-1.4917508E-1,3.310459E-1,-1.4190583E0,-5.3545594E-2,5.7900316E-1,7.1920884E-1,4.7000125E-3,7.393419E-1,4.7000125E-3,4.1584158E-1,-2.6909655E-1,-1.0912297E0,-1.491861E-1,1.2096502E0,1.48514835E-2,3.660042E-1,-4.962332E-2,5.063694E-1,7.264611E-1,2.9742083E-1,-2.5416288E-1,-5.325767E-2,-5.3373992E-2,7.69324E-2,-5.3552456E-2,4.1938883E-1,-3.4028344E-2,-5.3534925E-2,4.2600796E-1,-5.330372E-2,-5.08815E-2,7.2446656E-1,-4.7689464E-2,1.6037735E-1],"split_indices":[66,0,18,8,17,18,9,9,17,13,39,0,18,0,17,18,0,12,39,17,0,0,0,0,17,9,0,8,9,10,0,0,17,9,0,9,0,18,40,8,39,0,0,0,0,0,9,18,0,0,0,0,0,0,0,0,0,0,0,0,0],"split_type":[0,0,0,0,0,0,0,0,0,0,0,0,0,0,0,0,0,0,0,0,0,0,0,0,0,0,0,0,0,0,0,0,0,0,0,0,0,0,0,0,0,0,0,0,0,0,0,0,0,0,0,0,0,0,0,0,0,0,0,0,0],"sum_hessian":[1.3315506E5,9.515259E4,3.8002473E4,3.6988004E4,1.0144712E3,3.320116E4,3.7868447E3,6.3665784E2,3.7781335E2,3.3106953E4,9.420445E1,3.033458E3,7.533867E2,1.144889E1,6.252089E2,2.3370668E2,1.4410667E2,3.0927186E4,2.179769E3,2.6631113E1,6.757334E1,7.4231116E2,1.1075557E1,3.9324448E2,2.3196446E2,2.312178E2,2.4888892E0,2.8038705E4,2.8884802E3,1.07146675E2,2.0726223E3,1.1573335E1,1.5057779E1,7.8151115E1,1.5381334E2,2.2997336E2,1.2444446E0,2.5179469E4,2.8592358E3,2.6402136E3,2.482667E2,1.2444446E0,1.0590223E2,1.256889E1,2.4888892E0,3.0862225E1,4.7288895E1,6.0231117E1,1.6974223E2,2.5088873E4,9.0595566E1,2.822276E3,3.6960003E1,1.1735112E3,1.4667024E3,4.915556E1,1.9911113E2,1.8915558E1,2.8373335E1,5.9111115E1,1.1200001E0],"tree_param":{"num_deleted":"0","num_feature":"95","num_nodes":"61","size_leaf_vector":"0"}},{"base_weights":[-3.3286366E-1,-5.35702E-1,2.8943505E0,4.9466476E0,-5.2470225E-1,6.0357885E0,3.5161965E0,5.424354E0,-5.3180647E-1,-5.2938396E-1,6.2386756E0,5.858615E0,7.7816904E-1,3.5390195E-1,-5.3383493E-1,5.2827067E0,7.4817038E0,-1.062836E-1,6.8978095E0,-3.7589702E-1,2.4702103E0,-4.4967878E-1,2.5471697E0,-2.166065E-1,-5.348505E-1,3.2335675E0,6.497748E0,7.491052E0,4.3293715E-1,-4.761036E-1,5.4313093E-1,7.062232E0,-4.6678635E-1,-5.342745E-1,-9.898526E-2,1.2632444E0,6.072271E0,-4.7595438E-1,5.9914404E-1,2.8805418E0,7.3326054E0,-4.8470327E-1,1.8867922E-1,6.047836E0,-2.4243845E-2,7.1390805E0,3.8683496E0,1.1257034E-1,-5.1009566E-1,3.837209E0,-1.5166742E-1,3.8884292E0,6.1621165E-1,2.6425576E0,7.0877676E0,2.6102822E0,6.3848076E0,-4.92326E-1,-2.2747548E-1,-2.140078E-1,1.306715E0,6.492167E0,7.3762712E0,1.6910912E-2,6.88485E0,-5.031704E-1,2.1465875E-1,-5.156015E-1,7.2759852E0,2.7176468E0,-5.196451E-1,6.190845E0,1.4745761E0,7.1746054E0,6.603773E-1],"categories":[],"categories_nodes":[],"categories_segments":[],"categories_sizes":[],"default_left":[1,0,1,1,1,1,1,0,1,0,1,1,1,1,1,1,1,1,1,1,1,0,0,1,0,1,0,0,0,1,1,1,1,0,1,1,1,0,0,1,0,1,0,0,1,1,1,0,0,0,1,1,1,1,1,0,0,0,0,0,0,0,0,0,0,0,0,0,0,0,0,0,0,0,0],"id":1,"left_children":[1,-1,3,5,7,9,11,-1,13,-1,15,17,19,21,23,25,27,29,31,33,35,-1,-1,37,-1,39,-1,-1,-1,41,43,45,47,-1,49,51,53,-1,-1,55,-1,57,-1,-1,59,61,63,-1,-1,-1,65,67,69,71,73,-1,-1,-1,-1,-1,-1,-1,-1,-1,-1,-1,-1,-1,-1,-1,-1,-1,-1,-1,-1],"loss_changes":[8.7165055E4,0E0,5.5256234E4,7.6451875E3,1.2775409E2,3.7226016E3,1.3653201E4,0E0,5.492676E0,0E0,3.1791719E3,7.1137734E3,1.9204423E3,1.4093673E1,8.330078E-1,3.7996406E3,7.41875E1,4.13847E1,1.1866719E3,2.5614922E1,1.7258098E3,0E0,0E0,2.629285E0,0E0,8.083301E2,0E0,0E0,0E0,7.18256E-1,1.9566087E2,2.0702344E2,6.164613E-1,0E0,4.4994503E1,5.0703464E2,3.288911E2,0E0,0E0,4.846997E2,0E0,1.00790024E-1,0E0,0E0,1.4864608E1,9.5171875E1,2.861994E2,0E0,0E0,0E0,2.7445623E1,8.856906E2,5.785718E2,9.197447E1,3.7911377E1,0E0,0E0,0E0,0E0,0E0,0E0,0E0,0E0,0E0,0E0,0E0,0E0,0E0,0E0,0E0,0E0,0E0,0E0,0E0,0E0],"parents":[2147483647,0,0,2,2,3,3,4,4,5,5,6,6,8,8,10,10,11,11,12,12,13,13,14,14,15,15,16,16,17,17,18,18,19,19,20,20,23,23,25,25,29,29,30,30,31,31,32,32,34,34,35,35,36,36,39,39,41,41,44,44,45,45,46,46,50,50,51,51,52,52,53,53,54,54],"right_children":[2,-1,4,6,8,10,12,-1,14,-1,16,18,20,22,24,26,28,30,32,34,36,-1,-1,38,-1,40,-1,-1,-1,42,44,46,48,-1,50,52,54,-1,-1,56,-1,58,-1,-1,60,62,64,-1,-1,-1,66,68,70,72,74,-1,-1,-1,-1,-1,-1,-1,-1,-1,-1,-1,-1,-1,-1,-1,-1,-1,-1,-1,-1],"split_conditions":[1.8691154E0,-5.35702E-2,-1.491795E-1,-1.4918587E-1,-2.6925278E-1,1.2096502E0,-2.6925185E-1,5.424354E-1,-2.6924133E-1,-5.2938398E-2,-2.8412187E-1,-1.491857E-1,-2.6924142E-1,-2.6924175E-1,-1.4917913E-1,1.8282783E0,7.877135E-1,-1.4918585E-1,7.381793E-1,-1.4918384E-1,1.3232765E0,-4.496788E-2,2.5471696E-1,-1.4917916E-1,-5.3485047E-2,-1.491864E-1,6.497748E-1,7.491052E-1,4.3293715E-2,1.7393078E0,-1.4918579E-1,3.2857118E0,1.4809872E0,-5.3427454E-2,-2.692515E-1,-2.6924136E-1,-1.4918377E-1,-4.7595438E-2,5.9914406E-2,-2.6924133E-1,7.332606E-1,1.6005852E0,1.8867923E-2,6.047836E-1,-1.4918575E-1,-1.4918412E-1,-1.4918399E-1,1.1257034E-2,-5.1009566E-2,3.837209E-1,-2.692511E-1,-2.692414E-1,-1.4918368E-1,-2.692414E-1,-2.6921695E-1,2.6102823E-1,6.384808E-1,-4.92326E-2,-2.2747548E-2,-2.140078E-2,1.306715E-1,6.492167E-1,7.3762715E-1,1.6910912E-3,6.88485E-1,-5.0317038E-2,2.1465875E-2,-5.1560152E-2,7.2759855E-1,2.717647E-1,-5.196451E-2,6.1908454E-1,1.4745761E-1,7.174606E-1,6.603774E-2],"split_indices":[48,0,8,8,18,39,18,0,18,0,17,8,18,18,8,13,17,8,17,8,11,0,0,8,0,8,0,0,0,10,8,5,5,0,18,18,8,0,0,18,0,10,0,0,8,8,8,0,0,0,18,18,8,18,18,0,0,0,0,0,0,0,0,0,0,0,0,0,0,0,0,0,0,0,0],"split_type":[0,0,0,0,0,0,0,0,0,0,0,0,0,0,0,0,0,0,0,0,0,0,0,0,0,0,0,0,0,0,0,0,0,0,0,0,0,0,0,0,0,0,0,0,0,0,0,0,0,0,0,0,0,0,0,0,0,0,0,0,0,0,0,0,0,0,0,0,0,0,0,0,0,0,0],"sum_hessian":[1.3315383E5,1.2528048E5,7.8733516E3,4.919787E3,2.9535647E3,2.791289E3,2.128498E3,2.6133335E0,2.9509514E3,8.362667E1,2.7076624E3,1.1465067E3,9.819912E2,6.3466673E0,2.9446047E3,1.533529E3,1.1741334E3,1.7024002E2,9.762667E2,5.842667E2,3.977245E2,5.226667E0,1.1200001E0,1.0080001E1,2.9345247E3,5.721956E2,9.6133344E2,1.1725156E3,1.617778E0,1.0864001E2,6.1600006E1,9.5498676E2,2.1280003E1,3.7109335E2,2.1317336E2,2.989156E2,9.88089E1,7.964445E0,2.1155558E0,5.283912E2,4.3804447E1,1.0752001E2,1.1200001E0,4.853334E0,5.674667E1,9.313423E2,2.3644447E1,1.368889E0,1.9911114E1,1.8666668E0,2.1130669E2,5.811556E1,2.4080002E2,2.3395557E1,7.541334E1,4.9217783E2,3.6213337E1,1.0353779E2,3.9822226E0,5.0400005E1,6.3466673E0,2.574756E2,6.738667E2,1.0826668E1,1.2817779E1,1.07644455E2,1.0366223E2,2.5635557E1,3.2480003E1,8.400001E1,1.5680002E2,4.7288895E0,1.8666668E1,7.429334E1,1.1200001E0],"tree_param":{"num_deleted":"0","num_feature":"95","num_nodes":"75","size_leaf_vector":"0"}},{"base_weights":[-2.500386E-1,-5.356945E-1,7.4336553E0,-5.357023E-1,1.1257034E-1,-5.1739854E-1,7.481127E0,4.4400544E0,7.4984083E0,7.100969E0,-3.1431898E-1,-4.651843E-1,-1.3723714E-2,6.603773E-1,-3.9239E-1],"categories":[],"categories_nodes":[],"categories_segments":[],"categories_sizes":[],"default_left":[1,1,1,0,0,0,1,1,0,0,1,0,1,0,0],"id":2,"left_children":[1,3,5,-1,-1,-1,7,9,-1,-1,11,-1,13,-1,-1],"loss_changes":[2.9212194E5,7.109375E-1,1.8045312E3,0E0,0E0,0E0,2.1596875E2,3.7225916E2,0E0,0E0,5.130179E-1,0E0,1.4991187E0,0E0,0E0],"parents":[2147483647,0,0,1,1,2,2,6,6,7,7,10,10,12,12],"right_children":[2,4,6,-1,-1,-1,8,10,-1,-1,12,-1,14,-1,-1],"split_conditions":[-1.6616677E-1,9.771305E1,-1.7964768E-1,-5.357023E-2,1.1257034E-2,-5.1739853E-2,-1.4589122E-1,-1.4615545E-1,7.4984086E-1,7.100969E-1,6.2329206E0,-4.651843E-2,6.9787073E0,6.603774E-2,-3.9239E-2],"split_indices":[2,0,3,0,0,0,3,3,0,0,2,0,2,0,0],"split_type":[0,0,0,0,0,0,0,0,0,0,0,0,0,0,0],"sum_hessian":[1.3308886E5,1.2831928E5,4.7695825E3,1.28317914E5,1.368889E0,2.8248892E1,4.7413335E3,2.8248892E1,4.713085E3,1.7795557E1,1.0453334E1,6.5955563E0,3.857778E0,1.1200001E0,2.737778E0],"tree_param":{"num_deleted":"0","num_feature":"95","num_nodes":"15","size_leaf_vector":"0"}},{"base_weights":[-3.253303E-1,-4.3370402E-1,5.427667E0,-5.232189E-1,1.364893E0,-5.3487E-1,7.4958935E0,-5.3570133E-1,-2.617133E-1,-5.3560096E-1,7.4921546E0,-5.3570974E-1,1.8867922E-1,-5.3561646E-1,7.461392E0],"categories":[],"categories_nodes":[],"categories_segments":[],"categories_sizes":[],"default_left":[1,1,1,1,1,0,0,1,1,0,0,0,0,0,0],"id":3,"left_children":[1,3,5,7,9,-1,-1,11,13,-1,-1,-1,-1,-1,-1],"loss_changes":[8.296132E4,2.1027469E4,3.0343773E4,4.0595703E2,7.210861E4,0E0,0E0,8.2421875E-1,1.1997833E4,0E0,0E0,0E0,0E0,0E0,0E0],"parents":[2147483647,0,0,1,1,2,2,3,3,4,4,7,7,8,8],"right_children":[2,4,6,8,10,-1,-1,12,14,-1,-1,-1,-1,-1,-1],"split_conditions":[1.0219975E0,2.1557217E0,-1.6186729E-1,1.8282783E0,-1.491861E-1,-5.3487003E-2,7.495894E-1,9.771305E1,-1.6608296E-1,-5.3560097E-2,7.492155E-1,-5.3570975E-2,1.8867923E-2,-5.3561646E-2,7.461392E-1],"split_indices":[8,12,17,13,8,0,0,0,17,0,0,0,0,0,0],"split_type":[0,0,0,0,0,0,0,0,0,0,0,0,0,0,0],"sum_hessian":[1.3305825E5,1.3059898E5,2.4592712E3,1.2440799E5,6.1909873E3,6.335467E2,1.8257246E3,1.1873917E5,5.6688184E3,4.726027E3,1.4649601E3,1.18738055E5,1.1200001E0,5.475556E3,1.9326224E2],"tree_param":{"num_deleted":"0","num_feature":"95","num_nodes":"15","size_leaf_vector":"0"}},{"base_weights":[-2.576541E-2,-5.355414E-1,7.440799E0,-5.3567785E-1,5.0927243E0,7.499111E0,-5.271735E-1,-5.3570193E-1,-3.102862E-1,8.149405E-1,-4.9763033E-1],"categories":[],"categories_nodes":[],"categories_segments":[],"categories_sizes":[],"default_left":[1,1,1,1,0,0,0,0,1,0,0],"id":4,"left_children":[1,3,5,7,-1,-1,-1,-1,9,-1,-1],"loss_changes":[5.0652475E5,9.841016E1,3.955625E3,5.1171875E-1,0E0,0E0,0E0,0E0,3.7118928E0,0E0,0E0],"parents":[2147483647,0,0,1,1,2,2,3,3,8,8],"right_children":[2,4,6,8,-1,-1,-1,-1,10,-1,-1],"split_conditions":[-2.1272719E-1,1.1937323E0,2.0892023E-1,-2.1289894E-1,5.0927246E-1,7.499111E-1,-5.2717354E-2,-5.3570192E-2,4.4814515E0,8.1494056E-2,-4.9763035E-2],"split_indices":[19,21,20,19,0,0,0,0,20,0,0],"split_type":[0,0,0,0,0,0,0,0,0,0,0],"sum_hessian":[1.3307419E5,1.2457014E5,8.504036E3,1.2456803E5,2.1155558E0,8.442312E3,6.172445E1,1.2455334E5,1.4684445E1,1.617778E0,1.3066668E1],"tree_param":{"num_deleted":"0","num_feature":"95","num_nodes":"11","size_leaf_vector":"0"}},{"base_weights":[-5.322276E-1,-5.3454024E-1,-4.6936324E-1,-5.351035E-1,-5.2333343E-1,7.2424836E0,-5.170789E-1,-5.357008E-1,-5.2671075E-1,-5.355641E-1,-5.064458E-1,2.469861E0,-5.355995E-1,-5.3555065E-1,-5.206875E-1,-4.7061247E-1,-5.3534234E-1,-5.064367E-1,6.8658395E0,-5.0165796E-1,-5.355184E-1,-4.38232E-1,-5.343459E-1,1.05859056E-1,-5.3545237E-1,-4.4302848E-1,-1.4902206E-1,4.4971533E-2,5.130513E-1,-2.3147318E-1,-4.494412E-1,2.0757462E-1,-3.690304E-1,-1.12528145E-1,1.08983405E-1,7.334109E-1,-1.8348625E-1,-3.9325842E-1,1.5895145E-1,-4.401398E-1,-5.2845526E-1,-2.0250724E-1,8.823529E-1,-4.6952224E-1,1.8867922E-1],"categories":[],"categories_nodes":[],"categories_segments":[],"categories_sizes":[],"default_left":[1,1,1,1,1,0,1,0,1,0,1,1,0,0,1,1,0,0,0,1,0,1,0,1,0,1,1,1,1,1,1,1,1,0,0,0,0,0,0,0,0,0,0,0,0],"id":5,"left_children":[1,3,5,7,9,-1,11,-1,13,-1,15,17,-1,-1,19,21,-1,-1,-1,23,-1,25,-1,27,-1,29,31,33,35,37,39,41,43,-1,-1,-1,-1,-1,-1,-1,-1,-1,-1,-1,-1],"loss_changes":[1.9078125E1,5.3125E-1,1.7425807E3,3.28125E-1,1.0056152E0,0E0,2.6117688E2,0E0,1.5600586E-1,0E0,2.4556885E0,3.845338E2,0E0,0E0,1.1125488E0,2.1920166E0,0E0,0E0,0E0,4.438739E1,0E0,1.0231018E0,0E0,2.8186374E0,0E0,9.4303894E-1,1.1997175E0,1.028559E0,2.408251E0,1.6270345E0,3.171692E-1,1.8672552E0,6.049528E-1,0E0,0E0,0E0,0E0,0E0,0E0,0E0,0E0,0E0,0E0,0E0,0E0],"parents":[2147483647,0,0,1,1,2,2,3,3,4,4,6,6,8,8,10,10,11,11,14,14,15,15,19,19,21,21,23,23,25,25,26,26,27,27,28,28,29,29,30,30,31,31,32,32],"right_children":[2,4,6,8,10,-1,12,-1,14,-1,16,18,-1,-1,20,22,-1,-1,-1,24,-1,26,-1,28,-1,30,32,34,36,38,40,42,44,-1,-1,-1,-1,-1,-1,-1,-1,-1,-1,-1,-1],"split_conditions":[-6.829372E-2,2.1557217E0,-1.7971376E-1,1.8282783E0,-1.3024473E0,7.2424835E-1,-1.4589122E-1,-5.357008E-2,4.756739E-1,-5.3556412E-2,-1.491861E-1,-1.4615545E-1,-5.3559955E-2,-5.3555068E-2,-1.4750002E-1,1.2096502E0,-5.3534236E-2,-5.064367E-2,6.8658394E-1,1.2096502E0,-5.355184E-2,1.7031989E0,-5.343459E-2,1.3854946E0,-5.3545237E-2,-1.2522125E0,1.7213144E0,-6.067187E-1,1.6593018E0,-1.2698581E0,2.6847965E-1,1.7158943E0,2.1743616E-1,-1.1252815E-2,1.08983405E-2,7.3341094E-2,-1.8348625E-2,-3.9325844E-2,1.5895145E-2,-4.401398E-2,-5.2845526E-2,-2.0250725E-2,8.823529E-2,-4.6952225E-2,1.8867923E-2],"split_indices":[2,12,3,13,9,0,3,0,66,0,8,3,0,0,8,39,0,0,0,39,0,10,0,10,0,9,10,10,10,9,9,10,9,0,0,0,0,0,0,0,0,0,0,0,0],"split_type":[0,0,0,0,0,0,0,0,0,0,0,0,0,0,0,0,0,0,0,0,0,0,0,0,0,0,0,0,0,0,0,0,0,0,0,0,0,0,0,0,0,0,0,0,0],"sum_hessian":[1.3294389E5,1.2821948E5,4.724409E3,1.22038695E5,6.1807827E3,2.8124447E1,4.6962847E3,1.1387227E5,8.1664185E3,3.566827E3,2.6139558E3,2.8124447E1,4.66816E3,3.2737603E3,4.892658E3,1.1746312E3,1.4393246E3,1.729778E1,1.0826668E1,2.1582402E3,2.734418E3,7.841245E2,3.905067E2,1.1361779E2,2.0446224E3,7.7080896E2,1.3315557E1,9.980445E1,1.3813334E1,2.376889E1,7.4704004E2,5.1022224E0,8.213334E0,2.8622225E1,7.118223E1,1.0453334E1,3.3600004E0,1.6800001E1,6.968889E0,6.7424005E2,7.28E1,3.608889E0,1.4933335E0,7.0933337E0,1.1200001E0],"tree_param":{"num_deleted":"0","num_feature":"95","num_nodes":"45","size_leaf_vector":"0"}},{"base_weights":[-5.3413355E-1,-5.355676E-1,7.1972003E0],"categories":[],"categories_nodes":[],"categories_segments":[],"categories_sizes":[],"default_left":[1,0,0],"id":6,"left_children":[1,-1,-1],"loss_changes":[1.4805117E3,0E0,0E0],"parents":[2147483647,0,0],"right_children":[2,-1,-1],"split_conditions":[6.875149E0,-5.355676E-2,7.1972007E-1],"split_indices":[17,0,0],"split_type":[0,0,0],"sum_hessian":[1.331868E5,1.3316303E5,2.376889E1],"tree_param":{"num_deleted":"0","num_feature":"95","num_nodes":"3","size_leaf_vector":"0"}},{"base_weights":[5.204199E0,7.499921E0,-5.357002E-1],"categories":[],"categories_nodes":[],"categories_segments":[],"categories_sizes":[],"default_left":[1,0,0],"id":7,"left_children":[1,-1,-1],"loss_changes":[1.7560748E6,0E0,0E0],"parents":[2147483647,0,0],"right_children":[2,-1,-1],"split_conditions":[4.753451E-1,7.499921E-1,-5.357002E-2],"split_indices":[76,0,0],"split_type":[0,0,0],"sum_hessian":[1.332647E5,9.519167E4,3.8073035E4],"tree_param":{"num_deleted":"0","num_feature":"95","num_nodes":"3","size_leaf_vector":"0"}},{"base_weights":[-3.2599804E-1,-5.203498E-1,1.176122E0,-5.3570974E-1,7.282064E0,2.390721E0,-5.356297E-1,7.4668674E0,-4.5136458E-1,2.0679603E0,6.1134014E0,2.7609742E0,-5.3540415E-1,7.411797E0,-5.3114456E-1,2.1658216E0,7.3384547E0,7.467011E0,-4.3080938E-1,2.547221E0,-5.3496116E-1,3.1846564E0,7.356457E0,-3.2085562E-1,7.4872794E0,2.1677523E0,7.3891163E0,4.97358E0,-3.3106962E-1,2.6084788E0,-5.348966E-1,7.4134917E0,-2.8301886E-1],"categories":[],"categories_nodes":[],"categories_segments":[],"categories_sizes":[],"default_left":[1,1,1,0,1,1,0,0,0,1,1,1,0,1,0,1,1,1,0,1,0,1,0,0,0,1,1,0,0,0,0,0,0],"id":8,"left_children":[1,3,5,-1,7,9,-1,-1,-1,11,13,15,-1,17,-1,19,21,23,-1,25,-1,27,-1,-1,-1,29,31,-1,-1,-1,-1,-1,-1],"loss_changes":[3.8874918E4,1.41340625E4,3.1718406E4,0E0,3.3453613E2,1.0709457E4,0E0,0E0,0E0,1.48195E4,6.141824E3,1.7655746E4,0E0,2.6096094E2,0E0,5.9158027E3,3.2351562E1,9.571094E1,0E0,9.228447E3,0E0,3.298161E1,0E0,0E0,0E0,5.5605957E3,7.040234E1,0E0,0E0,0E0,0E0,0E0,0E0],"parents":[2147483647,0,0,1,1,2,2,4,4,5,5,9,9,10,10,11,11,13,13,15,15,16,16,17,17,19,19,21,21,25,25,26,26],"right_children":[2,4,6,-1,8,10,-1,-1,-1,12,14,16,-1,18,-1,20,22,24,-1,26,-1,28,-1,-1,-1,30,32,-1,-1,-1,-1,-1,-1],"split_conditions":[1.2096502E0,1.1931072E1,1.8691154E0,-5.3570975E-2,1.8691154E0,-2.692169E-1,-5.356297E-2,7.4668676E-1,-4.513646E-2,-2.6924637E-1,-2.692028E-1,-2.6924956E-1,-5.3540416E-2,-1.4892894E-1,-5.3114455E-2,-2.69252E-1,-1.491857E-1,-1.491862E-1,-4.3080937E-2,-2.692546E-1,-5.349612E-2,-2.6924717E-1,7.356457E-1,-3.2085564E-2,7.48728E-1,-1.4918491E-1,1.2335212E0,4.97358E-1,-3.3106964E-2,2.608479E-1,-5.3489663E-2,7.4134916E-1,-2.8301885E-2],"split_indices":[39,56,48,0,48,18,0,0,0,18,18,18,0,8,0,18,8,8,0,18,0,18,0,0,0,8,17,0,0,0,0,0,0],"split_type":[0,0,0,0,0,0,0,0,0,0,0,0,0,0,0,0,0,0,0,0,0,0,0,0,0,0,0,0,0,0,0,0,0],"sum_hessian":[1.3315769E5,1.1790341E5,1.5254276E4,1.1767269E5,2.3072002E2,8.922667E3,6.3316094E3,2.2536891E2,5.3511114E0,8.212214E3,7.1045337E2,6.485672E3,1.7265424E3,5.942223E2,1.1623112E2,5.740747E3,7.449245E2,5.901156E2,4.106667E0,5.030418E3,7.103289E2,3.9822226E0,7.4094226E2,1.4933335E0,5.8862225E2,4.6661694E3,3.6424893E2,2.3644447E0,1.617778E0,4.0119648E3,6.542045E2,3.631289E2,1.1200001E0],"tree_param":{"num_deleted":"0","num_feature":"95","num_nodes":"33","size_leaf_vector":"0"}},{"base_weights":[-4.5149747E-1,-4.8894662E-1,1.5385609E0,-5.3151184E-1,3.6638567E-1,7.47563E0,-5.354202E-1,-5.356929E-1,-4.4405696E-1,-5.355624E-1,1.5612139E0,7.483462E0,1.6037735E0,-5.3570974E-1,4.3293715E-1,-5.356154E-1,1.4579962E0,4.119692E0,-5.3534836E-1,7.3858633E0,-5.329863E-1,6.4009504E0,-5.343593E-1,6.865605E0,-5.25317E-1],"categories":[],"categories_nodes":[],"categories_segments":[],"categories_sizes":[],"default_left":[1,1,1,1,1,1,0,1,1,0,1,0,0,0,0,0,1,1,0,0,0,1,0,0,0],"id":9,"left_children":[1,3,5,7,9,11,-1,13,15,-1,17,-1,-1,-1,-1,-1,19,21,-1,-1,-1,23,-1,-1,-1],"loss_changes":[9.9115625E3,4.75242E3,3.0252258E4,4.5226562E1,6.6698843E3,1.725E1,0E0,2.171875E0,9.897998E2,0E0,1.4282506E4,0E0,0E0,0E0,0E0,0E0,3.085381E3,1.273492E4,0E0,0E0,0E0,2.593668E3,0E0,0E0,0E0],"parents":[2147483647,0,0,1,1,2,2,3,3,4,4,5,5,7,7,8,8,10,10,16,16,17,17,21,21],"right_children":[2,4,6,8,10,12,-1,14,16,-1,18,-1,-1,-1,-1,-1,20,22,-1,-1,-1,24,-1,-1,-1],"split_conditions":[1.0264795E0,2.1557217E0,-2.8833753E-1,1.8282783E0,-1.3308328E0,3.2196552E-1,-5.3542018E-2,9.771305E1,-1.4732799E-1,-5.355624E-2,-1.491861E-1,7.483462E-1,1.6037735E-1,-5.3570975E-2,4.3293715E-2,-5.356154E-2,-1.6608296E-1,1.2096502E0,-5.3534836E-2,7.3858637E-1,-5.329863E-2,3.2358825E-1,-5.343593E-2,6.865605E-1,-5.25317E-2],"split_indices":[8,12,17,13,9,9,0,0,8,0,8,0,0,0,0,0,17,39,0,0,0,9,0,0,0],"split_type":[0,0,0,0,0,0,0,0,0,0,0,0,0,0,0,0,0,0,0,0,0,0,0,0,0],"sum_hessian":[1.3298358E5,1.3052805E5,2.455538E3,1.2434067E5,6.1873784E3,6.3504004E2,1.8204979E3,1.18662516E5,5.6781514E3,3.5261335E3,2.6612446E3,6.3392004E2,1.1200001E0,1.186609E5,1.617778E0,5.4180625E3,2.600889E2,1.1981512E3,1.4630935E3,6.471111E1,1.9537779E2,8.0378674E2,3.9436447E2,7.5326227E2,5.052445E1],"tree_param":{"num_deleted":"0","num_feature":"95","num_nodes":"25","size_leaf_vector":"0"}},{"base_weights":[-4.9539718E-1,-5.3570867E-1,-3.9432052E-1,-4.502111E-1,1.4757352E0,-5.0862104E-1,5.8756456E-2,-1.2544744E-1,3.8998263E0,-5.1726896E-1,-3.8577473E-1,2.469049E0,-5.355383E-1,5.778523E0,-2.759223E-1,7.299717E0,-4.964703E-1,-5.265474E-1,-4.2734024E-1,2.4561224E0,-5.354554E-1,6.546969E0,-5.344776E-1,6.962065E0,-3.8745388E-1,-5.127725E-1,1.458163E-1,7.383453E0,-3.8745388E-1,-1.935484E-1,-5.108867E-1,-5.270057E-1,1.1158339E-1,-4.860067E-1,2.006203E-1,2.474387E0,9.8068345E-1,7.424125E0,-5.208718E-1,-4.7903952E-1,-5.335576E-1,1.3939667E0,-4.8119232E-1,7.4361925E0,-3.3106962E-1,-4.7595438E-1,9.5684797E-1,-5.3073955E-1,-4.8142445E-1,2.6600208E0,-5.054061E-1,-4.2508215E-1,-5.353469E-1,2.9815018E0,-5.329949E-1,-3.4035656E-1,7.473368E0,-5.3250897E-1,3.962264E0,-5.190311E-1,2.660043E0,-2.844127E-1,-5.032017E-1,-5.348696E-1,-4.6457565E-1,6.944847E0,-5.3498775E-1,-2.8301886E-1,3.8088443E0,-3.5905087E-1,-5.3451145E-1,2.0283945E0,3.3073695E0,7.1210413E0,-5.1700044E-1,-3.7656903E-1,2.78174E-1,-3.6931354E-1,-5.3098387E-1],"categories":[],"categories_nodes":[],"categories_segments":[],"categories_sizes":[],"default_left":[1,0,1,1,1,1,1,1,1,1,1,1,0,1,1,1,1,1,1,1,0,1,0,0,0,1,1,1,0,1,0,1,1,1,1,0,0,1,0,1,0,1,1,0,0,0,0,1,1,1,0,1,0,1,0,0,0,0,0,0,1,1,1,0,0,0,0,0,0,0,0,0,0,0,0,0,0,0,0],"id":10,"left_children":[1,-1,3,5,7,9,11,13,15,17,19,21,-1,23,25,27,29,31,33,35,-1,37,-1,-1,-1,39,41,43,-1,45,-1,47,49,51,53,-1,-1,55,-1,57,-1,59,61,-1,-1,-1,-1,63,65,67,-1,69,-1,71,-1,-1,-1,-1,-1,-1,73,75,77,-1,-1,-1,-1,-1,-1,-1,-1,-1,-1,-1,-1,-1,-1,-1,-1],"loss_changes":[5.420449E2,0E0,3.966879E3,1.0954453E3,4.2757188E3,3.4916016E1,5.436214E3,5.917481E2,6.55297E3,2.5539062E1,9.2769403E2,9.197607E3,0E0,1.2351489E2,6.487602E1,1.6194922E2,7.396927E-1,8.243652E0,1.06679565E2,5.145874E-1,0E0,1.9781777E3,0E0,0E0,0E0,3.5827637E-2,1.8386552E2,1.0195508E2,0E0,3.8124976E0,0E0,4.5039062E0,3.4224167E1,7.7269897E0,5.0732468E2,0E0,0E0,1.1088574E2,0E0,4.2065727E1,0E0,1.9157771E2,5.3492355E-1,0E0,0E0,0E0,0E0,6.8120117E0,8.5023315E2,1.5398527E1,0E0,8.399124E0,0E0,9.410126E0,0E0,0E0,0E0,0E0,0E0,0E0,6.7572363E2,1.0405132E0,3.2282257E-1,0E0,0E0,0E0,0E0,0E0,0E0,0E0,0E0,0E0,0E0,0E0,0E0,0E0,0E0,0E0,0E0],"parents":[2147483647,0,0,2,2,3,3,4,4,5,5,6,6,7,7,8,8,9,9,10,10,11,11,13,13,14,14,15,15,16,16,17,17,18,18,19,19,21,21,25,25,26,26,27,27,29,29,31,31,32,32,33,33,34,34,37,37,39,39,41,41,42,42,47,47,48,48,49,49,51,51,53,53,60,60,61,61,62,62],"right_children":[2,-1,4,6,8,10,12,14,16,18,20,22,-1,24,26,28,30,32,34,36,-1,38,-1,-1,-1,40,42,44,-1,46,-1,48,50,52,54,-1,-1,56,-1,58,-1,60,62,-1,-1,-1,-1,64,66,68,-1,70,-1,72,-1,-1,-1,-1,-1,-1,74,76,78,-1,-1,-1,-1,-1,-1,-1,-1,-1,-1,-1,-1,-1,-1,-1,-1],"split_conditions":[4.756739E-1,-5.3570867E-2,-2.6776904E-1,-1.489009E-1,6.802138E-1,1.8282783E0,-1.4173767E-1,-3.8064852E-1,6.939148E-1,2.1557217E0,1.2096502E0,5.2058136E-1,-5.355383E-2,-1.491827E-1,3.7352347E-1,2.9742083E-1,-5.143946E-1,-2.6788753E-1,3.5121304E-1,1.6939459E0,-5.3545542E-2,-2.692429E-1,-5.344776E-2,6.962065E-1,-3.874539E-2,2.3338036E-1,3.9038616E-1,-2.3143303E-1,-3.874539E-2,-8.99957E-1,-5.1088672E-2,6.844295E-1,-1.4918402E-1,-1.491861E-1,1.2096502E0,2.474387E-1,9.806835E-2,-1.2280354E0,-5.2087184E-2,1.854301E-1,-5.335576E-2,4.7000125E-3,4.57837E-1,7.4361926E-1,-3.3106964E-2,-4.7595438E-2,9.56848E-2,-1.491751E-1,6.865374E-1,3.650921E-1,-5.0540607E-2,1.2096502E0,-5.3534694E-2,-4.9629247E-1,-5.3299494E-2,-3.4035657E-2,7.473368E-1,-5.3250898E-2,3.962264E-1,-5.190311E-2,2.9742083E-1,1.5564928E0,-2.5442296E-1,-5.3486962E-2,-4.6457566E-2,6.944847E-1,-5.3498775E-2,-2.8301885E-2,3.8088444E-1,-3.590509E-2,-5.3451147E-2,2.0283945E-1,3.3073696E-1,7.1210414E-1,-5.1700044E-2,-3.7656903E-2,2.7817402E-2,-3.6931355E-2,-5.3098388E-2],"split_indices":[66,0,18,8,17,13,8,9,17,12,39,9,0,8,17,9,9,18,9,10,0,18,0,0,0,9,17,18,0,9,0,17,8,8,39,0,0,9,0,9,0,9,17,0,0,0,0,8,17,17,0,39,0,10,0,0,0,0,0,0,9,10,18,0,0,0,0,0,0,0,0,0,0,0,0,0,0,0,0],"split_type":[0,0,0,0,0,0,0,0,0,0,0,0,0,0,0,0,0,0,0,0,0,0,0,0,0,0,0,0,0,0,0,0,0,0,0,0,0,0,0,0,0,0,0,0,0,0,0,0,0,0,0,0,0,0,0,0,0,0,0,0,0,0,0,0,0,0,0,0,0,0,0,0,0,0,0,0,0,0,0],"sum_hessian":[1.3308239E5,9.513592E4,3.7946473E4,3.684601E4,1.1004623E3,3.305282E4,3.7931914E3,6.6328894E2,4.3717337E2,3.087604E4,2.1767825E3,7.496534E2,3.043538E3,1.5555557E1,6.477334E2,2.4615114E2,1.9102223E2,2.798395E4,2.892089E3,1.08142235E2,2.0686401E3,3.174578E2,4.321956E2,1.2942224E1,2.6133335E0,4.1464893E2,2.3308446E2,2.435378E2,2.6133335E0,9.333334E0,1.816889E2,2.7964037E4,1.9911114E1,2.6451914E3,2.468978E2,1.0615112E2,1.9911113E0,2.8236447E2,3.5093338E1,1.6725334E2,2.4739557E2,7.752889E1,1.5555557E2,2.4192001E2,1.617778E0,7.964445E0,1.368889E0,2.5836908E4,2.1271292E3,3.235556E0,1.6675556E1,1.1879468E3,1.4572445E3,5.089778E1,1.9600002E2,1.7422223E0,2.8062225E2,1.6613335E2,1.1200001E0,3.1111115E1,4.641778E1,1.7048891E1,1.3850668E2,2.4312215E4,1.5246935E3,1.4311112E1,2.1128179E3,1.1200001E0,2.1155558E0,7.435556E2,4.4439114E2,1.480889E1,3.608889E1,1.8791113E1,2.7626669E1,1.4933334E1,2.1155558E0,2.625778E1,1.122489E2],"tree_param":{"num_deleted":"0","num_feature":"95","num_nodes":"79","size_leaf_vector":"0"}},{"base_weights":[-3.2230473E-1,1.089449E0,-5.357096E-1,-5.3564644E-1,2.4284894E0,1.032014E0,5.674697E0,1.9993505E0,-4.7115767E-1,7.4702706E0,-5.348872E-1,1.5754813E0,6.5802784E0,-5.354872E-1,9.6451804E-2,7.4966354E0,-4.7149706E-1,2.112919E0,-5.3500843E-1,7.4755406E0,-5.2217853E-1,7.1595716E0,-5.335467E-1,1.9923124E0,7.2287383E0,2.1381876E0,-4.0157667E-1,7.3877764E0,-3.095685E-1],"categories":[],"categories_nodes":[],"categories_segments":[],"categories_sizes":[],"default_left":[1,1,0,0,1,1,1,1,1,1,0,1,1,0,1,0,0,1,0,0,0,0,0,1,1,0,0,0,0],"id":11,"left_children":[1,3,-1,-1,5,7,9,11,13,15,-1,17,19,-1,21,-1,-1,23,-1,-1,-1,-1,-1,25,27,-1,-1,-1,-1],"loss_changes":[4.01211E4,3.8054617E4,0E0,0E0,4.3457023E4,9.750424E3,3.2155812E4,7.911423E3,9.594318E1,4.7189844E2,0E0,4.2382354E3,2.198962E3,0E0,1.1971653E3,0E0,0E0,1.8227734E3,0E0,0E0,0E0,0E0,0E0,1.0171924E3,8.405029E1,0E0,0E0,0E0,0E0],"parents":[2147483647,0,0,1,1,4,4,5,5,6,6,7,7,8,8,9,9,11,11,12,12,14,14,17,17,23,23,24,24],"right_children":[2,4,-1,-1,6,8,10,12,14,16,-1,18,20,-1,22,-1,-1,24,-1,-1,-1,-1,-1,26,28,-1,-1,-1,-1],"split_conditions":[-1.0912297E0,-1.8634986E0,-5.3570963E-2,-5.3564645E-2,-1.4918472E-1,-1.4918642E-1,-1.4918199E-1,2.8288645E-1,-1.491849E-1,-2.6870516E-1,-5.348872E-2,4.3093377E-1,1.2096502E0,-5.354872E-2,-1.4918478E-1,7.4966353E-1,-4.7149707E-2,-2.6924717E-1,-5.3500842E-2,7.4755406E-1,-5.2217852E-2,7.1595716E-1,-5.335467E-2,-2.692546E-1,-2.6921657E-1,2.1381877E-1,-4.015767E-2,7.3877764E-1,-3.095685E-2],"split_indices":[40,49,0,0,8,8,8,17,8,18,0,15,39,0,8,0,0,18,0,0,0,0,0,18,18,0,0,0,0],"split_type":[0,0,0,0,0,0,0,0,0,0,0,0,0,0,0,0,0,0,0,0,0,0,0,0,0,0,0,0,0],"sum_hessian":[1.3316802E5,1.7486188E4,1.1568182E5,7.8996094E3,9.586578E3,6.7039473E3,2.8826313E3,4.0787915E3,2.6251558E3,2.2358936E3,6.4673785E2,3.7345781E3,3.4421335E2,2.3579736E3,2.6718225E2,2.2285513E3,7.3422227E0,2.976587E3,7.5799115E2,3.056356E2,3.857778E1,2.1031113E1,2.4615114E2,2.909387E3,6.7200005E1,2.7423826E3,1.6700446E2,6.5831116E1,1.368889E0],"tree_param":{"num_deleted":"0","num_feature":"95","num_nodes":"29","size_leaf_vector":"0"}},{"base_weights":[-3.8158578E-1,-5.2696174E-1,7.404174E-1,-5.357096E-1,-1.5154089E-2,1.6532865E0,-5.356301E-1,4.7725554E0,-5.354144E-1,3.1823688E0,-2.3579243E-1,-5.275925E-1,7.44194E0,2.0406954E0,7.49271E0,-3.9881742E-1,7.409783E0,1.3848302E0,6.233667E0,-5.337477E-1,7.387146E0,3.0525584E0,5.816549E-1,7.2212877E0,-3.976578E-1,3.0597625E0,1.9193323E0,4.636697E-1,7.3080854E0,5.4303436E0,7.481101E0,-5.278304E-1,3.962264E0,4.428044E-1,2.4091775E0,7.314709E-1,-5.345814E-1,-4.4007748E-1,7.338871E0],"categories":[],"categories_nodes":[],"categories_segments":[],"categories_sizes":[],"default_left":[1,1,1,0,1,1,0,1,0,1,1,0,0,1,0,1,0,1,1,0,0,1,1,1,1,0,1,1,0,1,0,0,0,0,0,0,0,0,0],"id":12,"left_children":[1,3,5,-1,7,9,-1,11,-1,13,15,-1,-1,17,-1,19,-1,21,23,-1,-1,25,27,29,31,-1,33,35,-1,37,-1,-1,-1,-1,-1,-1,-1,-1,-1],"loss_changes":[2.1693742E4,5.2714844E2,1.7771938E4,0E0,4.9336187E3,2.5690998E4,0E0,2.7506138E3,0E0,2.4172969E4,4.9630693E3,0E0,0E0,1.068181E4,0E0,4.0983574E3,0E0,4.502711E3,3.444713E3,0E0,0E0,3.0488281E0,1.7989146E3,1.7223828E2,4.1292206E1,0E0,5.8669624E0,5.973215E2,0E0,6.9343713E2,0E0,0E0,0E0,0E0,0E0,0E0,0E0,0E0,0E0],"parents":[2147483647,0,0,1,1,2,2,4,4,5,5,7,7,9,9,10,10,13,13,15,15,17,17,18,18,21,21,22,22,23,23,24,24,26,26,27,27,29,29],"right_children":[2,4,6,-1,8,10,-1,12,-1,14,16,-1,-1,18,-1,20,-1,22,24,-1,-1,26,28,30,32,-1,34,36,-1,38,-1,-1,-1,-1,-1,-1,-1,-1,-1],"split_conditions":[1.2096502E0,3.992513E0,1.8691154E0,-5.3570963E-2,-5.963716E-2,-1.4918539E-1,-5.356301E-2,-7.2284184E-2,-5.354144E-2,-1.491859E-1,-1.491757E-1,-5.275925E-2,7.44194E-1,2.1557217E0,7.4927104E-1,-2.68691E-1,7.409783E-1,-1.3306202E0,-2.6924956E-1,-5.3374767E-2,7.3871464E-1,1.7353526E0,-2.6918966E-1,-1.4918643E-1,-2.692166E-1,3.0597624E-1,1.7425305E0,-1.491862E-1,7.3080856E-1,-2.69252E-1,7.481101E-1,-5.2783042E-2,3.962264E-1,4.428044E-2,2.4091776E-1,7.314709E-2,-5.3458143E-2,-4.400775E-2,7.3388714E-1],"split_indices":[39,55,48,0,17,8,0,17,0,8,8,0,0,12,0,18,0,9,18,0,0,10,18,8,18,0,10,8,0,18,0,0,0,0,0,0,0,0,0],"split_type":[0,0,0,0,0,0,0,0,0,0,0,0,0,0,0,0,0,0,0,0,0,0,0,0,0,0,0,0,0,0,0,0,0,0,0,0,0,0,0],"sum_hessian":[1.329954E5,1.1774051E5,1.5254899E4,1.1576184E5,1.9786669E3,8.892801E3,6.362098E3,1.9313779E2,1.785529E3,4.9143115E3,3.9784893E3,6.496001E1,1.281778E2,3.8864004E3,1.0279113E3,3.896356E3,8.213334E1,3.361867E3,5.245334E2,3.8308982E3,6.545779E1,1.0918756E3,2.2699912E3,4.5646225E2,6.807111E1,1.083289E3,8.586667E0,2.2319114E3,3.808E1,6.060445E1,3.9585782E2,6.695112E1,1.1200001E0,2.6133335E0,5.973334E0,1.760018E3,4.7189337E2,1.5057779E1,4.554667E1],"tree_param":{"num_deleted":"0","num_feature":"95","num_nodes":"39","size_leaf_vector":"0"}},{"base_weights":[-3.2531527E-1,-4.886668E-1,6.549298E0,6.73734E-1,-5.3571E-1,2.0842515E-1,7.3645787E0,1.3678432E-1,7.365495E0,-4.6593082E-1,7.257019E0,7.4971848E0,2.3847945E0,-2.0200758E-1,8.0666447E-1,-3.488372E-1,7.4049745E0,-5.3092E-1,5.424354E0,9.427357E-1,7.0569696E0,-2.8110996E-1,9.648037E-1,-2.5683683E-1,4.09351E0,4.548282E0,-5.226707E-1,-8.693737E-2,-5.0226724E-1,2.2253323E0,9.1814786E-1,-2.8934884E-1,5.72409E0,5.208692E0,1.5881697E0,-4.3080938E-1,6.2423363E0,-1.08847775E-1,2.5778787E0,-5.1544416E-1,4.1137123E0,9.891467E-1,5.9174806E-1,2.2077315E0,-3.5095006E-1,3.6530643E0,5.8717637E0,5.798413E0,8.394869E-1,1.4578229E-1,-2.65029E-1,1.688366E0,4.7717543E0,-2.5004047E-1,-5.3216255E-1,9.5121944E-1,1.6530994E0,3.389684E-1,1.0820757E0,1.5897201E0,3.1864254E0,1.9969189E-1,-4.6707195E-1,6.432058E0,-4.903505E-1,4.732683E0,6.763672E0,2.027027E0,6.4536448E0,5.1423025E0,-2.2288283E-2],"categories":[],"categories_nodes":[],"categories_segments":[],"categories_sizes":[],"default_left":[1,1,1,1,0,1,1,1,1,1,0,0,1,1,1,0,0,0,0,1,0,1,1,1,1,1,0,1,1,0,1,1,0,1,1,0,0,1,1,1,0,1,1,1,1,1,1,1,1,0,0,0,0,0,0,0,0,0,0,0,0,0,0,0,0,0,0,0,0,0,0],"id":13,"left_children":[1,3,5,7,-1,9,11,13,15,17,-1,-1,19,21,23,-1,-1,-1,-1,25,-1,27,29,31,33,35,-1,37,39,-1,41,43,-1,45,47,-1,-1,49,51,53,-1,55,57,59,61,63,65,67,69,-1,-1,-1,-1,-1,-1,-1,-1,-1,-1,-1,-1,-1,-1,-1,-1,-1,-1,-1,-1,-1,-1],"loss_changes":[1.493939E5,7.10609E3,1.5960703E4,1.816164E4,0E0,1.6803531E3,1.7887969E3,1.0623705E3,1.1692969E2,1.2650207E2,0E0,0E0,4.8135556E2,2.8723575E2,5.496903E3,0E0,0E0,0E0,0E0,3.0091187E2,0E0,1.2502699E2,9.579163E0,2.3282515E2,1.0657446E3,1.4128326E2,0E0,9.0901955E1,8.492856E1,0E0,3.8703613E0,1.828009E2,0E0,2.5248242E2,3.728984E2,0E0,0E0,6.1297066E1,1.6722992E1,5.8945007E0,0E0,2.3667603E0,4.199341E0,1.22491455E1,7.399187E1,9.4749854E2,1.5548975E2,3.1211975E1,3.817481E2,0E0,0E0,0E0,0E0,0E0,0E0,0E0,0E0,0E0,0E0,0E0,0E0,0E0,0E0,0E0,0E0,0E0,0E0,0E0,0E0,0E0,0E0],"parents":[2147483647,0,0,1,1,2,2,3,3,5,5,6,6,7,7,8,8,9,9,12,12,13,13,14,14,19,19,21,21,22,22,23,23,24,24,25,25,27,27,28,28,30,30,31,31,33,33,34,34,37,37,38,38,39,39,41,41,42,42,43,43,44,44,45,45,46,46,47,47,48,48],"right_children":[2,4,6,8,-1,10,12,14,16,18,-1,-1,20,22,24,-1,-1,-1,-1,26,-1,28,30,32,34,36,-1,38,40,-1,42,44,-1,46,48,-1,-1,50,52,54,-1,56,58,60,62,64,66,68,70,-1,-1,-1,-1,-1,-1,-1,-1,-1,-1,-1,-1,-1,-1,-1,-1,-1,-1,-1,-1,-1,-1],"split_conditions":[-5.637078E-2,-1.8634986E0,-1.4918515E-1,-1.491795E-1,-5.3570997E-2,3.8697188E0,3.1575985E0,-1.4918523E-1,-2.6925278E-1,7.4239504E-1,7.257019E-1,7.497185E-1,-2.692479E-1,2.051968E0,-2.6924884E-1,-3.488372E-2,7.4049747E-1,-5.3092003E-2,5.424354E-1,-1.4918393E-1,7.05697E-1,1.0863631E-1,-1.2085316E0,-2.4857838E-2,1.3232765E0,3.2857118E0,-5.226707E-2,-2.6922983E-1,7.3712546E-1,2.2253323E-1,1.1489193E0,-1.4918488E-1,5.7240903E-1,-1.4918369E-1,-2.6924163E-1,-4.3080937E-2,6.2423366E-1,1.8282783E0,-2.6922104E-1,1.2096502E0,4.1137123E-1,1.0427411E0,1.5667714E0,-1.4918497E-1,-1.4918412E-1,-1.491837E-1,-2.6924136E-1,-2.6924485E-1,-1.4918399E-1,1.457823E-2,-2.6502902E-2,1.6883661E-1,4.7717544E-1,-2.5004048E-2,-5.3216256E-2,9.512194E-2,1.6530995E-1,3.389684E-2,1.08207576E-1,1.5897201E-1,3.1864256E-1,1.996919E-2,-4.6707194E-2,6.432058E-1,-4.9035054E-2,4.7326833E-1,6.763672E-1,2.0270269E-1,6.4536446E-1,5.1423025E-1,-2.2288284E-3],"split_indices":[5,49,8,8,0,41,5,8,18,17,0,0,18,14,18,0,0,0,0,8,0,15,9,17,11,5,0,18,17,0,10,8,0,8,18,0,0,13,18,39,0,10,10,8,8,8,18,18,8,0,0,0,0,0,0,0,0,0,0,0,0,0,0,0,0,0,0,0,0,0,0],"split_type":[0,0,0,0,0,0,0,0,0,0,0,0,0,0,0,0,0,0,0,0,0,0,0,0,0,0,0,0,0,0,0,0,0,0,0,0,0,0,0,0,0,0,0,0,0,0,0,0,0,0,0,0,0,0,0,0,0,0,0,0,0,0,0,0,0,0,0,0,0,0,0],"sum_hessian":[1.3302975E5,1.2994303E5,3.0867202E3,5.053814E3,1.2488922E5,3.5180447E2,2.7349158E3,4.6793604E3,3.7445337E2,3.219378E2,2.9866669E1,2.6634846E3,7.1431114E1,3.1081248E3,1.5712357E3,1.8666668E0,3.725867E2,3.1932446E2,2.6133335E0,5.5502228E1,1.592889E1,2.9115024E3,1.9662224E2,1.1878223E3,3.8341336E2,1.5431112E1,4.0071114E1,1.5510757E3,1.3604268E3,5.3511114E0,1.9127113E2,1.1823468E3,5.475556E0,2.645689E2,1.1884445E2,4.106667E0,1.1324446E1,1.5393779E3,1.1697779E1,1.3574401E3,2.986667E0,1.5543112E2,3.5840004E1,2.7626669E1,1.1547201E3,8.101334E1,1.8355557E2,1.6924446E1,1.01920006E2,5.8526227E2,9.5411566E2,9.582223E0,2.1155558E0,8.138667E1,1.2760535E3,1.4933334E2,6.0977783E0,2.4764446E1,1.1075557E1,1.8542223E1,9.084445E0,2.009778E2,9.537423E2,4.8160004E1,3.2853336E1,8.3377785E1,1.0017779E2,3.1111114E0,1.3813334E1,1.6177778E1,8.5742226E1],"tree_param":{"num_deleted":"0","num_feature":"95","num_nodes":"71","size_leaf_vector":"0"}},{"base_weights":[-4.7228444E-1,5.326175E-1,-5.3571E-1,1.5596819E0,-5.2581334E-1,5.3912044E-1,3.9671633E0,-5.267931E-1,-3.2866707E-1,3.5688788E-1,5.0104795E0,1.7320081E0,5.9937134E0,-5.0659686E-1,-5.3551483E-1,1.3789868E0,-5.0962996E-1,1.0394295E0,-5.3355783E-1,7.3898387E0,-5.200052E-1,6.9539824E0,-5.143134E-1,7.2900486E0,-4.925827E-1,-5.3144246E-1,-4.4796884E-1,2.4820466E0,1.6800632E-1,-5.3525794E-1,3.4883717E-1,7.3779774E0,6.0796475E0,1.8830241E0,-5.3184336E-1,7.3787723E0,5.6882787E0,4.757185E-1,-5.304454E-1,-5.3506213E-1,-4.6153862E-2,1.8720745E-1,-4.9528018E-1,2.752006E0,-5.2464885E-1,3.297499E-1,1.4674653E-1,-2.733485E-1,6.62777E0,1.1257034E-1,-5.343593E-1,7.206061E0,-4.6153846E-1,1.6037735E0,-3.7648612E-1,-4.013378E-1,2.9905558E-1,2.482656E0,-2.858576E-1,-1.0350203E-2,-5.3398615E-1,3.007401E0,-5.2204967E-1,2.7198604E-1,1.1797752E0,-2.372394E-1,1.5514828E-1,1.8867922E-1,-4.225352E-1,3.2799633E0,6.8099313E0,7.536466E-1,-3.2085562E-1,-3.488372E-1,4.6349745E0,-4.4943818E-1,3.1120327E-1,-5.0519115E-1,9.334297E-1],"categories":[],"categories_nodes":[],"categories_segments":[],"categories_sizes":[],"default_left":[1,1,0,1,1,1,1,1,1,1,1,1,1,1,0,0,0,1,1,0,0,1,1,1,1,1,1,1,1,0,0,0,1,0,1,0,1,1,0,0,1,1,1,1,0,1,1,1,1,0,0,0,0,0,0,0,1,1,1,1,0,0,0,0,0,0,0,0,0,0,0,0,0,0,0,0,0,0,0],"id":14,"left_children":[1,3,-1,5,7,9,11,13,15,17,19,21,23,25,-1,-1,-1,27,29,-1,-1,31,33,35,37,39,41,43,45,-1,-1,-1,47,-1,49,-1,51,53,-1,-1,55,57,59,61,-1,63,65,67,69,-1,-1,-1,-1,-1,-1,-1,71,73,75,77,-1,-1,-1,-1,-1,-1,-1,-1,-1,-1,-1,-1,-1,-1,-1,-1,-1,-1,-1],"loss_changes":[8.482631E3,8.590471E3,0E0,9.851531E3,5.7873535E-1,2.2941309E3,5.397119E3,4.1052246E-1,7.4724145E0,1.6466372E3,1.4547842E3,6.679122E3,5.26483E3,1.4896545E0,0E0,0E0,0E0,1.9274337E3,1.9507446E0,0E0,0E0,1.8625977E1,1.7763199E1,3.2146484E1,4.107769E0,1.429184E0,1.0893074E1,4.7013306E2,3.242752E0,0E0,0E0,0E0,2.1633203E2,0E0,7.0337677E-1,0E0,2.995691E2,4.9148464E0,0E0,0E0,1.0055596E0,2.8552073E1,6.277809E0,4.4475513E2,0E0,5.099189E0,2.7716846E0,4.8318452E-1,1.2272705E1,0E0,0E0,0E0,0E0,0E0,0E0,0E0,1.4354172E0,2.8946293E1,2.3037462E0,1.2504097E1,0E0,0E0,0E0,0E0,0E0,0E0,0E0,0E0,0E0,0E0,0E0,0E0,0E0,0E0,0E0,0E0,0E0,0E0,0E0],"parents":[2147483647,0,0,1,1,3,3,4,4,5,5,6,6,7,7,8,8,9,9,10,10,11,11,12,12,13,13,17,17,18,18,21,21,22,22,23,23,24,24,25,25,26,26,27,27,28,28,32,32,34,34,36,36,37,37,40,40,41,41,42,42,43,43,45,45,46,46,47,47,48,48,56,56,57,57,58,58,59,59],"right_children":[2,4,-1,6,8,10,12,14,16,18,20,22,24,26,-1,-1,-1,28,30,-1,-1,32,34,36,38,40,42,44,46,-1,-1,-1,48,-1,50,-1,52,54,-1,-1,56,58,60,62,-1,64,66,68,70,-1,-1,-1,-1,-1,-1,-1,72,74,76,78,-1,-1,-1,-1,-1,-1,-1,-1,-1,-1,-1,-1,-1,-1,-1,-1,-1,-1,-1],"split_conditions":[-1.8634986E0,-1.4918369E-1,-5.3570997E-2,-1.4918587E-1,8.246007E-1,3.992513E0,-2.6925185E-1,-5.637078E-2,-2.691816E-1,-2.8412187E-1,1.202932E-2,-1.491857E-1,-2.692414E-1,-2.692274E-1,-5.3551484E-2,1.3789868E-1,-5.0962996E-2,1.8282783E0,7.666352E-1,7.3898387E-1,-5.2000523E-2,-1.4918585E-1,-1.4918567E-1,-2.6924142E-1,-1.4918518E-1,1.5009269E-1,-2.692191E-1,-1.491864E-1,-1.0825062E0,-5.3525794E-2,3.488372E-2,7.3779774E-1,-1.4918579E-1,1.8830241E-1,-1.4918566E-1,7.3787725E-1,1.3232765E0,-1.06831625E-1,-5.304454E-2,-5.3506214E-2,-1.416004E-1,-9.4827175E-1,-1.4917913E-1,-2.692414E-1,-5.2464884E-2,-1.1015737E0,-1.0220072E0,-3.6411303E-1,-1.4918578E-1,1.1257034E-2,-5.343593E-2,7.206061E-1,-4.6153847E-2,1.6037735E-1,-3.7648614E-2,-4.013378E-2,8.2794344E-1,-9.492801E-1,-1.4917476E-1,-2.6921034E-1,-5.3398617E-2,3.007401E-1,-5.2204967E-2,2.7198603E-2,1.1797752E-1,-2.3723941E-2,1.5514828E-2,1.8867923E-2,-4.225352E-2,3.2799634E-1,6.8099314E-1,7.5364664E-2,-3.2085564E-2,-3.488372E-2,4.6349746E-1,-4.494382E-2,3.1120328E-2,-5.0519116E-2,9.3342975E-2],"split_indices":[49,8,0,8,17,55,18,5,18,17,17,8,18,18,0,0,0,13,17,0,0,8,8,18,8,17,18,8,10,0,0,0,8,0,8,0,11,9,0,0,10,9,8,18,0,10,10,10,8,0,0,0,0,0,0,0,10,9,8,18,0,0,0,0,0,0,0,0,0,0,0,0,0,0,0,0,0,0,0],"split_type":[0,0,0,0,0,0,0,0,0,0,0,0,0,0,0,0,0,0,0,0,0,0,0,0,0,0,0,0,0,0,0,0,0,0,0,0,0,0,0,0,0,0,0,0,0,0,0,0,0,0,0,0,0,0,0,0,0,0,0,0,0,0,0,0,0,0,0,0,0,0,0,0,0,0,0,0,0,0,0],"sum_hessian":[1.3308364E5,7.900605E3,1.2518303E5,4.0094758E3,3.8911292E3,2.8166758E3,1.1928E3,3.8702227E3,2.0906668E1,2.7074136E3,1.0926223E2,5.680889E2,6.247112E2,1.1850846E3,2.685138E3,1.368889E0,1.9537779E1,1.5325334E3,1.1748801E3,7.616E1,3.3102226E1,1.7024002E2,3.978489E2,5.2055115E2,1.0416001E2,8.266845E2,3.5840002E2,5.764267E2,9.5610675E2,1.1730134E3,1.8666668E0,1.0963557E2,6.060445E1,2.1155558E0,3.9573337E2,4.898134E2,3.073778E1,3.4844446E0,1.0067557E2,8.204623E2,6.222223E0,2.4640001E1,3.3376004E2,5.2901337E2,4.7413338E1,1.0938667E2,8.467201E2,4.853334E0,5.5751114E1,1.368889E0,3.9436447E2,2.4515558E1,6.222223E0,1.1200001E0,2.3644447E0,2.986667E0,3.235556E0,3.4844446E0,2.1155558E1,2.4764446E1,3.0899557E2,4.9080893E2,3.820445E1,1.0366223E2,5.724445E0,1.7546669E1,8.291734E2,1.1200001E0,3.7333336E0,3.857778E0,5.1893337E1,1.7422223E0,1.4933335E0,1.8666668E0,1.617778E0,1.6800001E1,4.355556E0,1.6551113E1,8.213334E0],"tree_param":{"num_deleted":"0","num_feature":"95","num_nodes":"79","size_leaf_vector":"0"}},{"base_weights":[-4.2687303E-1,-5.3281635E-1,-1.7368269E-1,-3.2722983E-1,3.036647E0,-4.8831308E-1,8.5264057E-1,3.537E0,1.8193104E0,-4.9146003E-1,4.3369013E-1,-5.326417E-1,3.6091266E0,-4.8998398E-1,3.575913E0,-3.7514403E-1,3.6253736E0,-5.043835E-1,-3.1159428E-1,2.2702765E0,-5.254355E-1,3.6346986E0,-4.7812548E-1,-4.625587E-1,3.5190344E0,-5.191119E-1,-3.642735E-1,2.5663044E0,-5.328074E-1,-4.7376028E-1,2.9560957E0,-5.030501E-1,3.0431068E0,-5.2587956E-1,-4.5939067E-1,-4.4439098E-1,4.0966168E-1,1.7446095E-1,2.5839367E0,3.6810112E0,1.3079823E0,-4.236355E-1,-5.2952874E-1,-5.309595E-1,6.6492504E-1,-5.326177E-1,2.6943781E0,-3.3725736E-1,-5.32437E-1,2.613343E0,-5.2913934E-1,-4.55645E-1,3.6086483E0,-5.0687724E-1,2.0808997E0],"categories":[],"categories_nodes":[],"categories_segments":[],"categories_sizes":[],"default_left":[1,0,1,1,1,1,1,1,1,1,1,0,1,0,0,1,0,1,1,1,0,0,0,1,0,1,1,1,0,0,1,1,0,1,1,1,1,0,0,0,1,1,0,0,0,0,0,0,0,0,0,0,0,0,0],"id":15,"left_children":[1,-1,3,5,7,9,11,13,15,17,19,-1,21,-1,-1,23,-1,25,27,29,-1,-1,-1,31,-1,33,35,37,-1,-1,39,41,-1,43,45,47,49,-1,-1,-1,51,53,-1,-1,-1,-1,-1,-1,-1,-1,-1,-1,-1,-1,-1],"loss_changes":[3.3664043E3,0E0,1.8251877E4,6.7162188E3,1.0230176E3,9.042578E1,1.6211853E4,1.8928418E2,1.9607598E3,7.187012E1,1.8842686E2,0E0,1.501543E2,0E0,0E0,7.791293E1,0E0,5.9463867E1,1.325403E3,7.0378876E1,0E0,0E0,0E0,3.276861E1,0E0,1.0330078E1,1.7088712E2,5.8172607E0,0E0,0E0,3.0385284E1,2.3493576E-1,0E0,1.4242578E2,6.180955E2,2.3357605E1,5.3675256E2,0E0,0E0,0E0,4.4456757E1,1.3483141E1,0E0,0E0,0E0,0E0,0E0,0E0,0E0,0E0,0E0,0E0,0E0,0E0,0E0],"parents":[2147483647,0,0,2,2,3,3,4,4,5,5,6,6,7,7,8,8,9,9,10,10,12,12,15,15,17,17,18,18,19,19,23,23,25,25,26,26,27,27,30,30,31,31,33,33,34,34,35,35,36,36,40,40,41,41],"right_children":[2,-1,4,6,8,10,12,14,16,18,20,-1,22,-1,-1,24,-1,26,28,30,-1,-1,-1,32,-1,34,36,38,-1,-1,40,42,-1,44,46,48,50,-1,-1,-1,52,54,-1,-1,-1,-1,-1,-1,-1,-1,-1,-1,-1,-1,-1],"split_conditions":[4.756739E-1,-5.3281635E-2,-2.667156E-1,-1.4887841E-1,6.770521E-1,-2.678762E-1,6.4030623E-1,-3.8064852E-1,6.939148E-1,1.8282783E0,-1.4918402E-1,-5.326417E-2,7.4984825E-1,-4.8998397E-2,3.575913E-1,-2.3143303E-1,3.6253735E-1,2.1557217E0,1.2096502E0,-3.8064852E-1,-5.254355E-2,3.6346987E-1,-4.7812548E-2,2.9742083E-1,3.5190344E-1,-1.491751E-1,3.3118603E-1,-1.4190583E0,-5.328074E-2,-4.737603E-2,5.9273857E-1,4.7000125E-3,3.0431068E-1,-2.6911446E-1,-1.0912297E0,-1.491861E-1,1.2096502E0,1.7446095E-2,2.5839368E-1,3.6810112E-1,7.0234615E-1,-2.541226E-1,-5.2952874E-2,-5.3095948E-2,6.6492505E-2,-5.3261768E-2,2.6943782E-1,-3.3725735E-2,-5.3243704E-2,2.613343E-1,-5.2913934E-2,-4.55645E-2,3.6086485E-1,-5.0687727E-2,2.0808998E-1],"split_indices":[66,0,18,8,17,18,9,9,17,13,8,0,9,0,0,18,0,12,39,9,0,0,0,9,0,8,9,10,0,0,17,9,0,18,40,8,39,0,0,0,17,18,0,0,0,0,0,0,0,0,0,0,0,0,0],"split_type":[0,0,0,0,0,0,0,0,0,0,0,0,0,0,0,0,0,0,0,0,0,0,0,0,0,0,0,0,0,0,0,0,0,0,0,0,0,0,0,0,0,0,0,0,0,0,0,0,0,0,0,0,0,0,0],"sum_hessian":[1.2550305E5,8.847926E4,3.7023785E4,3.533466E4,1.6891262E3,3.1090568E4,4.2440923E3,1.1957433E3,4.9338303E2,3.0985277E4,1.0529133E2,2.8251228E3,1.4189692E3,1.1333046E1,1.1844102E3,2.2309908E2,2.7028394E2,2.8906518E4,2.0787598E3,3.5653336E1,6.963799E1,1.4102566E3,8.712656E0,2.1906288E2,4.036201E0,2.6154465E4,2.752053E3,1.476242E2,1.9311356E3,7.1909137E0,2.8462423E1,2.1740826E2,1.6546214E0,2.3485256E4,2.6692073E3,2.4942725E3,2.577804E2,1.160025E0,1.4646419E2,1.891102E1,9.551402E0,5.8613743E1,1.5879451E2,2.3386047E4,9.9209755E1,2.6094497E3,5.9757404E1,1.1273516E3,1.366921E3,7.6477745E1,1.8130266E2,5.8607006E0,3.6907015E0,5.7500256E1,1.1134847E0],"tree_param":{"num_deleted":"0","num_feature":"95","num_nodes":"55","size_leaf_vector":"0"}},{"base_weights":[-3.2047638E-1,-5.328319E-1,2.0185635E0,2.9072313E0,-5.238996E-1,3.2782886E0,2.322903E0,3.1623755E0,-5.2861583E-1,-5.259528E-1,3.3388796E0,3.2177768E0,6.957235E-1,4.1730636E-1,-5.311646E-1,3.412374E0,1.9916927E0,-4.7467142E-2,3.5114784E0,-3.7372196E-1,1.8148699E0,-4.563375E-1,3.1261294E0,-2.0580319E-1,-5.318922E-1,3.460809E0,2.0810413E0,4.8183838E-1,2.0171423E0,-4.7735688E-1,6.1520016E-1,3.5546732E0,-4.5760372E-1,-5.313058E-1,-1.0651014E-1,1.0453838E0,3.314374E0,-4.4970727E-1,5.169342E-1,3.2636113E0,3.637919E0,5.5678673E0,1.4176075E0,9.499935E-1,-8.576537E-2,4.7003162E-1,2.0312793E0,-4.0890533E-1,-5.235183E-1,3.2527583E0,-3.2561872E-2,2.9176145E0,3.5886748E0,1.8764605E-1,-5.052328E-1,3.6329794E0,-1.6523457E-1,2.5491116E0,5.3266627E-1,1.3810128E0,3.5850084E0,3.4135914E0,2.5030265E0,3.6401145E0,9.5971234E-2,3.9855778E-1,3.2724667E0,1.9016019E-1,-3.044682E-1,-2.8485525E-1,9.3121785E-1,2.4856417E0,1.9731746E0,-4.2888847E-1,2.171328E-1,3.496748E0,8.6473936E-1,-2.834273E-1,1.4472781E0,3.1607366E0,1.7114273E0,3.605693E0,2.80288E0,-4.7710255E-1,1.24904506E-1,-5.1301354E-1,3.8108788E0,2.043157E0,-5.168008E-1,3.767344E0,-2.3831807E-1,3.6195939E0,-3.0388212E-1],"categories":[],"categories_nodes":[],"categories_segments":[],"categories_sizes":[],"default_left":[1,0,1,1,1,1,1,0,1,0,1,1,1,1,1,1,1,1,1,1,1,0,0,1,0,1,1,1,1,1,1,1,1,0,1,1,1,0,0,1,1,0,1,0,1,1,1,1,0,1,1,1,1,0,0,0,1,1,1,1,1,0,0,0,0,0,0,0,0,0,0,0,0,0,0,0,0,0,0,0,0,0,0,0,0,0,0,0,0,0,0,0,0],"id":16,"left_children":[1,-1,3,5,7,9,11,-1,13,-1,15,17,19,21,23,25,27,29,31,33,35,-1,-1,37,-1,39,41,43,45,47,49,51,53,-1,55,57,59,-1,-1,61,63,-1,65,-1,67,69,71,73,-1,75,77,79,81,-1,-1,-1,83,85,87,89,91,-1,-1,-1,-1,-1,-1,-1,-1,-1,-1,-1,-1,-1,-1,-1,-1,-1,-1,-1,-1,-1,-1,-1,-1,-1,-1,-1,-1,-1,-1,-1,-1],"loss_changes":[6.3026582E4,0E0,2.386336E4,1.6891953E3,4.9241577E1,1.1044844E3,4.428588E3,0E0,6.8120117E0,0E0,4.5946094E2,1.8826445E3,1.2944377E3,2.0135635E1,5.3601074E-1,2.8066016E2,8.481323E0,4.672197E1,3.1039062E2,2.3253738E1,6.061992E2,0E0,0E0,1.5924073E0,0E0,1.3851562E2,3.6041864E2,1.5142391E0,4.329895E0,1.00063324E-1,1.1041457E2,2.8123047E1,7.1789265E-1,0E0,4.5971554E1,2.689867E2,8.8565674E1,0E0,0E0,2.2497656E2,1.722461E1,0E0,2.5407336E2,0E0,2.6031402E-1,1.4799151E0,1.4086914E0,6.51176E-1,0E0,4.399185E0,2.0020721E1,2.2632141E1,1.2455078E1,0E0,0E0,0E0,1.855215E1,3.4541443E2,4.175746E2,9.199029E1,2.210254E1,0E0,0E0,0E0,0E0,0E0,0E0,0E0,0E0,0E0,0E0,0E0,0E0,0E0,0E0,0E0,0E0,0E0,0E0,0E0,0E0,0E0,0E0,0E0,0E0,0E0,0E0,0E0,0E0,0E0,0E0,0E0,0E0],"parents":[2147483647,0,0,2,2,3,3,4,4,5,5,6,6,8,8,10,10,11,11,12,12,13,13,14,14,15,15,16,16,17,17,18,18,19,19,20,20,23,23,25,25,26,26,27,27,28,28,29,29,30,30,31,31,32,32,34,34,35,35,36,36,39,39,40,40,42,42,44,44,45,45,46,46,47,47,49,49,50,50,51,51,52,52,56,56,57,57,58,58,59,59,60,60],"right_children":[2,-1,4,6,8,10,12,-1,14,-1,16,18,20,22,24,26,28,30,32,34,36,-1,-1,38,-1,40,42,44,46,48,50,52,54,-1,56,58,60,-1,-1,62,64,-1,66,-1,68,70,72,74,-1,76,78,80,82,-1,-1,-1,84,86,88,90,92,-1,-1,-1,-1,-1,-1,-1,-1,-1,-1,-1,-1,-1,-1,-1,-1,-1,-1,-1,-1,-1,-1,-1,-1,-1,-1,-1,-1,-1,-1,-1,-1],"split_conditions":[1.8691154E0,-5.3283192E-2,-1.4917935E-1,-1.4918587E-1,-2.6925278E-1,1.2096502E0,-2.6925185E-1,3.1623754E-1,-2.6924133E-1,-5.2595284E-2,2.051968E0,-1.491857E-1,-2.6924142E-1,-2.6924145E-1,-1.4917913E-1,2.1557217E0,-1.3949125E0,-1.4918585E-1,7.381793E-1,-1.4918384E-1,1.3232765E0,-4.5633752E-2,3.1261295E-1,-2.6920256E-1,-5.3189218E-2,1.0863631E-1,-2.69252E-1,-1.415738E0,-1.2867918E0,-3.4103878E-2,-1.4918578E-1,-1.4918488E-1,1.4809872E0,-5.313058E-2,-2.6925156E-1,-2.6924136E-1,-1.4918399E-1,-4.497073E-2,5.169342E-2,-1.3167856E0,7.877135E-1,5.567867E-1,-2.6924133E-1,9.499935E-2,6.2224674E-1,1.8938535E-1,-9.5040286E-1,-9.7605675E-2,-5.2351832E-2,1.59796E0,-1.4918575E-1,-1.4918497E-1,3.2857118E0,1.8764606E-2,-5.052328E-2,3.6329794E-1,-2.692511E-1,-2.692414E-1,-1.4918368E-1,-2.692414E-1,-2.6920933E-1,3.4135914E-1,2.5030264E-1,3.6401147E-1,9.597124E-3,3.985578E-2,3.2724667E-1,1.9016018E-2,-3.0446822E-2,-2.8485525E-2,9.312179E-2,2.4856417E-1,1.9731747E-1,-4.2888846E-2,2.1713281E-2,3.496748E-1,8.6473934E-2,-2.834273E-2,1.4472781E-1,3.1607366E-1,1.7114274E-1,3.6056933E-1,2.80288E-1,-4.7710255E-2,1.249045E-2,-5.1301356E-2,3.8108787E-1,2.043157E-1,-5.1680084E-2,3.767344E-1,-2.3831807E-2,3.619594E-1,-3.0388212E-2],"split_indices":[48,0,8,8,18,39,18,0,18,0,14,8,18,18,8,12,10,8,17,8,11,0,0,18,0,15,18,10,9,10,8,8,5,0,18,18,8,0,0,9,17,0,18,0,9,10,9,10,0,5,8,8,5,0,0,0,18,18,8,18,18,0,0,0,0,0,0,0,0,0,0,0,0,0,0,0,0,0,0,0,0,0,0,0,0,0,0,0,0,0,0,0,0],"split_type":[0,0,0,0,0,0,0,0,0,0,0,0,0,0,0,0,0,0,0,0,0,0,0,0,0,0,0,0,0,0,0,0,0,0,0,0,0,0,0,0,0,0,0,0,0,0,0,0,0,0,0,0,0,0,0,0,0,0,0,0,0,0,0,0,0,0,0,0,0,0,0,0,0,0,0,0,0,0,0,0,0,0,0,0,0,0,0,0,0,0,0,0,0],"sum_hessian":[1.2688544E5,1.1632533E5,1.056011E4,7.82492E3,2.7351907E3,4.783021E3,3.041899E3,2.6394608E0,2.7325513E3,7.486538E1,4.708156E3,1.961943E3,1.0799559E3,6.9056396E0,2.7256455E3,4.46314E3,2.4501543E2,1.6197844E2,1.7999646E3,5.52581E2,5.2737494E2,5.850338E0,1.0553019E0,6.71471E0,2.718931E3,4.304924E3,1.5821632E2,4.3918676E0,2.4062355E2,9.84142E1,6.356424E1,1.7806901E3,1.927447E1,3.4697177E2,2.0560925E2,3.4964706E2,1.7772787E2,5.302899E0,1.411811E0,2.0461384E3,2.2587856E3,2.4109726E1,1.341066E2,2.037589E0,2.3542788E0,2.4889433E0,2.3813461E2,4.3607697E1,5.4806503E1,1.1739954E1,5.1824284E1,9.462292E1,1.6860671E3,1.1228634E0,1.8151606E1,2.2379017E0,2.0337134E2,8.789416E1,2.617529E2,2.2573069E1,1.5515482E2,1.7062034E3,3.399351E2,2.2573584E3,1.4271473E0,8.733828E1,4.6768314E1,1.0986634E0,1.2556154E0,1.0889127E0,1.4000306E0,2.2263336E1,2.1587128E2,4.2563972E1,1.0437242E0,1.02304E1,1.5095538E0,4.500365E1,6.820634E0,7.740129E1,1.7221624E1,1.6468127E3,3.9254425E1,9.770485E1,1.056665E2,2.5821808E1,6.2072353E1,1.0691869E2,1.548342E2,8.589156E0,1.3983913E1,1.5385576E2,1.2990513E0],"tree_param":{"num_deleted":"0","num_feature":"95","num_nodes":"93","size_leaf_vector":"0"}},{"base_weights":[-2.4019994E-1,-5.3282994E-1,3.616844E0,-5.328383E-1,8.036977E-2,-5.1444733E-1,3.6296031E0,2.6108382E0,3.6342545E0,3.6485248E0,-3.3182073E-1,-4.6916306E-1,-5.1275976E-2,7.099429E-1,-4.0704024E-1],"categories":[],"categories_nodes":[],"categories_segments":[],"categories_sizes":[],"default_left":[1,1,1,0,0,0,1,1,0,0,1,0,1,0,0],"id":17,"left_children":[1,3,5,-1,-1,-1,7,9,-1,-1,11,-1,13,-1,-1],"loss_changes":[1.4490395E5,6.5234375E-1,4.7908594E2,0E0,0E0,0E0,3.328125E1,1.373111E2,0E0,0E0,4.5898068E-1,0E0,1.7088331E0,0E0,0E0],"parents":[2147483647,0,0,1,1,2,2,6,6,7,7,10,10,12,12],"right_children":[2,4,6,-1,-1,-1,8,10,-1,-1,12,-1,14,-1,-1],"split_conditions":[-1.6602534E-1,9.771305E1,-1.7964768E-1,-5.328383E-2,8.036978E-3,-5.1444735E-2,-1.4589122E-1,-1.4608939E-1,3.6342546E-1,3.648525E-1,6.2329206E0,-4.6916306E-2,6.847597E0,7.099429E-2,-4.0704023E-2],"split_indices":[2,0,3,0,0,0,3,3,0,0,2,0,2,0,0],"split_type":[0,0,0,0,0,0,0,0,0,0,0,0,0,0,0],"sum_hessian":[1.2838007E5,1.19327664E5,9.052407E3,1.1932617E5,1.4926586E0,2.7750614E1,9.024657E3,4.357112E1,8.981086E3,3.203468E1,1.1536443E1,7.293525E0,4.2429175E0,1.0343038E0,3.2086139E0],"tree_param":{"num_deleted":"0","num_feature":"95","num_nodes":"15","size_leaf_vector":"0"}},{"base_weights":[-3.1454256E-1,-4.2565843E-1,3.0284636E0,-5.195186E-1,1.0869626E0,-5.319403E-1,3.634361E0,-5.328347E-1,-2.5291657E-1,-5.32693E-1,3.6346416E0,-5.328437E-1,7.565418E-2,-5.3283066E-1,3.6364875E0],"categories":[],"categories_nodes":[],"categories_segments":[],"categories_sizes":[],"default_left":[1,1,1,1,1,0,0,1,1,0,0,0,0,0,0],"id":18,"left_children":[1,3,5,7,9,-1,-1,11,13,-1,-1,-1,-1,-1,-1],"loss_changes":[4.727241E4,1.7486816E4,8.833395E3,4.115664E2,2.9696562E4,0E0,0E0,6.4453125E-1,6.010153E3,0E0,0E0,0E0,0E0,0E0,0E0],"parents":[2147483647,0,0,1,1,2,2,3,3,4,4,7,7,8,8],"right_children":[2,4,6,8,10,-1,-1,12,14,-1,-1,-1,-1,-1,-1],"split_conditions":[1.0219975E0,2.1557217E0,-1.6186729E-1,1.8282783E0,-1.491861E-1,-5.3194027E-2,3.634361E-1,9.771305E1,-1.6608296E-1,-5.3269304E-2,3.6346418E-1,-5.3284373E-2,7.565418E-3,-5.3283066E-2,3.6364874E-1],"split_indices":[8,12,17,13,8,0,0,0,17,0,0,0,0,0,0],"split_type":[0,0,0,0,0,0,0,0,0,0,0,0,0,0,0],"sum_hessian":[1.2725628E5,1.2316341E5,4.0928706E3,1.15968086E5,7.1953193E3,5.952363E2,3.4976343E3,1.10450375E5,5.517712E3,4.3993057E3,2.7960137E3,1.1044887E5,1.5106378E0,5.148076E3,3.6963562E2],"tree_param":{"num_deleted":"0","num_feature":"95","num_nodes":"15","size_leaf_vector":"0"}},{"base_weights":[-2.4505215E-2,-5.326933E-1,3.6186726E0,-5.3282195E-1,3.3570213E0,3.634237E0,-5.2417135E-1,-5.328391E-1,-3.6679855E-1,2.4788265E-1,-4.9178675E-1,6.941159E-1,-2.898464E-1],"categories":[],"categories_nodes":[],"categories_segments":[],"categories_sizes":[],"default_left":[1,1,1,1,0,0,0,0,1,1,0,0,0],"id":19,"left_children":[1,3,5,7,-1,-1,-1,-1,9,11,-1,-1,-1],"loss_changes":[2.4455333E5,5.9789062E1,1.0445469E3,1.3671875E-1,0E0,0E0,0E0,0E0,1.2879572E0,9.7612256E-1,0E0,0E0,0E0],"parents":[2147483647,0,0,1,1,2,2,3,3,8,8,9,9],"right_children":[2,4,6,8,-1,-1,-1,-1,10,12,-1,-1,-1],"split_conditions":[-2.1273357E-1,2.2422595E0,2.0892023E-1,-2.1289894E-1,3.3570215E-1,3.634237E-1,-5.2417137E-2,-5.328391E-2,4.4814515E0,-6.6372305E-2,-4.9178675E-2,6.941159E-2,-2.898464E-2],"split_indices":[19,21,20,19,0,0,0,0,20,21,0,0,0],"split_type":[0,0,0,0,0,0,0,0,0,0,0,0,0],"sum_hessian":[1.3208758E5,1.1591887E5,1.6168709E4,1.159159E5,2.9703584E0,1.6108313E4,6.0394985E1,1.1590172E5,1.4177453E1,2.2295363E0,1.1947917E1,1.0594914E0,1.1700449E0],"tree_param":{"num_deleted":"0","num_feature":"95","num_nodes":"13","size_leaf_vector":"0"}},{"base_weights":[-5.2909935E-1,-5.315624E-1,-4.6226352E-1,-5.322438E-1,-5.180342E-1,2.9269454E0,-5.3269964E-1,-5.328256E-1,-5.2406865E-1,-5.326884E-1,-4.9784675E-1,3.6313732E0,1.7799473E0,-5.326478E-1,-5.182469E-1,-4.5477557E-1,-5.324304E-1,-5.0127184E-1,3.5587647E0,-5.000199E-1,-5.3261966E-1,-4.1849434E-1,-5.305194E-1,7.775235E-2,-5.328065E-1,6.980322E-1,-4.2102107E-1,3.175914E-2,4.1322038E-1,-3.8716823E-1,-4.6710756E-1,7.5073E-2,-2.2275385E-1,5.9184986E-1,-1.4941484E-1,-4.1802922E-1,-2.8182992E-1,-4.7269374E-1,-5.9902437E-2],"categories":[],"categories_nodes":[],"categories_segments":[],"categories_sizes":[],"default_left":[1,1,1,1,1,1,0,0,1,0,1,0,1,0,1,1,0,0,0,1,0,1,0,1,0,0,1,1,1,1,1,0,0,0,0,0,0,0,0],"id":20,"left_children":[1,3,5,7,9,11,-1,-1,13,-1,15,-1,17,-1,19,21,-1,-1,-1,23,-1,25,-1,27,-1,-1,29,31,33,35,37,-1,-1,-1,-1,-1,-1,-1,-1],"loss_changes":[2.015625E1,8.2421875E-1,1.0547715E3,2.6171875E-1,1.4411621E0,6.623541E1,0E0,0E0,1.0449219E-1,0E0,3.3944092E0,0E0,1.486609E2,0E0,9.32251E-1,2.7846832E0,0E0,0E0,0E0,3.856073E1,0E0,2.3942413E0,0E0,1.6851032E0,0E0,0E0,9.790344E-1,1.0957232E0,1.4138126E0,1.2945175E0,6.768265E-1,0E0,0E0,0E0,0E0,0E0,0E0,0E0,0E0],"parents":[2147483647,0,0,1,1,2,2,3,3,4,4,5,5,8,8,10,10,12,12,14,14,15,15,19,19,21,21,23,23,26,26,27,27,28,28,29,29,30,30],"right_children":[2,4,6,8,10,12,-1,-1,14,-1,16,-1,18,-1,20,22,-1,-1,-1,24,-1,26,-1,28,-1,-1,30,32,34,36,38,-1,-1,-1,-1,-1,-1,-1,-1],"split_conditions":[-6.808156E-2,2.1557217E0,-1.4589122E-1,1.8282783E0,-1.3036638E0,-1.7971376E-1,-5.3269964E-2,-5.328256E-2,4.756739E-1,-5.326884E-2,-1.491861E-1,3.6313733E-1,-1.4608939E-1,-5.3264778E-2,-1.4822546E-1,1.2096502E0,-5.324304E-2,-5.0127186E-2,3.5587648E-1,1.2096502E0,-5.3261966E-2,-1.3017697E0,-5.3051945E-2,1.3820522E0,-5.328065E-2,6.980322E-2,-2.9232228E-1,9.713535E-1,1.6379881E0,-5.304575E-1,1.7158943E0,7.5072995E-3,-2.2275386E-2,5.9184987E-2,-1.4941484E-2,-4.1802924E-2,-2.8182993E-2,-4.7269374E-2,-5.990244E-3],"split_indices":[2,12,3,13,9,3,0,0,66,0,8,0,3,0,8,39,0,0,0,39,0,9,0,10,0,0,9,10,10,9,10,0,0,0,0,0,0,0,0],"split_type":[0,0,0,0,0,0,0,0,0,0,0,0,0,0,0,0,0,0,0,0,0,0,0,0,0,0,0,0,0,0,0,0,0,0,0,0,0,0,0],"sum_hessian":[1.23914016E5,1.1950316E5,4.4108643E3,1.1373599E5,5.7671577E3,8.897665E1,4.321887E3,1.0611946E5,7.6165376E3,3.3268184E3,2.4403394E3,5.378108E1,3.5195568E1,3.0425015E3,4.574036E3,1.0931097E3,1.3472297E3,1.5734842E1,1.9460726E1,2.0324093E3,2.5416267E3,7.434994E2,3.496103E2,1.0906538E2,1.923344E3,1.0572541E0,7.4244214E2,9.687793E1,1.2187451E1,4.3345132E2,3.089908E2,8.3391174E1,1.3486752E1,9.211116E0,2.976336E0,3.3294107E2,1.0051024E2,3.046507E2,4.340113E0],"tree_param":{"num_deleted":"0","num_feature":"95","num_nodes":"39","size_leaf_vector":"0"}},{"base_weights":[-5.3121483E-1,-5.3270906E-1,3.646459E0],"categories":[],"categories_nodes":[],"categories_segments":[],"categories_sizes":[],"default_left":[1,0,0],"id":21,"left_children":[1,-1,-1],"loss_changes":[7.750625E2,0E0,0E0],"parents":[2147483647,0,0],"right_children":[2,-1,-1],"split_conditions":[6.875149E0,-5.3270906E-2,3.6464593E-1],"split_indices":[17,0,0],"split_type":[0,0,0],"sum_hessian":[1.23848984E5,1.2380558E5,4.340913E1],"tree_param":{"num_deleted":"0","num_feature":"95","num_nodes":"3","size_leaf_vector":"0"}},{"base_weights":[2.9552927E0,3.6341023E0,-5.329045E-1],"categories":[],"categories_nodes":[],"categories_segments":[],"categories_sizes":[],"default_left":[1,0,0],"id":22,"left_children":[1,-1,-1],"loss_changes":[5.1308075E5,0E0,0E0],"parents":[2147483647,0,0],"right_children":[2,-1,-1],"split_conditions":[4.753451E-1,3.6341023E-1,-5.3290453E-2],"split_indices":[76,0,0],"split_type":[0,0,0],"sum_hessian":[2.1668705E5,1.8138847E5,3.5298582E4],"tree_param":{"num_deleted":"0","num_feature":"95","num_nodes":"3","size_leaf_vector":"0"}},{"base_weights":[-3.1581402E-1,8.8591725E-1,-5.328214E-1,-5.328579E-1,1.7517396E0,2.1225135E0,7.0599264E-1,1.5976014E0,4.0387783E0,-5.3296834E-1,3.330805E0,1.9736524E0,-5.3725606E-1,5.483214E0,3.628028E0,3.6474166E0,-5.2601177E-1,1.6212406E0,4.2581444E0,5.598107E0,-4.730727E-1,3.6609175E0,-4.0002483E-1,1.4854327E0,5.4884295E0,5.5893755E0,3.631495E0,-2.970351E-1,3.666527E0,1.7375019E0,-3.1807598E-1],"categories":[],"categories_nodes":[],"categories_segments":[],"categories_sizes":[],"default_left":[1,1,0,0,1,1,1,1,1,0,1,1,0,1,0,1,0,1,1,0,0,1,0,1,0,0,0,0,0,0,0],"id":23,"left_children":[1,3,-1,-1,5,7,9,11,13,-1,15,17,-1,19,-1,21,-1,23,25,-1,-1,27,-1,29,-1,-1,-1,-1,-1,-1,-1],"loss_changes":[3.3078625E4,2.383413E4,0E0,0E0,4.67034E3,8.940469E3,1.0263031E4,5.607744E3,1.1144531E3,0E0,1.2375967E3,4.7737188E3,0E0,2.9099805E2,0E0,5.2572266E1,0E0,2.694538E3,6.412207E2,0E0,0E0,2.1788086E1,0E0,2.2612568E3,0E0,0E0,0E0,0E0,0E0,0E0,0E0],"parents":[2147483647,0,0,1,1,4,4,5,5,6,6,7,7,8,8,10,10,11,11,13,13,15,15,17,17,18,18,21,21,23,23],"right_children":[2,4,-1,-1,6,8,10,12,14,-1,16,18,-1,20,-1,22,-1,24,26,-1,-1,28,-1,30,-1,-1,-1,-1,-1,-1,-1],"split_conditions":[-1.0912297E0,-1.8634986E0,-5.328214E-2,-5.328579E-2,-1.4918472E-1,-1.4918539E-1,-1.4917862E-1,-1.491859E-1,-2.692511E-1,-5.3296834E-2,-1.491757E-1,-1.491862E-1,-5.3725608E-2,-1.4918491E-1,3.628028E-1,-2.6801062E-1,-5.2601177E-2,1.3232765E0,-2.6923493E-1,5.598107E-1,-4.730727E-2,-2.6925346E-1,-4.0002484E-2,2.1557217E0,5.4884297E-1,5.5893755E-1,3.631495E-1,-2.970351E-2,3.666527E-1,1.7375019E-1,-3.1807598E-2],"split_indices":[40,49,0,0,8,8,8,8,18,0,8,8,0,8,0,18,0,11,18,0,0,18,0,12,0,0,0,0,0,0,0],"split_type":[0,0,0,0,0,0,0,0,0,0,0,0,0,0,0,0,0,0,0,0,0,0,0,0,0,0,0,0,0,0,0],"sum_hessian":[1.26839914E5,1.9400705E4,1.074392E5,7.3526724E3,1.2048032E4,8.893703E3,3.1543289E3,6.9827812E3,1.9109219E3,2.1434004E3,1.0109285E3,5.937056E3,1.045725E3,4.2035666E2,1.4905652E3,9.3428595E2,7.66426E1,5.1450737E3,7.9198267E2,4.124607E2,7.8959703E0,9.31275E2,3.0108895E0,4.9718564E3,1.7321742E2,2.5095135E2,5.410313E2,1.2444876E0,9.300306E2,4.362205E3,6.09651E2],"tree_param":{"num_deleted":"0","num_feature":"95","num_nodes":"31","size_leaf_vector":"0"}},{"base_weights":[-4.4396695E-1,-4.8323008E-1,1.1954675E0,-5.283888E-1,3.3275288E-1,3.6322234E0,-5.325142E-1,-5.328258E-1,-4.3732166E-1,-5.326872E-1,1.242505E0,-3.6109355E-1,3.6384783E0,-5.328348E-1,4.0353328E-2,-5.3282964E-1,1.162931E0,2.6075647E0,-5.32434E-1,3.6403651E0,-5.299096E-1,3.3985207E0,-5.3054446E-1,3.5307462E0,-5.2194375E-1],"categories":[],"categories_nodes":[],"categories_segments":[],"categories_sizes":[],"default_left":[1,1,1,1,1,1,0,1,1,0,1,0,0,0,0,0,1,1,0,0,0,1,0,0,0],"id":24,"left_children":[1,3,5,7,9,11,-1,13,15,-1,17,-1,-1,-1,-1,-1,19,21,-1,-1,-1,23,-1,-1,-1],"loss_changes":[8.0553574E3,4.503377E3,1.2326769E4,4.6560547E1,5.0468955E3,3.165039E1,0E0,5.8984375E-1,8.2373035E2,0E0,7.57278E3,0E0,0E0,0E0,0E0,0E0,1.275353E3,4.386671E3,0E0,0E0,0E0,7.3333496E2,0E0,0E0,0E0],"parents":[2147483647,0,0,1,1,2,2,3,3,4,4,5,5,7,7,8,8,10,10,16,16,17,17,21,21],"right_children":[2,4,6,8,10,12,-1,14,16,-1,18,-1,-1,-1,-1,-1,20,22,-1,-1,-1,24,-1,-1,-1],"split_conditions":[1.0270909E0,2.1557217E0,-2.8833753E-1,1.8282783E0,-1.3308328E0,1.8282783E0,-5.3251423E-2,9.771305E1,-1.4732799E-1,-5.326872E-2,-1.491861E-1,-3.6109354E-2,3.6384782E-1,-5.3283483E-2,4.0353327E-3,-5.3282965E-2,-1.6608296E-1,1.2096502E0,-5.32434E-2,3.6403653E-1,-5.299096E-2,3.2709795E-1,-5.305445E-2,3.5307464E-1,-5.2194376E-2],"split_indices":[8,12,17,13,9,13,0,0,8,0,8,0,0,0,0,0,17,39,0,0,0,9,0,0,0],"split_type":[0,0,0,0,0,0,0,0,0,0,0,0,0,0,0,0,0,0,0,0,0,0,0,0,0],"sum_hessian":[1.2513282E5,1.2220677E5,2.9260483E3,1.1579852E5,6.408251E3,1.2135828E3,1.7124656E3,1.1041398E5,5.3845483E3,3.2843186E3,3.1239324E3,1.8091884E0,1.2117736E3,1.1041231E5,1.6624503E0,5.0819116E3,3.026371E2,1.765592E3,1.3583405E3,1.2238253E2,1.8025453E2,1.4100963E3,3.5549573E2,1.3641858E3,4.5910496E1],"tree_param":{"num_deleted":"0","num_feature":"95","num_nodes":"25","size_leaf_vector":"0"}},{"base_weights":[-4.899588E-1,-5.3281635E-1,-3.8463378E-1,-4.4353575E-1,1.1724038E0,-5.0471675E-1,5.431338E-2,-7.99736E-2,2.427457E0,-5.1339483E-1,-3.8260704E-1,1.7833116E0,-5.32641E-1,3.150224E0,-2.3402338E-1,3.5921302E0,-4.9287468E-1,-5.237717E-1,-4.1358587E-1,1.7424003E0,-5.328052E-1,3.4057553E0,-5.314904E-1,3.6769748E0,-4.2112225E-1,-5.032941E-1,2.0211369E-1,3.6177514E0,-3.9702135E-1,-1.3043293E-1,-5.130487E-1,-5.240726E-1,9.517228E-2,-4.7467318E-1,2.1080886E-1,1.7678263E0,5.3324896E-1,3.6255643E0,-5.156589E-1,-4.590044E-1,-5.3059155E-1,1.2034043E0,-4.5412895E-1,3.6308043E0,-3.172573E-1,-4.8129943E-1,1.689221E0,-5.2769333E-1,-4.80038E-1,2.1071947E0,-4.8577952E-1,-4.038239E-1,-5.3243476E-1,2.2327397E0,-5.29078E-1,1.656209E0,2.0070665E0,5.5037953E-2,7.983496E-1,-3.0100104E-1,3.6356404E0,-5.2940404E-1,3.4793677E0,-5.15405E-1,1.9709013E0,-4.7852024E-1,-3.0764326E-2,-5.320283E-1,-4.594535E-1,3.6494477E0,-5.3171015E-1,6.3898593E-1,2.61501E0,-3.3000422E-1,-5.3137064E-1,1.1482229E0,2.3196099E0,1.7087718E0,2.2985393E-1,2.9100132E0,1.789964E0,3.6762612E0,-5.138586E-1,-1.8184327E-2,-4.8507777E-1,9.7649837E-1,-4.5700645E-1],"categories":[],"categories_nodes":[],"categories_segments":[],"categories_sizes":[],"default_left":[1,0,1,1,1,1,1,1,1,1,1,1,0,1,1,1,1,1,1,1,0,1,0,0,0,1,1,1,0,1,0,1,1,1,1,1,1,1,0,1,0,1,1,0,0,0,0,1,1,1,0,1,0,1,0,1,1,0,0,0,0,0,0,0,1,1,1,0,0,0,0,0,0,0,0,0,0,0,0,0,0,0,0,0,0,0,0],"id":25,"left_children":[1,-1,3,5,7,9,11,13,15,17,19,21,-1,23,25,27,29,31,33,35,-1,37,-1,-1,-1,39,41,43,-1,45,-1,47,49,51,53,55,57,59,-1,61,-1,63,65,-1,-1,-1,-1,67,69,71,-1,73,-1,75,-1,77,79,-1,-1,-1,-1,-1,-1,-1,81,83,85,-1,-1,-1,-1,-1,-1,-1,-1,-1,-1,-1,-1,-1,-1,-1,-1,-1,-1,-1,-1],"loss_changes":[5.611172E2,0E0,3.299315E3,1.055688E3,2.061391E3,3.251123E1,3.8512412E3,3.2784103E2,2.2296199E3,2.9626953E1,6.5584534E2,3.6138848E3,0E0,5.7968567E1,7.389528E1,4.9308105E1,1.3050117E0,4.9106445E0,1.0378659E2,3.229004E0,0E0,4.893828E2,0E0,0E0,0E0,2.2649384E-1,1.5862386E2,2.5061035E1,0E0,7.985414E0,0E0,3.9057617E0,1.683668E1,9.919495E0,3.64626E2,2.1316528E-1,4.9187112E-1,2.2288574E1,0E0,4.5000916E1,0E0,1.27024124E2,1.4934692E0,0E0,0E0,0E0,0E0,6.882324E0,4.2718576E2,7.285681E-1,0E0,1.0335709E1,0E0,3.4863586E0,0E0,6.808075E0,2.1268005E0,0E0,0E0,0E0,0E0,0E0,0E0,0E0,2.8258072E2,4.0783882E-1,4.3209605E0,0E0,0E0,0E0,0E0,0E0,0E0,0E0,0E0,0E0,0E0,0E0,0E0,0E0,0E0,0E0,0E0,0E0,0E0,0E0,0E0],"parents":[2147483647,0,0,2,2,3,3,4,4,5,5,6,6,7,7,8,8,9,9,10,10,11,11,13,13,14,14,15,15,16,16,17,17,18,18,19,19,21,21,25,25,26,26,27,27,29,29,31,31,32,32,33,33,34,34,35,35,36,36,37,37,39,39,41,41,42,42,47,47,48,48,49,49,51,51,53,53,55,55,56,56,64,64,65,65,66,66],"right_children":[2,-1,4,6,8,10,12,14,16,18,20,22,-1,24,26,28,30,32,34,36,-1,38,-1,-1,-1,40,42,44,-1,46,-1,48,50,52,54,56,58,60,-1,62,-1,64,66,-1,-1,-1,-1,68,70,72,-1,74,-1,76,-1,78,80,-1,-1,-1,-1,-1,-1,-1,82,84,86,-1,-1,-1,-1,-1,-1,-1,-1,-1,-1,-1,-1,-1,-1,-1,-1,-1,-1,-1,-1],"split_conditions":[4.756739E-1,-5.3281635E-2,-2.6781285E-1,-1.4889565E-1,6.802138E-1,1.8282783E0,-1.4173767E-1,-3.8064852E-1,6.939148E-1,2.1557217E0,1.2096502E0,5.2058315E-1,-5.32641E-2,-1.491827E-1,3.7352347E-1,-2.3143303E-1,-5.14395E-1,-2.6788753E-1,3.3042097E-1,1.6702639E0,-5.328052E-2,-2.692429E-1,-5.314904E-2,3.6769748E-1,-4.2112228E-2,2.3338029E-1,3.9038616E-1,2.9742083E-1,-3.9702136E-2,-8.209573E-1,-5.1304873E-2,6.844295E-1,-1.4918402E-1,-1.491861E-1,1.2096502E0,8.3968675E-1,1.7172616E0,-1.2281001E0,-5.1565893E-2,1.9255236E-1,-5.3059157E-2,4.7000125E-3,6.0116994E-1,3.6308044E-1,-3.172573E-2,-4.8129942E-2,1.6892211E-1,-1.4917511E-1,6.865374E-1,6.1803263E-1,-4.8577953E-2,1.2096502E0,-5.3243477E-2,-1.1221551E0,-5.2907802E-2,7.668098E-1,9.317045E-1,5.5037956E-3,7.983496E-2,-3.0100105E-2,3.6356404E-1,-5.2940406E-2,3.4793678E-1,-5.15405E-2,2.9742083E-1,-1.3957914E0,-2.526636E-1,-5.3202834E-2,-4.594535E-2,3.649448E-1,-5.3171016E-2,6.389859E-2,2.61501E-1,-3.300042E-2,-5.3137064E-2,1.1482229E-1,2.31961E-1,1.7087719E-1,2.2985393E-2,2.9100132E-1,1.789964E-1,3.6762613E-1,-5.138586E-2,-1.8184327E-3,-4.8507776E-2,9.7649835E-2,-4.5700647E-2],"split_indices":[66,0,18,8,17,13,8,9,17,12,39,9,0,8,17,18,9,18,9,10,0,18,0,0,0,9,17,9,0,9,0,17,8,8,39,10,10,9,0,9,0,9,17,0,0,0,0,8,17,17,0,39,0,10,0,10,10,0,0,0,0,0,0,0,9,10,18,0,0,0,0,0,0,0,0,0,0,0,0,0,0,0,0,0,0,0,0],"split_type":[0,0,0,0,0,0,0,0,0,0,0,0,0,0,0,0,0,0,0,0,0,0,0,0,0,0,0,0,0,0,0,0,0,0,0,0,0,0,0,0,0,0,0,0,0,0,0,0,0,0,0,0,0,0,0,0,0,0,0,0,0,0,0,0,0,0,0,0,0,0,0,0,0,0,0,0,0,0,0,0,0,0,0,0,0,0,0],"sum_hessian":[1.2435105E5,8.838319E4,3.596786E4,3.4657496E4,1.3103605E3,3.086452E4,3.7929768E3,6.563481E2,6.540124E2,2.8813598E4,2.050923E3,9.607745E2,2.8322024E3,2.8991411E1,6.273567E2,4.673829E2,1.866295E2,2.6096203E4,2.7173933E3,1.3469232E2,1.9162308E3,5.6458545E2,3.96189E2,2.5239212E1,3.7521992E0,3.877847E2,2.3957199E2,4.644927E2,2.8901856E0,1.0233973E1,1.7639554E2,2.6083676E4,1.2528283E1,2.475449E3,2.419443E2,1.3146582E2,3.2265017E0,5.3468964E2,2.9895802E1,1.546623E2,2.331224E2,9.452009E1,1.450519E2,4.630341E2,1.4586341E0,9.196248E0,1.0377251E0,2.409177E4,1.991906E3,2.2183352E0,1.0309948E1,1.1153608E3,1.3600881E3,6.4275986E1,1.7766832E2,9.504529E1,3.6420536E1,1.5814176E0,1.6450841E0,1.2946429E0,5.33395E2,1.5279657E2,1.8657093E0,2.9278765E1,6.5241325E1,1.3702708E2,8.024816E0,2.2646348E4,1.4454215E3,2.3756182E1,1.9681498E3,1.1504445E0,1.0678908E0,7.0874866E2,4.0661215E2,5.8210936E0,5.845489E1,9.147628E1,3.569008E0,4.655228E0,3.1765308E1,3.840404E1,2.6837286E1,1.9775454E0,1.3504955E2,2.0022662E0,6.0225496E0],"tree_param":{"num_deleted":"0","num_feature":"95","num_nodes":"87","size_leaf_vector":"0"}},{"base_weights":[-3.1202132E-1,8.989348E-1,-5.328214E-1,-5.328575E-1,1.762373E0,8.759678E-1,3.1077502E0,1.551363E0,-4.6632972E-1,3.6293333E0,-5.3199935E-1,1.2902544E0,3.377699E0,-5.3291863E-1,8.782253E-2,3.6360245E0,-4.6460828E-1,1.6456454E0,-5.3167176E-1,3.635503E0,-5.192184E-1,3.6478198E0,-5.305509E-1,1.7377688E0,-3.0790696E-1,2.0335922E0,1.2592918E0,-3.9617866E-1,-1.14755385E-1],"categories":[],"categories_nodes":[],"categories_segments":[],"categories_sizes":[],"default_left":[1,1,0,0,1,1,1,1,1,1,0,1,1,0,1,0,0,1,0,0,0,0,0,1,1,0,0,0,0],"id":26,"left_children":[1,3,-1,-1,5,7,9,11,13,15,-1,17,19,-1,21,-1,-1,23,-1,-1,-1,-1,-1,25,27,-1,-1,-1,-1],"loss_changes":[3.3968445E4,2.4221914E4,0E0,0E0,1.4572617E4,6.681444E3,9.216656E3,2.3335781E3,9.109802E1,1.1799609E2,0E0,2.779293E3,6.173623E2,0E0,5.865276E2,0E0,0E0,6.467744E2,0E0,0E0,0E0,0E0,0E0,4.8283887E2,2.7261124E0,0E0,0E0,0E0,0E0],"parents":[2147483647,0,0,1,1,4,4,5,5,6,6,7,7,8,8,9,9,11,11,12,12,14,14,17,17,23,23,24,24],"right_children":[2,4,-1,-1,6,8,10,12,14,16,-1,18,20,-1,22,-1,-1,24,-1,-1,-1,-1,-1,26,28,-1,-1,-1,-1],"split_conditions":[-1.0912297E0,-1.8634986E0,-5.328214E-2,-5.3285748E-2,-1.4918472E-1,-1.4918642E-1,-1.4918199E-1,2.8288645E-1,-1.491849E-1,-2.6870516E-1,-5.3199936E-2,4.3093377E-1,1.2096502E0,-5.3291865E-2,-1.4918478E-1,3.6360246E-1,-4.646083E-2,1.3232765E0,-5.3167176E-2,3.635503E-1,-5.192184E-2,3.6478198E-1,-5.305509E-2,1.8282783E0,8.211074E-1,2.0335923E-1,1.2592918E-1,-3.9617866E-2,-1.1475539E-2],"split_indices":[40,49,0,0,8,8,8,17,8,18,0,15,39,0,8,0,0,11,0,0,0,0,0,13,10,0,0,0,0],"split_type":[0,0,0,0,0,0,0,0,0,0,0,0,0,0,0,0,0,0,0,0,0,0,0,0,0,0,0,0,0],"sum_hessian":[1.2703939E5,1.959107E4,1.0744832E5,7.37007E3,1.2221E4,7.3681367E3,4.852864E3,4.9016494E3,2.466487E3,4.2446064E3,6.0825726E2,4.2900186E3,6.116312E2,2.201933E3,2.6455383E2,4.2377915E3,6.814613E0,3.589864E3,7.001543E2,5.737418E2,3.7889355E1,3.8427326E1,2.2612651E2,3.4283066E3,1.6155753E2,2.1165051E3,1.3118016E3,1.1016168E2,5.139584E1],"tree_param":{"num_deleted":"0","num_feature":"95","num_nodes":"29","size_leaf_vector":"0"}},{"base_weights":[-3.697832E-1,-5.232779E-1,6.528525E-1,-5.328214E-1,-3.557487E-3,1.3184433E0,-5.328685E-1,2.8290093E0,-5.325049E-1,2.2082617E0,-2.1680187E-1,-5.24171E-1,3.6378732E0,1.6049758E0,3.6631002E0,-3.8426006E-1,3.6409278E0,1.1793882E0,3.3713505E0,-5.3062814E-1,3.65231E0,2.2879937E0,5.143642E-1,3.6462777E0,-3.6798972E-1,2.29164E0,8.780452E-1,4.1976684E-1,3.669586E0,3.0791125E0,3.720255E0,-5.2427477E-1,3.2046585E0,1.5934005E-1,1.5164877E0,6.4894617E-1,-5.3244114E-1,-4.351484E-1,3.65147E0],"categories":[],"categories_nodes":[],"categories_segments":[],"categories_sizes":[],"default_left":[1,1,1,0,1,1,0,1,0,1,1,0,0,1,0,1,0,1,1,0,0,1,1,1,1,0,1,1,0,1,0,0,0,0,0,0,0,0,0],"id":27,"left_children":[1,3,5,-1,7,9,-1,11,-1,13,15,-1,-1,17,-1,19,-1,21,23,-1,-1,25,27,29,31,-1,33,35,-1,37,-1,-1,-1,-1,-1,-1,-1,-1,-1],"loss_changes":[1.9793922E4,5.4381836E2,1.2988921E4,0E0,2.9651604E3,1.4400182E4,0E0,8.4653516E2,0E0,5.851088E3,2.5005535E3,0E0,0E0,3.5434531E3,0E0,2.1930542E3,0E0,2.8034922E3,9.427002E2,0E0,0E0,5.319824E0,7.085699E2,2.4336914E1,3.7202904E1,0E0,2.1901803E0,5.0466666E2,0E0,2.1124146E2,0E0,0E0,0E0,0E0,0E0,0E0,0E0,0E0,0E0],"parents":[2147483647,0,0,1,1,2,2,4,4,5,5,7,7,9,9,10,10,13,13,15,15,17,17,18,18,21,21,22,22,23,23,24,24,26,26,27,27,29,29],"right_children":[2,4,6,-1,8,10,-1,12,-1,14,16,-1,-1,18,-1,20,-1,22,24,-1,-1,26,28,30,32,-1,34,36,-1,38,-1,-1,-1,-1,-1,-1,-1,-1,-1],"split_conditions":[1.2096502E0,3.992513E0,1.8691154E0,-5.328214E-2,-5.963716E-2,-1.4918539E-1,-5.328685E-2,-7.2284184E-2,-5.325049E-2,-1.491859E-1,-1.491757E-1,-5.24171E-2,3.6378732E-1,2.1557217E0,3.6631003E-1,-2.68691E-1,3.640928E-1,-1.3306282E0,-2.6924956E-1,-5.3062815E-2,3.65231E-1,1.7492932E0,-2.6918966E-1,-1.4918643E-1,-2.6921657E-1,2.29164E-1,1.7570326E0,-1.491862E-1,3.669586E-1,-2.69252E-1,3.720255E-1,-5.2427478E-2,3.2046586E-1,1.5934005E-2,1.5164877E-1,6.489462E-2,-5.3244114E-2,-4.351484E-2,3.65147E-1],"split_indices":[39,55,48,0,17,8,0,17,0,8,8,0,0,12,0,18,0,9,18,0,0,10,18,8,18,0,10,8,0,18,0,0,0,0,0,0,0,0,0],"split_type":[0,0,0,0,0,0,0,0,0,0,0,0,0,0,0,0,0,0,0,0,0,0,0,0,0,0,0,0,0,0,0,0,0,0,0,0,0,0,0],"sum_hessian":[1.2609751E5,1.09641164E5,1.6456342E4,1.07664125E5,1.9770388E3,1.0539821E4,5.91652E3,3.1041058E2,1.6666283E3,6.672212E3,3.8676096E3,6.0394493E1,2.5001608E2,4.7179126E3,1.9542993E3,3.70757E3,1.600396E2,3.8032346E3,9.1467786E2,3.578674E3,1.2889601E2,1.4251113E3,2.3781233E3,8.5205707E2,6.262081E1,1.4208115E3,4.2997875E0,2.3099998E3,6.8123535E1,1.03231384E2,7.488257E2,6.0813774E1,1.8070381E0,2.6105852E0,1.6892023E0,1.8621357E3,4.4786407E2,1.4491802E1,8.8739586E1],"tree_param":{"num_deleted":"0","num_feature":"95","num_nodes":"39","size_leaf_vector":"0"}},{"base_weights":[-3.1510502E-1,-4.8292142E-1,3.3850608E0,5.9085554E-1,-5.3284067E-1,2.0113446E-1,3.6037743E0,1.3553998E-1,3.6050718E0,-4.7768632E-1,3.6483903E0,1.8123087E0,3.6361353E0,-1.7867537E-1,6.944904E-1,-3.3541557E-1,3.6149435E0,-5.276776E-1,3.2810965E0,3.308703E0,-3.1940958E-1,-2.544694E-1,8.171263E-1,-2.4598314E-1,2.6090178E0,-4.320134E-1,3.630396E0,2.1353889E0,-4.673324E-1,-5.382493E-2,-4.9843046E-1,9.0853715E-1,3.721521E-1,1.9416728E0,-3.0925426E-1,4.0718865E0,2.193677E0,6.366185E-1,-5.1859003E-1,-1.15113586E-1,6.7149746E-1,-5.110042E-1,3.169818E0,1.2965332E0,7.8418404E-1,2.5132787E-1,7.261463E-1,5.794397E-1,2.1623473E0,-3.3862814E-1,3.6505225E0,-4.3414265E-1,4.2442846E0,1.391236E-1,2.9658158E0,-3.7136205E-2,-4.2734307E-1,1.8396745E0,5.0903145E-2,-5.274609E-1,-1.02010764E-1,8.1193835E-1,1.562698E0,-5.4343928E-2,8.396936E-1,3.3878982E-1,-4.0226907E-1,9.631873E-1,-3.1759772E-1,1.8121544E0,-1.9801286E-1,1.177264E0,2.6015892E0,2.4072388E-1,-4.6778163E-1,4.5351877E0,3.263285E0,2.0863416E0,-5.273567E-1,1.9249393E0,3.8186965E0],"categories":[],"categories_nodes":[],"categories_segments":[],"categories_sizes":[],"default_left":[1,1,1,1,0,1,1,1,1,1,0,1,0,1,1,0,0,0,0,1,1,1,1,1,1,0,0,0,1,1,1,1,1,1,1,1,1,0,0,1,1,1,0,1,1,1,1,1,1,1,0,0,1,1,1,0,0,0,0,0,0,0,0,0,0,0,0,0,0,0,0,0,0,0,0,0,0,0,0,0,0],"id":28,"left_children":[1,3,5,7,-1,9,11,13,15,17,-1,19,-1,21,23,-1,-1,-1,-1,25,27,29,31,33,35,-1,-1,-1,37,39,41,43,45,47,49,51,53,-1,-1,55,57,59,-1,61,63,65,67,69,71,73,-1,-1,75,77,79,-1,-1,-1,-1,-1,-1,-1,-1,-1,-1,-1,-1,-1,-1,-1,-1,-1,-1,-1,-1,-1,-1,-1,-1,-1,-1],"loss_changes":[7.889156E4,6.514916E3,3.8377969E3,7.410052E3,0E0,8.3333496E2,2.924297E2,8.2419275E2,2.877539E1,5.7687897E1,0E0,2.993478E2,0E0,2.2696567E2,3.041206E3,0E0,0E0,0E0,0E0,6.779077E1,1.5334004E1,1.3667128E2,8.315079E0,1.5746912E2,3.2910425E2,0E0,0E0,0E0,2.4836235E0,6.824666E1,5.974286E1,7.4648285E0,1.440599E0,8.364693E0,1.2945197E2,9.65094E1,6.904553E2,0E0,0E0,3.4431313E1,8.6631714E1,8.404694E0,0E0,4.036911E0,6.3597946E0,1.8410158E0,2.5640736E0,5.9426546E0,8.692299E0,8.205548E1,0E0,0E0,1.8722168E1,1.5684549E2,2.7360718E2,0E0,0E0,0E0,0E0,0E0,0E0,0E0,0E0,0E0,0E0,0E0,0E0,0E0,0E0,0E0,0E0,0E0,0E0,0E0,0E0,0E0,0E0,0E0,0E0,0E0,0E0],"parents":[2147483647,0,0,1,1,2,2,3,3,5,5,6,6,7,7,8,8,9,9,11,11,13,13,14,14,19,19,20,20,21,21,22,22,23,23,24,24,28,28,29,29,30,30,31,31,32,32,33,33,34,34,35,35,36,36,39,39,40,40,41,41,43,43,44,44,45,45,46,46,47,47,48,48,49,49,52,52,53,53,54,54],"right_children":[2,4,6,8,-1,10,12,14,16,18,-1,20,-1,22,24,-1,-1,-1,-1,26,28,30,32,34,36,-1,-1,-1,38,40,42,44,46,48,50,52,54,-1,-1,56,58,60,-1,62,64,66,68,70,72,74,-1,-1,76,78,80,-1,-1,-1,-1,-1,-1,-1,-1,-1,-1,-1,-1,-1,-1,-1,-1,-1,-1,-1,-1,-1,-1,-1,-1,-1,-1],"split_conditions":[-5.637078E-2,-1.8634986E0,-1.4918517E-1,-1.491795E-1,-5.3284068E-2,3.8697188E0,-2.692517E-1,-1.4918523E-1,-2.6925278E-1,7.4239504E-1,3.6483905E-1,-1.4918399E-1,3.6361355E-1,2.051968E0,-2.6924884E-1,-3.3541556E-2,3.6149436E-1,-5.276776E-2,3.2810965E-1,7.329098E-1,3.1408882E0,1.0863631E-1,1.1580014E0,-1.4918488E-1,-2.6924145E-1,-4.320134E-2,3.6303958E-1,2.1353889E-1,-1.4918393E-1,2.1557217E0,7.329098E-1,-5.31651E-1,1.0635058E0,-9.7005355E-1,-2.9073514E-2,-1.4918369E-1,-2.6924136E-1,6.366185E-2,-5.1859003E-2,-1.491864E-1,-2.6924282E-1,3.8697188E0,3.169818E-1,-9.972315E-1,-3.8094223E-1,7.641767E-1,1.7662323E0,-1.2927872E0,-1.4918508E-1,-1.4918414E-1,3.6505225E-1,-4.3414265E-2,1.3232765E0,-1.4918393E-1,-1.4918368E-1,-3.7136206E-3,-4.2734306E-2,1.8396746E-1,5.0903144E-3,-5.2746087E-2,-1.0201077E-2,8.1193835E-2,1.562698E-1,-5.434393E-3,8.396936E-2,3.3878982E-2,-4.0226907E-2,9.631873E-2,-3.1759772E-2,1.8121545E-1,-1.9801287E-2,1.177264E-1,2.6015893E-1,2.4072388E-2,-4.6778165E-2,4.5351878E-1,3.263285E-1,2.0863417E-1,-5.2735668E-2,1.9249393E-1,3.8186964E-1],"split_indices":[5,49,8,8,0,41,18,8,18,17,0,8,0,14,18,0,0,0,0,17,5,15,10,8,18,0,0,0,8,12,17,9,9,10,17,8,18,0,0,8,18,41,0,9,9,9,9,10,8,8,0,0,11,8,8,0,0,0,0,0,0,0,0,0,0,0,0,0,0,0,0,0,0,0,0,0,0,0,0,0,0],"split_type":[0,0,0,0,0,0,0,0,0,0,0,0,0,0,0,0,0,0,0,0,0,0,0,0,0,0,0,0,0,0,0,0,0,0,0,0,0,0,0,0,0,0,0,0,0,0,0,0,0,0,0,0,0,0,0,0,0,0,0,0,0,0,0,0,0,0,0,0,0,0,0,0,0,0,0,0,0,0,0,0,0],"sum_hessian":[1.27046445E5,1.21535234E5,5.5112095E3,5.398617E3,1.1613662E5,3.543708E2,5.156839E3,4.691051E3,7.075665E2,2.9678955E2,5.758126E1,9.251132E1,5.064327E3,3.003376E3,1.6876748E3,1.6857592E0,7.058808E2,2.9374243E2,3.047117E0,5.4031147E1,3.8480175E1,2.791639E3,2.1173718E2,1.1323177E3,5.5535706E2,4.2514453E0,4.97797E1,1.4233677E0,3.705681E1,1.5324797E3,1.259159E3,1.7478865E2,3.694854E1,3.0993721E1,1.101324E3,1.2086295E2,4.344941E2,1.1375293E0,3.5919277E1,1.4138527E3,1.1862714E2,1.2557155E3,3.4435484E0,4.013538E1,1.3465327E2,2.8821316E1,8.127224E0,4.826333E0,2.6167387E1,1.0941222E3,7.201791E0,4.397796E0,1.1646516E2,1.19008736E2,3.1548538E2,1.1322092E3,2.8164334E2,4.0474846E1,7.815229E1,1.2068652E3,4.885027E1,1.5665103E1,2.4470278E1,8.361737E0,1.26291534E2,2.5844545E1,2.976769E0,6.6859765E0,1.4412477E0,1.3518989E0,3.474434E0,9.204584E0,1.6962803E1,1.9929008E2,8.9483215E2,8.703344E1,2.9431715E1,2.9803406E1,8.920533E1,1.4355019E2,1.719352E2],"tree_param":{"num_deleted":"0","num_feature":"95","num_nodes":"81","size_leaf_vector":"0"}},{"base_weights":[-4.6578625E-1,4.735207E-1,-5.3284085E-1,1.2398047E0,-5.2250403E-1,4.8413187E-1,2.5045896E0,-5.238283E-1,-2.9241073E-1,3.2687834E-1,2.9355595E0,1.3743576E0,3.2168748E0,-5.034606E-1,-5.326045E-1,-4.6316615E-1,1.6129333E0,8.818779E-1,-5.3050405E-1,3.6506011E0,-4.853242E-1,3.5395718E0,-5.260622E-1,3.592322E0,-4.9804452E-1,-5.218873E-1,-4.5881677E-1,2.0729367E-1,-5.076579E-1,1.6374692E-1,1.8342448E0,-5.3233695E-1,5.700657E-1,-5.161406E-1,2.1031682E-1,3.5815077E0,2.35963E0,5.95687E-1,-5.315493E-1,2.71309E-1,-5.278329E-1,-5.2701944E-1,1.3199028E-1,1.15124024E-1,-5.019799E-1,2.989186E-1,1.36509E-1,1.9905031E0,-5.211399E-1,5.847207E-1,2.787409E0,1.1166723E0,-3.69074E-1,-4.0388784E-1,6.975223E-1,-2.3266391E-1,2.4393337E0,-1.748827E-1,-5.309673E-1,2.31954E-1,7.6614016E-1,1.4209446E-1,-3.662442E-1,2.1276588E0,-5.1835215E-1,1.384545E0,-3.5105836E-1,1.2605324E0,-2.8560036E-1,-3.8731974E-1,3.045101E-1,-3.1462213E-1,1.3862977E0],"categories":[],"categories_nodes":[],"categories_segments":[],"categories_sizes":[],"default_left":[1,1,0,1,1,1,1,1,1,1,1,1,1,1,0,1,0,1,1,0,1,1,1,0,1,1,1,0,0,1,1,0,0,0,0,0,1,0,0,1,0,0,1,1,1,1,1,1,0,1,0,0,0,0,1,1,0,1,0,0,0,0,0,0,0,0,0,0,0,0,0,0,0],"id":29,"left_children":[1,3,-1,5,7,9,11,13,15,17,19,21,23,25,-1,27,-1,29,31,-1,33,35,37,-1,39,41,43,-1,-1,45,47,-1,-1,-1,-1,-1,49,-1,-1,51,-1,-1,53,55,57,59,61,63,-1,65,-1,-1,-1,-1,67,69,-1,71,-1,-1,-1,-1,-1,-1,-1,-1,-1,-1,-1,-1,-1,-1,-1],"loss_changes":[7.8581953E3,6.3456943E3,0E0,4.489765E3,9.484863E-1,1.1334235E3,1.4101895E3,3.7426758E-1,8.214896E0,1.3168506E3,4.3536475E2,2.8042144E3,1.5041318E3,6.657715E-1,0E0,7.5679255E-1,0E0,1.1484945E3,2.497589E0,0E0,7.8443336E-1,7.307617E0,2.554451E0,0E0,2.429182E0,2.6589966E0,8.227203E0,0E0,0E0,3.4889946E0,2.6676587E2,0E0,0E0,0E0,0E0,0E0,8.894661E0,0E0,0E0,2.7825203E0,0E0,0E0,2.345197E0,1.9869766E1,2.8169937E0,4.8266068E0,2.2978802E0,2.3415894E2,0E0,3.448041E0,0E0,0E0,0E0,0E0,2.396633E0,1.9193776E0,0E0,6.211666E0,0E0,0E0,0E0,0E0,0E0,0E0,0E0,0E0,0E0,0E0,0E0,0E0,0E0,0E0,0E0],"parents":[2147483647,0,0,1,1,3,3,4,4,5,5,6,6,7,7,8,8,9,9,10,10,11,11,12,12,13,13,15,15,17,17,18,18,20,20,21,21,22,22,24,24,25,25,26,26,29,29,30,30,36,36,39,39,42,42,43,43,44,44,45,45,46,46,47,47,49,49,54,54,55,55,57,57],"right_children":[2,4,-1,6,8,10,12,14,16,18,20,22,24,26,-1,28,-1,30,32,-1,34,36,38,-1,40,42,44,-1,-1,46,48,-1,-1,-1,-1,-1,50,-1,-1,52,-1,-1,54,56,58,60,62,64,-1,66,-1,-1,-1,-1,68,70,-1,72,-1,-1,-1,-1,-1,-1,-1,-1,-1,-1,-1,-1,-1,-1,-1],"split_conditions":[-1.8634986E0,-1.4918369E-1,-5.3284086E-2,-1.4918587E-1,8.246007E-1,3.992513E0,-2.6925185E-1,-5.637078E-2,1.5617104E0,-2.8412187E-1,-9.049056E-3,-1.4918567E-1,-2.692414E-1,-2.692274E-1,-5.3260453E-2,1.0174679E0,1.6129333E-1,-1.6317701E0,7.877135E-1,3.6506012E-1,1.671973E0,-1.4918575E-1,-1.4918566E-1,3.5923222E-1,-1.4918523E-1,1.2479863E-1,-2.6921925E-1,2.0729369E-2,-5.076579E-2,-9.1600007E-1,-1.491864E-1,-5.3233694E-2,5.7006568E-2,-5.1614057E-2,2.1031683E-2,3.5815078E-1,-6.745719E-1,5.95687E-2,-5.3154927E-2,-1.06831625E-1,-5.278329E-2,-5.2701946E-2,-1.416004E-1,-2.6922053E-1,-1.4917913E-1,-9.813818E-1,1.7374278E0,-2.692414E-1,-5.211399E-2,-9.10351E-1,2.787409E-1,1.1166723E-1,-3.69074E-2,-4.0388785E-2,7.779428E-1,9.5055246E-1,2.4393336E-1,-1.4917916E-1,-5.309673E-2,2.3195399E-2,7.6614015E-2,1.42094465E-2,-3.662442E-2,2.1276589E-1,-5.1835217E-2,1.384545E-1,-3.5105836E-2,1.2605324E-1,-2.8560037E-2,-3.8731974E-2,3.0451009E-2,-3.1462215E-2,1.3862978E-1],"split_indices":[49,8,0,8,17,55,18,5,9,17,17,8,18,18,0,17,0,15,17,0,10,8,8,0,8,17,18,0,0,10,8,0,0,0,0,0,9,0,0,9,0,0,10,18,8,10,10,18,0,9,0,0,0,0,10,10,0,8,0,0,0,0,0,0,0,0,0,0,0,0,0,0,0],"split_type":[0,0,0,0,0,0,0,0,0,0,0,0,0,0,0,0,0,0,0,0,0,0,0,0,0,0,0,0,0,0,0,0,0,0,0,0,0,0,0,0,0,0,0,0,0,0,0,0,0,0,0,0,0,0,0,0,0,0,0,0,0,0,0,0,0,0,0,0,0,0,0,0,0],"sum_hessian":[1.2475818E5,8.312327E3,1.1644585E5,4.697837E3,3.61449E3,2.9416611E3,1.7561759E3,3.5925366E3,2.1953407E1,2.7654001E3,1.762608E2,6.8003955E2,1.0761362E3,1.0994047E3,2.4931318E3,2.0842436E1,1.1109706E0,1.6787109E3,1.0866893E3,1.4573233E2,3.0528484E1,3.1747116E2,3.6256842E2,9.7738965E2,9.874662E1,7.706348E2,3.287699E2,1.0693226E0,1.9773113E1,9.577174E2,7.209935E2,1.085398E3,1.291316E0,2.9480555E1,1.0479295E0,3.0460977E2,1.2861388E1,1.241311E0,3.613271E2,3.378606E0,9.536801E1,7.648259E2,5.808889E0,2.2879076E1,3.058908E2,1.5894713E2,7.9877026E2,6.762832E2,4.471032E1,2.9574459E0,9.903942E0,1.1356667E0,2.2429395E0,3.1294036E0,2.6794853E0,2.0683893E1,2.1951818E0,2.5473904E1,2.804169E2,1.4033067E2,1.861646E1,7.907031E2,8.067133E0,6.413722E2,3.491103E1,1.3359907E0,1.6214552E0,1.5243537E0,1.1551317E0,1.6276695E1,4.407197E0,2.4113962E1,1.359941E0],"tree_param":{"num_deleted":"0","num_feature":"95","num_nodes":"73","size_leaf_vector":"0"}},{"base_weights":[-4.2124903E-1,-5.3050363E-1,-1.6879752E-1,-3.2025036E-1,2.239216E0,-4.8445895E-1,7.367049E-1,-5.244033E-1,2.3283026E0,-4.8773378E-1,4.9455905E-1,-5.303348E-1,2.5485256E0,2.5355546E0,1.7039571E0,-5.018453E-1,-2.959797E-1,1.7614881E0,-5.209535E-1,2.5674536E0,-4.8821017E-1,2.4577122E0,2.59179E0,-3.0649206E-1,2.5723517E0,-5.1665145E-1,-3.6265573E-1,1.9858491E0,-5.305685E-1,-4.7135288E-1,2.2020152E0,2.5929427E0,-5.403607E-1,-4.2923474E-1,2.8110952E0,-5.2300984E-1,-4.611856E-1,-4.3700483E-1,3.1261063E-1,2.0459956E-1,1.9950249E0,2.5221636E0,1.257164E0,2.8611898E0,-5.269832E-1,-5.281844E-1,5.77294E-1,-5.3029E-1,2.0583255E0,-3.271206E-1,-5.3009814E-1,1.9089421E0,-5.2665603E-1,2.0282862E0,1.3360338E0,-4.415919E-1,2.6485636E0],"categories":[],"categories_nodes":[],"categories_segments":[],"categories_sizes":[],"default_left":[1,0,1,1,1,1,1,0,1,1,1,0,1,1,1,1,1,1,0,0,0,1,0,1,0,1,1,1,0,0,1,0,0,1,0,1,1,1,1,0,1,0,1,0,0,0,0,0,0,0,0,0,0,0,0,0,0],"id":30,"left_children":[1,-1,3,5,7,9,11,-1,13,15,17,-1,19,21,23,25,27,29,-1,-1,-1,31,-1,33,-1,35,37,39,-1,-1,41,-1,-1,43,-1,45,47,49,51,-1,53,-1,55,-1,-1,-1,-1,-1,-1,-1,-1,-1,-1,-1,-1,-1,-1],"loss_changes":[3.2749512E3,0E0,1.3081598E4,5.857339E3,5.23791E2,9.388818E1,1.0419409E4,0E0,2.617754E2,7.862598E1,1.2684162E2,0E0,1.08612305E2,3.798828E-1,9.008779E2,5.569287E1,1.0705515E3,4.4096252E1,0E0,0E0,0E0,2.7142993E2,0E0,6.1058384E1,0E0,8.401367E0,1.3119125E2,2.6395264E0,0E0,0E0,7.9421997E0,0E0,0E0,5.0187805E1,0E0,1.2543701E2,4.4137103E2,2.3885101E1,3.4865247E2,0E0,1.3538818E0,0E0,2.7858782E1,0E0,0E0,0E0,0E0,0E0,0E0,0E0,0E0,0E0,0E0,0E0,0E0,0E0,0E0],"parents":[2147483647,0,0,2,2,3,3,4,4,5,5,6,6,8,8,9,9,10,10,12,12,13,13,14,14,15,15,16,16,17,17,21,21,23,23,25,25,26,26,27,27,30,30,33,33,35,35,36,36,37,37,38,38,40,40,42,42],"right_children":[2,-1,4,6,8,10,12,-1,14,16,18,-1,20,22,24,26,28,30,-1,-1,-1,32,-1,34,-1,36,38,40,-1,-1,42,-1,-1,44,-1,46,48,50,52,-1,54,-1,56,-1,-1,-1,-1,-1,-1,-1,-1,-1,-1,-1,-1,-1,-1],"split_conditions":[4.756739E-1,-5.3050365E-2,-2.6672894E-1,-1.4890067E-1,-3.8064852E-1,-2.6780596E-1,6.403047E-1,-5.2440327E-2,6.770521E-1,1.8282783E0,1.2096502E0,-5.303348E-2,-2.692429E-1,2.9742083E-1,6.939148E-1,2.1557217E0,1.2096502E0,-3.8064852E-1,-5.209535E-2,2.5674537E-1,-4.8821017E-2,-1.8105112E-1,2.59179E-1,2.9742083E-1,2.5723517E-1,-1.4917508E-1,3.2358825E-1,-1.4190583E0,-5.3056847E-2,-4.713529E-2,6.1803263E-1,2.5929427E-1,-5.403607E-2,4.7000125E-3,2.8110954E-1,-2.6908922E-1,-1.0912297E0,-1.491861E-1,1.2096502E0,2.0459956E-2,1.5795157E0,2.5221637E-1,7.0234615E-1,2.8611898E-1,-5.269832E-2,-5.2818444E-2,5.77294E-2,-5.3029E-2,2.0583256E-1,-3.271206E-2,-5.3009816E-2,1.9089422E-1,-5.2665602E-2,2.0282863E-1,1.3360338E-1,-4.415919E-2,2.6485637E-1],"split_indices":[66,0,18,8,9,18,9,0,17,13,39,0,18,9,17,12,39,9,0,0,0,9,0,9,0,8,9,10,0,0,17,0,0,9,0,18,40,8,39,0,10,0,17,0,0,0,0,0,0,0,0,0,0,0,0,0,0],"split_type":[0,0,0,0,0,0,0,0,0,0,0,0,0,0,0,0,0,0,0,0,0,0,0,0,0,0,0,0,0,0,0,0,0,0,0,0,0,0,0,0,0,0,0,0,0,0,0,0,0,0,0,0,0,0,0,0,0],"sum_hessian":[1.1873953E5,8.287307E4,3.586646E4,3.374493E4,2.1215317E3,2.9207754E4,4.537176E3,6.6100296E1,2.0554314E3,2.9110879E4,9.6874794E1,2.6704136E3,1.8667623E3,1.5408759E3,5.1455566E2,2.7113906E4,1.9969729E3,4.2775066E1,5.4099724E1,1.8553523E3,1.1409984E1,6.650298E2,8.75846E2,1.5540935E2,3.591463E2,2.4504541E4,2.609366E3,1.8546849E2,1.8115044E3,7.037096E0,3.573797E1,6.3645703E2,2.8572786E1,1.5035216E2,5.0572033E0,2.1976787E4,2.527754E3,2.3508792E3,2.5848697E2,1.0699081E0,1.8439857E2,2.5446444E1,1.0291525E1,3.5220323E0,1.4683012E2,2.1874434E4,1.0235231E2,2.4610427E3,6.671121E1,1.0802738E3,1.2706053E3,8.863113E1,1.6985583E2,1.735606E2,1.0837995E1,4.941315E0,5.35021E0],"tree_param":{"num_deleted":"0","num_feature":"95","num_nodes":"57","size_leaf_vector":"0"}},{"base_weights":[-3.13647E-1,-5.3051734E-1,1.6006564E0,2.1555045E0,-5.2182657E-1,-5.270616E-1,2.1893814E0,2.4520864E0,-5.2680814E-1,2.4014416E0,1.8313743E0,3.1010482E-1,-5.291331E-1,2.4447722E0,1.5535884E0,2.3315332E0,6.7290974E-1,-4.507433E-1,2.493841E0,-2.87399E-1,-5.2990764E-1,2.4723392E0,1.6262863E0,1.5995759E0,7.710623E-1,-1.2055109E-1,2.4915571E0,-3.374153E-1,1.5335302E0,-4.6376354E-1,1.8034387E-1,2.3856595E0,2.5974908E0,3.4343214E0,1.1630542E0,1.611922E0,-4.8626788E-2,4.5011297E-1,2.2457285E0,-4.7464183E-1,4.8266423E-1,2.5155618E0,-4.545727E-1,-5.289097E-1,9.0942264E-4,9.8921216E-1,2.381914E0,-3.157628E-1,6.7840445E-1,2.2500327E0,2.4546118E0,4.1111183E0,2.5715573E0,3.3756098E-1,2.3520772E0,1.539414E0,2.1076314E0,6.3312374E-2,6.8669856E-1,-4.8430178E-1,2.1780495E-1,2.4552815E0,-3.5145786E-1,2.114129E0,2.537083E0,1.3627104E-1,-5.024858E-1,-3.2115793E-1,4.4788355E-1,-4.111321E-2,1.4455359E0,1.0236102E0,2.544627E0],"categories":[],"categories_nodes":[],"categories_segments":[],"categories_sizes":[],"default_left":[1,0,1,1,1,0,1,0,1,1,1,1,1,1,1,1,1,0,0,1,0,1,1,1,1,1,1,1,1,0,1,1,1,0,1,1,0,1,0,1,1,1,1,0,1,1,1,0,0,0,0,0,0,0,0,0,0,0,0,0,0,0,0,0,0,0,0,0,0,0,0,0,0],"id":31,"left_children":[1,-1,3,5,7,-1,9,-1,11,13,15,17,19,21,23,25,27,-1,-1,29,-1,31,33,35,37,39,41,43,45,-1,47,49,51,-1,53,55,-1,57,-1,59,61,63,65,-1,67,69,71,-1,-1,-1,-1,-1,-1,-1,-1,-1,-1,-1,-1,-1,-1,-1,-1,-1,-1,-1,-1,-1,-1,-1,-1,-1,-1],"loss_changes":[5.0437742E4,0E0,1.4560604E4,8.9185547E2,3.9260803E1,0E0,7.304336E2,0E0,5.144226E0,2.1939844E2,2.0870947E3,1.3952549E1,3.256836E-1,1.2635547E2,9.495483E0,9.8808594E2,9.4691113E2,0E0,0E0,9.3645877E-1,0E0,5.4421875E1,1.5613885E2,5.7894287E0,7.7351627E0,3.3372807E1,1.6827051E2,3.2490482E1,2.6914856E2,0E0,1.0915623E0,2.5466797E1,7.874121E1,0E0,1.5007903E2,6.769165E0,0E0,1.4597585E0,0E0,7.6288414E-1,9.611754E1,1.4887695E1,6.331353E-1,0E0,2.6380156E1,1.6925262E2,4.8024536E1,0E0,0E0,0E0,0E0,0E0,0E0,0E0,0E0,0E0,0E0,0E0,0E0,0E0,0E0,0E0,0E0,0E0,0E0,0E0,0E0,0E0,0E0,0E0,0E0,0E0,0E0],"parents":[2147483647,0,0,2,2,3,3,4,4,6,6,8,8,9,9,10,10,11,11,12,12,13,13,14,14,15,15,16,16,19,19,21,21,22,22,23,23,24,24,25,25,26,26,27,27,28,28,30,30,31,31,32,32,34,34,35,35,37,37,39,39,40,40,41,41,42,42,44,44,45,45,46,46],"right_children":[2,-1,4,6,8,-1,10,-1,12,14,16,18,20,22,24,26,28,-1,-1,30,-1,32,34,36,38,40,42,44,46,-1,48,50,52,-1,54,56,-1,58,-1,60,62,64,66,-1,68,70,72,-1,-1,-1,-1,-1,-1,-1,-1,-1,-1,-1,-1,-1,-1,-1,-1,-1,-1,-1,-1,-1,-1,-1,-1,-1,-1],"split_conditions":[1.8691154E0,-5.3051736E-2,-1.4917943E-1,1.2096502E0,-2.6925278E-1,-5.270616E-2,-1.4918587E-1,2.4520865E-1,-2.6924133E-1,2.051968E0,-2.6925185E-1,-2.6924145E-1,-1.4917913E-1,2.1557217E0,1.7861565E0,-1.4918575E-1,-2.6924142E-1,-4.507433E-2,2.4938409E-1,-2.6920256E-1,-5.2990764E-2,-2.6925448E-1,-2.6925203E-1,1.7309091E0,1.9565765E0,-1.4918585E-1,7.381793E-1,-1.4918384E-1,1.3232765E0,-4.6376355E-2,-1.491793E-1,1.8282783E0,1.0863631E-1,3.4343216E-1,-2.6924133E-1,1.3614953E0,-4.8626787E-3,1.8549511E0,2.2457285E-1,1.741383E0,-1.4918576E-1,-1.4918488E-1,1.4809872E0,-5.2890968E-2,-2.692477E-1,-1.491837E-1,-1.4918399E-1,-3.157628E-2,6.784045E-2,2.2500327E-1,2.4546118E-1,4.1111183E-1,2.5715575E-1,3.37561E-2,2.3520772E-1,1.5394141E-1,2.1076314E-1,6.3312375E-3,6.8669856E-2,-4.843018E-2,2.1780496E-2,2.4552815E-1,-3.5145786E-2,2.114129E-1,2.537083E-1,1.3627104E-2,-5.0248582E-2,-3.2115795E-2,4.4788357E-2,-4.111321E-3,1.4455359E-1,1.0236102E-1,2.544627E-1],"split_indices":[48,0,8,39,18,0,8,0,18,14,18,18,8,12,9,8,18,0,0,18,0,18,18,10,9,8,17,8,11,0,8,13,15,0,18,10,0,9,0,10,8,8,5,0,18,8,8,0,0,0,0,0,0,0,0,0,0,0,0,0,0,0,0,0,0,0,0,0,0,0,0,0,0],"split_type":[0,0,0,0,0,0,0,0,0,0,0,0,0,0,0,0,0,0,0,0,0,0,0,0,0,0,0,0,0,0,0,0,0,0,0,0,0,0,0,0,0,0,0,0,0,0,0,0,0,0,0,0,0,0,0,0,0,0,0,0,0,0,0,0,0,0,0,0,0,0,0,0,0],"sum_hessian":[1.2148815E5,1.0912605E5,1.2362103E4,9.800177E3,2.5619255E3,1.2203705E2,9.67814E3,3.4627848E0,2.5584626E3,6.074369E3,3.603771E3,6.7210546E0,2.5517417E3,5.7772324E3,2.9713635E2,2.5163445E3,1.0874264E3,5.572944E0,1.1481107E0,9.3380785E0,2.5424036E3,5.587038E3,1.9019469E2,2.7965732E2,1.7479021E1,1.5417232E2,2.362172E3,5.0048737E2,5.86939E2,6.7873755E0,2.5507033E0,3.3127163E3,2.2743215E3,3.7482677E1,1.52712E2,2.775999E2,2.0573952E0,1.54267435E1,2.0522773E0,9.728098E1,5.689133E1,2.343226E3,1.8946236E1,3.1923477E2,1.812526E2,3.5886154E2,2.280775E2,1.4612256E0,1.0894777E0,1.127867E3,2.1848494E3,3.565662E1,2.238665E3,9.0892624E1,6.1819386E1,2.4575809E2,3.1841845E1,6.3357887E0,9.090955E0,9.6239E1,1.0419815E0,1.632968E1,4.0561653E1,1.2427948E2,2.2189465E3,1.2828273E0,1.7663408E1,1.05509315E2,7.5743286E1,1.1043107E2,2.4843047E2,2.5178904E1,2.0289859E2],"tree_param":{"num_deleted":"0","num_feature":"95","num_nodes":"73","size_leaf_vector":"0"}},{"base_weights":[-2.3308966E-1,-5.3053534E-1,2.5573347E0,-5.1112205E-1,2.5640798E0,2.0070124E0,2.5662546E0,2.5977628E0,-3.0712417E-1,-4.6365508E-1,3.921579E-2,6.933632E-1,-3.7355393E-1],"categories":[],"categories_nodes":[],"categories_segments":[],"categories_sizes":[],"default_left":[1,0,1,0,1,1,0,0,1,0,1,0,0],"id":32,"left_children":[1,-1,3,-1,5,7,-1,-1,9,-1,11,-1,-1],"loss_changes":[1.02793734E5,0E0,2.4821875E2,0E0,9.2734375E0,7.0359146E1,0E0,0E0,6.276499E-1,0E0,1.4528402E0,0E0,0E0],"parents":[2147483647,0,0,2,2,4,4,5,5,8,8,10,10],"right_children":[2,-1,4,-1,6,8,-1,-1,10,-1,12,-1,-1],"split_conditions":[-1.6616677E-1,-5.3053536E-2,-1.7971376E-1,-5.1112205E-2,-1.4582515E-1,-1.4608939E-1,2.5662547E-1,2.597763E-1,6.2329206E0,-4.636551E-2,6.9787073E0,6.933632E-2,-3.7355393E-2],"split_indices":[2,0,3,0,3,3,0,0,2,0,2,0,0],"split_type":[0,0,0,0,0,0,0,0,0,0,0,0,0],"sum_hessian":[1.2384529E5,1.1191636E5,1.192893E4,2.600055E1,1.1902929E4,4.9883217E1,1.1853046E4,3.964111E1,1.0242106E1,6.820708E0,3.421398E0,1.0606785E0,2.3607194E0],"tree_param":{"num_deleted":"0","num_feature":"95","num_nodes":"13","size_leaf_vector":"0"}},{"base_weights":[-3.0709508E-1,-4.1950256E-1,2.2370548E0,-5.164974E-1,9.3424726E-1,-5.295594E-1,2.5663319E0,-5.3053886E-1,-2.4241638E-1,-5.304056E-1,2.5655136E0,-5.3055143E-1,2.5684898E0,2.5669267E0,-3.7239036E-1],"categories":[],"categories_nodes":[],"categories_segments":[],"categories_sizes":[],"default_left":[1,1,1,1,1,0,0,0,1,0,1,0,0,0,0],"id":33,"left_children":[1,3,5,7,9,-1,-1,-1,11,-1,13,-1,-1,-1,-1],"loss_changes":[3.4848332E4,1.53235625E4,4.6984805E3,4.1895508E2,1.8643516E4,0E0,0E0,0E0,4.3010615E3,0E0,1.6279297E1,0E0,0E0,0E0,0E0],"parents":[2147483647,0,0,1,1,2,2,3,3,4,4,8,8,10,10],"right_children":[2,4,6,8,10,-1,-1,-1,12,-1,14,-1,-1,-1,-1],"split_conditions":[1.0219975E0,2.1557217E0,-1.6186729E-1,1.8282783E0,-1.491861E-1,-5.2955937E-2,2.566332E-1,-5.3053886E-2,-1.6608296E-1,-5.304056E-2,-1.4918524E-1,-5.3055145E-2,2.56849E-1,2.5669268E-1,-3.7239037E-2],"split_indices":[8,12,17,13,8,0,0,0,17,0,8,0,0,0,0],"split_type":[0,0,0,0,0,0,0,0,0,0,0,0,0,0,0],"sum_hessian":[1.2185092E5,1.1669582E5,5.155105E3,1.08894266E5,7.8015483E3,5.4822906E2,4.606876E3,1.0358648E5,5.3077915E3,4.1110586E3,3.69049E3,4.815032E3,4.9275897E2,3.688842E3,1.6479427E0],"tree_param":{"num_deleted":"0","num_feature":"95","num_nodes":"15","size_leaf_vector":"0"}},{"base_weights":[-2.2670368E-2,-5.3034574E-1,2.5586047E0,-5.305178E-1,2.704055E0,2.5662026E0,-5.206343E-1,-5.30536E-1,-3.686692E-1,2.121919E-1,-4.902895E-1,6.553073E-1,-2.9866606E-1],"categories":[],"categories_nodes":[],"categories_segments":[],"categories_sizes":[],"default_left":[1,1,1,1,0,0,0,0,1,1,0,0,0],"id":34,"left_children":[1,3,5,7,-1,-1,-1,-1,9,11,-1,-1,-1],"loss_changes":[1.7041842E5,6.1914062E1,5.0139062E2,1.2695312E-1,0E0,0E0,0E0,0E0,1.1989186E0,9.61114E-1,0E0,0E0,0E0],"parents":[2147483647,0,0,1,1,2,2,3,3,8,8,9,9],"right_children":[2,4,6,8,-1,-1,-1,-1,10,12,-1,-1,-1],"split_conditions":[-2.1273229E-1,1.1720128E0,2.4922712E-1,-2.1287096E-1,2.704055E-1,2.5662026E-1,-5.206343E-2,-5.30536E-2,4.4814515E0,-6.637234E-2,-4.902895E-2,6.553073E-2,-2.9866606E-2],"split_indices":[19,21,20,19,0,0,0,0,20,21,0,0,0],"split_type":[0,0,0,0,0,0,0,0,0,0,0,0,0],"sum_hessian":[1.3004371E5,1.0867142E5,2.137229E4,1.0866648E5,4.945038E0,2.131985E4,5.244E1,1.08651984E5,1.4498491E1,2.3811865E0,1.2117305E1,1.1237197E0,1.2574668E0],"tree_param":{"num_deleted":"0","num_feature":"95","num_nodes":"13","size_leaf_vector":"0"}},{"base_weights":[-5.264897E-1,-5.291703E-1,-4.554495E-1,-5.299124E-1,-5.1439273E-1,2.2246065E0,-5.3038186E-1,-5.305303E-1,-5.212503E-1,-5.3039116E-1,-4.9250335E-1,2.564462E0,1.5924567E0,-5.3032506E-1,-5.151161E-1,-4.4667462E-1,-5.300917E-1,-4.9597585E-1,2.6365802E0,-4.9617863E-1,-5.30295E-1,-4.0766564E-1,-5.281274E-1,9.384643E-2,-5.3057045E-1,6.69421E-1,-4.103001E-1,1.387704E-1,-9.240806E-2,-4.1512272E-1,-1.5317163E-1,1.5481334E-2,4.4072804E-1,-4.6313545E-1,9.830411E-2,-3.8508978E-1,-4.6169788E-1,2.2969759E-1,-3.732383E-1],"categories":[],"categories_nodes":[],"categories_segments":[],"categories_sizes":[],"default_left":[1,1,1,1,1,1,0,0,1,0,1,0,1,0,1,1,0,0,0,1,0,1,0,1,0,0,1,1,1,1,1,0,0,0,0,0,0,0,0],"id":35,"left_children":[1,3,5,7,9,11,-1,-1,13,-1,15,-1,17,-1,19,21,-1,-1,-1,23,-1,25,-1,27,-1,-1,29,31,33,35,37,-1,-1,-1,-1,-1,-1,-1,-1],"loss_changes":[2.190625E1,9.5703125E-1,8.518658E2,2.9492188E-1,1.6274414E0,2.0710144E1,0E0,0E0,1.2524414E-1,0E0,3.7103271E0,0E0,9.504982E1,0E0,9.748535E-1,3.085495E0,0E0,0E0,0E0,3.924478E1,0E0,2.2802887E0,0E0,9.100977E-1,0E0,0E0,8.1152344E-1,3.2244594E0,1.5613127E0,7.903595E-1,1.3139573E0,0E0,0E0,0E0,0E0,0E0,0E0,0E0,0E0],"parents":[2147483647,0,0,1,1,2,2,3,3,4,4,5,5,8,8,10,10,12,12,14,14,15,15,19,19,21,21,23,23,26,26,27,27,28,28,29,29,30,30],"right_children":[2,4,6,8,10,12,-1,-1,14,-1,16,-1,18,-1,20,22,-1,-1,-1,24,-1,26,-1,28,-1,-1,30,32,34,36,38,-1,-1,-1,-1,-1,-1,-1,-1],"split_conditions":[-1.6291377E-1,2.1557217E0,-1.4589122E-1,1.8282783E0,-1.3036638E0,-1.7971376E-1,-5.3038187E-2,-5.305303E-2,4.756739E-1,-5.3039115E-2,-1.491861E-1,2.564462E-1,-1.4615545E-1,-5.3032506E-2,-1.4828897E-1,1.2096502E0,-5.300917E-2,-4.9597587E-2,