digraph Tree {
node [shape=box, style="rounded", color="black", fontname="helvetica"] ;
edge [fontname="helvetica"] ;
0 [label="http.request.method_1 <= -0.6\ngini = 0.9\nsamples = 5998620\nvalue = [399908, 399908, 399908, 399908, 399908, 399908, 399908\n399908, 399908, 399908, 399908, 399908, 399908, 399908\n399908]"] ;
1 [label="http.referer_1 <= -1.3\ngini = 0.8\nsamples = 2399448\nvalue = [0, 399908, 0, 0, 0, 0, 0, 0, 399908, 0, 0\n399908, 399908, 399908, 399908]"] ;
0 -> 1 [labeldistance=2.5, labelangle=45, headlabel="True"] ;
2 [label="http.content_length <= -0.1\ngini = 0.7\nsamples = 1199724\nvalue = [0, 399908, 0, 0, 0, 0, 0, 0, 0, 0, 0, 0, 0\n399908, 399908]"] ;
1 -> 2 ;
3 [label="tcp.seq <= -0.2\ngini = 0.6\nsamples = 850308\nvalue = [0, 394153, 0, 0, 0, 0, 0, 0, 0, 0, 0, 0, 0\n87059, 369096]"] ;
2 -> 3 ;
4 [label="tcp.flags <= 1.1\ngini = 0.6\nsamples = 809098\nvalue = [0, 393946, 0, 0, 0, 0, 0, 0, 0, 0, 0, 0, 0\n46168, 368984]"] ;
3 -> 4 ;
5 [label="tcp.flags <= -1.3\ngini = 0.6\nsamples = 629035\nvalue = [0, 254008, 0, 0, 0, 0, 0, 0, 0, 0, 0, 0, 0\n43551, 331476]"] ;
4 -> 5 ;
6 [label="tcp.checksum <= -0.8\ngini = 0.4\nsamples = 134192\nvalue = [0, 99825, 0, 0, 0, 0, 0, 0, 0, 0, 0, 0, 0\n3926, 30441]"] ;
5 -> 6 ;
7 [label="tcp.checksum <= -0.8\ngini = 0.4\nsamples = 22653\nvalue = [0, 16168, 0, 0, 0, 0, 0, 0, 0, 0, 0, 0, 0\n500, 5985]"] ;
6 -> 7 ;
8 [label="tcp.checksum <= -0.8\ngini = 0.4\nsamples = 22397\nvalue = [0, 16059, 0, 0, 0, 0, 0, 0, 0, 0, 0, 0, 0\n493, 5845]"] ;
7 -> 8 ;
9 [label="tcp.checksum <= -0.8\ngini = 0.4\nsamples = 22037\nvalue = [0, 15733, 0, 0, 0, 0, 0, 0, 0, 0, 0, 0, 0\n492, 5812]"] ;
8 -> 9 ;
10 [label="gini = 0.4\nsamples = 21628\nvalue = [0, 15515, 0, 0, 0, 0, 0, 0, 0, 0, 0, 0, 0\n491, 5622]"] ;
9 -> 10 ;
11 [label="gini = 0.5\nsamples = 409\nvalue = [0, 218, 0, 0, 0, 0, 0, 0, 0, 0, 0, 0, 0, 1\n190]"] ;
9 -> 11 ;
12 [label="tcp.checksum <= -0.8\ngini = 0.2\nsamples = 360\nvalue = [0, 326, 0, 0, 0, 0, 0, 0, 0, 0, 0, 0, 0, 1\n33]"] ;
8 -> 12 ;
13 [label="gini = 0.2\nsamples = 346\nvalue = [0, 316, 0, 0, 0, 0, 0, 0, 0, 0, 0, 0, 0, 1\n29]"] ;
12 -> 13 ;
14 [label="gini = 0.4\nsamples = 14\nvalue = [0, 10, 0, 0, 0, 0, 0, 0, 0, 0, 0, 0, 0, 0\n4]"] ;
12 -> 14 ;
15 [label="tcp.checksum <= -0.8\ngini = 0.5\nsamples = 256\nvalue = [0, 109, 0, 0, 0, 0, 0, 0, 0, 0, 0, 0, 0, 7\n140]"] ;
7 -> 15 ;
16 [label="tcp.checksum <= -0.8\ngini = 0.5\nsamples = 230\nvalue = [0, 91, 0, 0, 0, 0, 0, 0, 0, 0, 0, 0, 0, 6\n133]"] ;
15 -> 16 ;
17 [label="gini = 0.5\nsamples = 191\nvalue = [0, 90, 0, 0, 0, 0, 0, 0, 0, 0, 0, 0, 0, 1\n100]"] ;
16 -> 17 ;
18 [label="gini = 0.3\nsamples = 39\nvalue = [0, 1, 0, 0, 0, 0, 0, 0, 0, 0, 0, 0, 0, 5\n33]"] ;
16 -> 18 ;
19 [label="tcp.checksum <= -0.8\ngini = 0.4\nsamples = 26\nvalue = [0, 18, 0, 0, 0, 0, 0, 0, 0, 0, 0, 0, 0, 1\n7]"] ;
15 -> 19 ;
20 [label="gini = 0.4\nsamples = 25\nvalue = [0, 18, 0, 0, 0, 0, 0, 0, 0, 0, 0, 0, 0, 1\n6]"] ;
19 -> 20 ;
21 [label="gini = 0.0\nsamples = 1\nvalue = [0, 0, 0, 0, 0, 0, 0, 0, 0, 0, 0, 0, 0, 0\n1]"] ;
19 -> 21 ;
22 [label="tcp.checksum <= 1.8\ngini = 0.4\nsamples = 111539\nvalue = [0, 83657, 0, 0, 0, 0, 0, 0, 0, 0, 0, 0, 0\n3426, 24456]"] ;
6 -> 22 ;
23 [label="tcp.checksum <= 1.3\ngini = 0.4\nsamples = 111005\nvalue = [0, 83151, 0, 0, 0, 0, 0, 0, 0, 0, 0, 0, 0\n3416, 24438]"] ;
22 -> 23 ;
24 [label="tcp.checksum <= 1.3\ngini = 0.4\nsamples = 88792\nvalue = [0, 66962, 0, 0, 0, 0, 0, 0, 0, 0, 0, 0, 0\n2726, 19104]"] ;
23 -> 24 ;
25 [label="gini = 0.4\nsamples = 87558\nvalue = [0, 65919, 0, 0, 0, 0, 0, 0, 0, 0, 0, 0, 0\n2683, 18956]"] ;
24 -> 25 ;
26 [label="gini = 0.3\nsamples = 1234\nvalue = [0, 1043, 0, 0, 0, 0, 0, 0, 0, 0, 0, 0, 0, 43\n148]"] ;
24 -> 26 ;
27 [label="tcp.checksum <= 1.3\ngini = 0.4\nsamples = 22213\nvalue = [0, 16189, 0, 0, 0, 0, 0, 0, 0, 0, 0, 0, 0\n690, 5334]"] ;
23 -> 27 ;
28 [label="gini = 0.5\nsamples = 2072\nvalue = [0, 1324, 0, 0, 0, 0, 0, 0, 0, 0, 0, 0, 0, 18\n730]"] ;
27 -> 28 ;
29 [label="gini = 0.4\nsamples = 20141\nvalue = [0, 14865, 0, 0, 0, 0, 0, 0, 0, 0, 0, 0, 0\n672, 4604]"] ;
27 -> 29 ;
30 [label="tcp.checksum <= 1.8\ngini = 0.1\nsamples = 534\nvalue = [0, 506, 0, 0, 0, 0, 0, 0, 0, 0, 0, 0, 0, 10\n18]"] ;
22 -> 30 ;
31 [label="tcp.checksum <= 1.8\ngini = 0.3\nsamples = 29\nvalue = [0, 24, 0, 0, 0, 0, 0, 0, 0, 0, 0, 0, 0, 4\n1]"] ;
30 -> 31 ;
32 [label="gini = 0.2\nsamples = 25\nvalue = [0, 23, 0, 0, 0, 0, 0, 0, 0, 0, 0, 0, 0, 1\n1]"] ;
31 -> 32 ;
33 [label="gini = 0.4\nsamples = 4\nvalue = [0, 1, 0, 0, 0, 0, 0, 0, 0, 0, 0, 0, 0, 3\n0]"] ;
31 -> 33 ;
34 [label="tcp.checksum <= 1.8\ngini = 0.1\nsamples = 505\nvalue = [0, 482, 0, 0, 0, 0, 0, 0, 0, 0, 0, 0, 0, 6\n17]"] ;
30 -> 34 ;
35 [label="gini = 0.1\nsamples = 391\nvalue = [0, 368, 0, 0, 0, 0, 0, 0, 0, 0, 0, 0, 0, 6\n17]"] ;
34 -> 35 ;
36 [label="gini = 0.0\nsamples = 114\nvalue = [0, 114, 0, 0, 0, 0, 0, 0, 0, 0, 0, 0, 0, 0\n0]"] ;
34 -> 36 ;
37 [label="tcp.flags <= 0.2\ngini = 0.5\nsamples = 494843\nvalue = [0, 154183, 0, 0, 0, 0, 0, 0, 0, 0, 0, 0, 0\n39625, 301035]"] ;
5 -> 37 ;
38 [label="tcp.ack_raw <= -1.1\ngini = 0.6\nsamples = 371285\nvalue = [0, 132640, 0, 0, 0, 0, 0, 0, 0, 0, 0, 0, 0\n33066, 205579]"] ;
37 -> 38 ;
39 [label="tcp.seq <= -0.2\ngini = 0.5\nsamples = 25293\nvalue = [0, 5923, 0, 0, 0, 0, 0, 0, 0, 0, 0, 0, 0\n1931, 17439]"] ;
38 -> 39 ;
40 [label="tcp.checksum <= -1.2\ngini = 0.5\nsamples = 25129\nvalue = [0, 5781, 0, 0, 0, 0, 0, 0, 0, 0, 0, 0, 0\n1909, 17439]"] ;
39 -> 40 ;
41 [label="gini = 0.6\nsamples = 288\nvalue = [0, 121, 0, 0, 0, 0, 0, 0, 0, 0, 0, 0, 0, 23\n144]"] ;
40 -> 41 ;
42 [label="gini = 0.5\nsamples = 24841\nvalue = [0, 5660, 0, 0, 0, 0, 0, 0, 0, 0, 0, 0, 0\n1886, 17295]"] ;
40 -> 42 ;
43 [label="tcp.seq <= -0.2\ngini = 0.2\nsamples = 164\nvalue = [0, 142, 0, 0, 0, 0, 0, 0, 0, 0, 0, 0, 0, 22\n0]"] ;
39 -> 43 ;
44 [label="gini = 0.1\nsamples = 152\nvalue = [0, 142, 0, 0, 0, 0, 0, 0, 0, 0, 0, 0, 0, 10\n0]"] ;
43 -> 44 ;
45 [label="gini = 0.0\nsamples = 12\nvalue = [0, 0, 0, 0, 0, 0, 0, 0, 0, 0, 0, 0, 0, 12\n0]"] ;
43 -> 45 ;
46 [label="tcp.ack <= -0.2\ngini = 0.6\nsamples = 345992\nvalue = [0, 126717, 0, 0, 0, 0, 0, 0, 0, 0, 0, 0, 0\n31135, 188140]"] ;
38 -> 46 ;
47 [label="tcp.ack_raw <= 1.9\ngini = 0.6\nsamples = 345551\nvalue = [0, 126717, 0, 0, 0, 0, 0, 0, 0, 0, 0, 0, 0\n30694, 188140]"] ;
46 -> 47 ;
48 [label="gini = 0.6\nsamples = 323500\nvalue = [0, 120042, 0, 0, 0, 0, 0, 0, 0, 0, 0, 0, 0\n28871, 174587]"] ;
47 -> 48 ;
49 [label="gini = 0.5\nsamples = 22051\nvalue = [0, 6675, 0, 0, 0, 0, 0, 0, 0, 0, 0, 0, 0\n1823, 13553]"] ;
47 -> 49 ;
50 [label="gini = 0.0\nsamples = 441\nvalue = [0, 0, 0, 0, 0, 0, 0, 0, 0, 0, 0, 0, 0, 441\n0]"] ;
46 -> 50 ;
51 [label="tcp.connection.synack <= 2.3\ngini = 0.4\nsamples = 123558\nvalue = [0, 21543, 0, 0, 0, 0, 0, 0, 0, 0, 0, 0, 0\n6559, 95456]"] ;
37 -> 51 ;
52 [label="http.response <= 2.7\ngini = 0.3\nsamples = 77792\nvalue = [0, 12355, 0, 0, 0, 0, 0, 0, 0, 0, 0, 0, 0\n2438, 62999]"] ;
51 -> 52 ;
53 [label="tcp.seq <= -0.2\ngini = 0.3\nsamples = 77504\nvalue = [0, 12355, 0, 0, 0, 0, 0, 0, 0, 0, 0, 0, 0\n2150, 62999]"] ;
52 -> 53 ;
54 [label="gini = 0.3\nsamples = 77142\nvalue = [0, 12314, 0, 0, 0, 0, 0, 0, 0, 0, 0, 0, 0\n1885, 62943]"] ;
53 -> 54 ;
55 [label="gini = 0.4\nsamples = 362\nvalue = [0, 41, 0, 0, 0, 0, 0, 0, 0, 0, 0, 0, 0, 265\n56]"] ;
53 -> 55 ;
56 [label="gini = 0.0\nsamples = 288\nvalue = [0, 0, 0, 0, 0, 0, 0, 0, 0, 0, 0, 0, 0, 288\n0]"] ;
52 -> 56 ;
57 [label="tcp.ack_raw <= 2.1\ngini = 0.4\nsamples = 45766\nvalue = [0, 9188, 0, 0, 0, 0, 0, 0, 0, 0, 0, 0, 0\n4121, 32457]"] ;
51 -> 57 ;
58 [label="tcp.checksum <= -0.8\ngini = 0.4\nsamples = 45722\nvalue = [0, 9150, 0, 0, 0, 0, 0, 0, 0, 0, 0, 0, 0\n4119, 32453]"] ;
57 -> 58 ;
59 [label="gini = 0.5\nsamples = 6694\nvalue = [0, 1490, 0, 0, 0, 0, 0, 0, 0, 0, 0, 0, 0\n791, 4413]"] ;
58 -> 59 ;
60 [label="gini = 0.4\nsamples = 39028\nvalue = [0, 7660, 0, 0, 0, 0, 0, 0, 0, 0, 0, 0, 0\n3328, 28040]"] ;
58 -> 60 ;
61 [label="tcp.checksum <= 0.2\ngini = 0.2\nsamples = 44\nvalue = [0, 38, 0, 0, 0, 0, 0, 0, 0, 0, 0, 0, 0, 2\n4]"] ;
57 -> 61 ;
62 [label="gini = 0.0\nsamples = 35\nvalue = [0, 35, 0, 0, 0, 0, 0, 0, 0, 0, 0, 0, 0, 0\n0]"] ;
61 -> 62 ;
63 [label="gini = 0.6\nsamples = 9\nvalue = [0, 3, 0, 0, 0, 0, 0, 0, 0, 0, 0, 0, 0, 2\n4]"] ;
61 -> 63 ;
64 [label="http.request.version_0 <= -0.4\ngini = 0.4\nsamples = 180063\nvalue = [0, 139938, 0, 0, 0, 0, 0, 0, 0, 0, 0, 0, 0\n2617, 37508]"] ;
4 -> 64 ;
65 [label="tcp.len <= 0.0\ngini = 0.1\nsamples = 38640\nvalue = [0, 5, 0, 0, 0, 0, 0, 0, 0, 0, 0, 0, 0, 1708\n36927]"] ;
64 -> 65 ;
66 [label="tcp.ack <= -0.2\ngini = 0.0\nsamples = 36929\nvalue = [0, 0, 0, 0, 0, 0, 0, 0, 0, 0, 0, 0, 0, 3\n36926]"] ;
65 -> 66 ;
67 [label="gini = 0.0\nsamples = 36926\nvalue = [0, 0, 0, 0, 0, 0, 0, 0, 0, 0, 0, 0, 0, 0\n36926]"] ;
66 -> 67 ;
68 [label="gini = 0.0\nsamples = 3\nvalue = [0, 0, 0, 0, 0, 0, 0, 0, 0, 0, 0, 0, 0, 3\n0]"] ;
66 -> 68 ;
69 [label="http.referer_4 <= 323.4\ngini = 0.0\nsamples = 1711\nvalue = [0, 5, 0, 0, 0, 0, 0, 0, 0, 0, 0, 0, 0, 1705\n1]"] ;
65 -> 69 ;
70 [label="http.referer_2 <= 25.9\ngini = 0.0\nsamples = 1706\nvalue = [0, 0, 0, 0, 0, 0, 0, 0, 0, 0, 0, 0, 0, 1705\n1]"] ;
69 -> 70 ;
71 [label="gini = 0.0\nsamples = 1705\nvalue = [0, 0, 0, 0, 0, 0, 0, 0, 0, 0, 0, 0, 0, 1705\n0]"] ;
70 -> 71 ;
72 [label="gini = 0.0\nsamples = 1\nvalue = [0, 0, 0, 0, 0, 0, 0, 0, 0, 0, 0, 0, 0, 0\n1]"] ;
70 -> 72 ;
73 [label="gini = 0.0\nsamples = 5\nvalue = [0, 5, 0, 0, 0, 0, 0, 0, 0, 0, 0, 0, 0, 0\n0]"] ;
69 -> 73 ;
74 [label="tcp.len <= 0.7\ngini = 0.0\nsamples = 141423\nvalue = [0, 139933, 0, 0, 0, 0, 0, 0, 0, 0, 0, 0, 0\n909, 581]"] ;
64 -> 74 ;
75 [label="tcp.ack <= -0.2\ngini = 0.0\nsamples = 140464\nvalue = [0, 139871, 0, 0, 0, 0, 0, 0, 0, 0, 0, 0, 0\n219, 374]"] ;
74 -> 75 ;
76 [label="tcp.seq <= -0.2\ngini = 0.0\nsamples = 140283\nvalue = [0, 139871, 0, 0, 0, 0, 0, 0, 0, 0, 0, 0, 0\n112, 300]"] ;
75 -> 76 ;
77 [label="tcp.ack <= -0.2\ngini = 0.0\nsamples = 140130\nvalue = [0, 139830, 0, 0, 0, 0, 0, 0, 0, 0, 0, 0, 0\n101, 199]"] ;
76 -> 77 ;
78 [label="gini = 0.0\nsamples = 140110\nvalue = [0, 139830, 0, 0, 0, 0, 0, 0, 0, 0, 0, 0, 0\n86, 194]"] ;
77 -> 78 ;
79 [label="gini = 0.4\nsamples = 20\nvalue = [0, 0, 0, 0, 0, 0, 0, 0, 0, 0, 0, 0, 0, 15\n5]"] ;
77 -> 79 ;
80 [label="tcp.ack <= -0.2\ngini = 0.5\nsamples = 153\nvalue = [0, 41, 0, 0, 0, 0, 0, 0, 0, 0, 0, 0, 0, 11\n101]"] ;
76 -> 80 ;
81 [label="gini = 0.0\nsamples = 41\nvalue = [0, 41, 0, 0, 0, 0, 0, 0, 0, 0, 0, 0, 0, 0\n0]"] ;
80 -> 81 ;
82 [label="gini = 0.2\nsamples = 112\nvalue = [0, 0, 0, 0, 0, 0, 0, 0, 0, 0, 0, 0, 0, 11\n101]"] ;
80 -> 82 ;
83 [label="tcp.ack <= -0.2\ngini = 0.5\nsamples = 181\nvalue = [0, 0, 0, 0, 0, 0, 0, 0, 0, 0, 0, 0, 0, 107\n74]"] ;
75 -> 83 ;
84 [label="tcp.len <= 0.0\ngini = 0.4\nsamples = 91\nvalue = [0, 0, 0, 0, 0, 0, 0, 0, 0, 0, 0, 0, 0, 24\n67]"] ;
83 -> 84 ;
85 [label="gini = 0.0\nsamples = 58\nvalue = [0, 0, 0, 0, 0, 0, 0, 0, 0, 0, 0, 0, 0, 0\n58]"] ;
84 -> 85 ;
86 [label="gini = 0.4\nsamples = 33\nvalue = [0, 0, 0, 0, 0, 0, 0, 0, 0, 0, 0, 0, 0, 24\n9]"] ;
84 -> 86 ;
87 [label="tcp.len <= 0.5\ngini = 0.1\nsamples = 90\nvalue = [0, 0, 0, 0, 0, 0, 0, 0, 0, 0, 0, 0, 0, 83\n7]"] ;
83 -> 87 ;
88 [label="gini = 0.1\nsamples = 87\nvalue = [0, 0, 0, 0, 0, 0, 0, 0, 0, 0, 0, 0, 0, 83\n4]"] ;
87 -> 88 ;
89 [label="gini = 0.0\nsamples = 3\nvalue = [0, 0, 0, 0, 0, 0, 0, 0, 0, 0, 0, 0, 0, 0\n3]"] ;
87 -> 89 ;
90 [label="tcp.len <= 0.8\ngini = 0.4\nsamples = 959\nvalue = [0, 62, 0, 0, 0, 0, 0, 0, 0, 0, 0, 0, 0, 690\n207]"] ;
74 -> 90 ;
91 [label="tcp.flags <= 1.2\ngini = 0.3\nsamples = 706\nvalue = [0, 52, 0, 0, 0, 0, 0, 0, 0, 0, 0, 0, 0, 598\n56]"] ;
90 -> 91 ;
92 [label="tcp.checksum <= 0.7\ngini = 0.2\nsamples = 655\nvalue = [0, 1, 0, 0, 0, 0, 0, 0, 0, 0, 0, 0, 0, 598\n56]"] ;
91 -> 92 ;
93 [label="gini = 0.0\nsamples = 372\nvalue = [0, 1, 0, 0, 0, 0, 0, 0, 0, 0, 0, 0, 0, 366\n5]"] ;
92 -> 93 ;
94 [label="gini = 0.3\nsamples = 283\nvalue = [0, 0, 0, 0, 0, 0, 0, 0, 0, 0, 0, 0, 0, 232\n51]"] ;
92 -> 94 ;
95 [label="gini = 0.0\nsamples = 51\nvalue = [0, 51, 0, 0, 0, 0, 0, 0, 0, 0, 0, 0, 0, 0\n0]"] ;
91 -> 95 ;
96 [label="tcp.len <= 1.4\ngini = 0.5\nsamples = 253\nvalue = [0, 10, 0, 0, 0, 0, 0, 0, 0, 0, 0, 0, 0, 92\n151]"] ;
90 -> 96 ;
97 [label="tcp.seq <= -0.2\ngini = 0.1\nsamples = 164\nvalue = [0, 0, 0, 0, 0, 0, 0, 0, 0, 0, 0, 0, 0, 13\n151]"] ;
96 -> 97 ;
98 [label="gini = 0.1\nsamples = 161\nvalue = [0, 0, 0, 0, 0, 0, 0, 0, 0, 0, 0, 0, 0, 10\n151]"] ;
97 -> 98 ;
99 [label="gini = 0.0\nsamples = 3\nvalue = [0, 0, 0, 0, 0, 0, 0, 0, 0, 0, 0, 0, 0, 3\n0]"] ;
97 -> 99 ;
100 [label="tcp.len <= 2.6\ngini = 0.2\nsamples = 89\nvalue = [0, 10, 0, 0, 0, 0, 0, 0, 0, 0, 0, 0, 0, 79\n0]"] ;
96 -> 100 ;
101 [label="gini = 0.0\nsamples = 78\nvalue = [0, 0, 0, 0, 0, 0, 0, 0, 0, 0, 0, 0, 0, 78\n0]"] ;
100 -> 101 ;
102 [label="gini = 0.2\nsamples = 11\nvalue = [0, 10, 0, 0, 0, 0, 0, 0, 0, 0, 0, 0, 0, 1\n0]"] ;
100 -> 102 ;
103 [label="tcp.len <= 1.0\ngini = 0.0\nsamples = 41210\nvalue = [0, 207, 0, 0, 0, 0, 0, 0, 0, 0, 0, 0, 0\n40891, 112]"] ;
3 -> 103 ;
104 [label="tcp.ack_raw <= 1.7\ngini = 0.0\nsamples = 39100\nvalue = [0, 0, 0, 0, 0, 0, 0, 0, 0, 0, 0, 0, 0, 39035\n65]"] ;
103 -> 104 ;
105 [label="tcp.ack_raw <= 1.5\ngini = 0.0\nsamples = 35300\nvalue = [0, 0, 0, 0, 0, 0, 0, 0, 0, 0, 0, 0, 0, 35293\n7]"] ;
104 -> 105 ;
106 [label="gini = 0.0\nsamples = 33086\nvalue = [0, 0, 0, 0, 0, 0, 0, 0, 0, 0, 0, 0, 0, 33086\n0]"] ;
105 -> 106 ;
107 [label="tcp.ack_raw <= 1.5\ngini = 0.0\nsamples = 2214\nvalue = [0, 0, 0, 0, 0, 0, 0, 0, 0, 0, 0, 0, 0, 2207\n7]"] ;
105 -> 107 ;
108 [label="gini = 0.0\nsamples = 1\nvalue = [0, 0, 0, 0, 0, 0, 0, 0, 0, 0, 0, 0, 0, 0\n1]"] ;
107 -> 108 ;
109 [label="tcp.ack <= -0.2\ngini = 0.0\nsamples = 2213\nvalue = [0, 0, 0, 0, 0, 0, 0, 0, 0, 0, 0, 0, 0, 2207\n6]"] ;
107 -> 109 ;
110 [label="tcp.checksum <= 1.6\ngini = 0.2\nsamples = 48\nvalue = [0, 0, 0, 0, 0, 0, 0, 0, 0, 0, 0, 0, 0, 42\n6]"] ;
109 -> 110 ;
111 [label="gini = 0.1\nsamples = 44\nvalue = [0, 0, 0, 0, 0, 0, 0, 0, 0, 0, 0, 0, 0, 42\n2]"] ;
110 -> 111 ;
112 [label="gini = 0.0\nsamples = 4\nvalue = [0, 0, 0, 0, 0, 0, 0, 0, 0, 0, 0, 0, 0, 0\n4]"] ;
110 -> 112 ;
113 [label="gini = 0.0\nsamples = 2165\nvalue = [0, 0, 0, 0, 0, 0, 0, 0, 0, 0, 0, 0, 0, 2165\n0]"] ;
109 -> 113 ;
114 [label="tcp.ack <= -0.2\ngini = 0.0\nsamples = 3800\nvalue = [0, 0, 0, 0, 0, 0, 0, 0, 0, 0, 0, 0, 0, 3742\n58]"] ;
104 -> 114 ;
115 [label="tcp.connection.fin <= 1.5\ngini = 0.1\nsamples = 63\nvalue = [0, 0, 0, 0, 0, 0, 0, 0, 0, 0, 0, 0, 0, 5\n58]"] ;
114 -> 115 ;
116 [label="tcp.ack_raw <= 1.9\ngini = 0.1\nsamples = 61\nvalue = [0, 0, 0, 0, 0, 0, 0, 0, 0, 0, 0, 0, 0, 3\n58]"] ;
115 -> 116 ;
117 [label="tcp.seq <= -0.2\ngini = 0.0\nsamples = 59\nvalue = [0, 0, 0, 0, 0, 0, 0, 0, 0, 0, 0, 0, 0, 1\n58]"] ;
116 -> 117 ;
118 [label="gini = 0.2\nsamples = 9\nvalue = [0, 0, 0, 0, 0, 0, 0, 0, 0, 0, 0, 0, 0, 1\n8]"] ;
117 -> 118 ;
119 [label="gini = 0.0\nsamples = 50\nvalue = [0, 0, 0, 0, 0, 0, 0, 0, 0, 0, 0, 0, 0, 0\n50]"] ;
117 -> 119 ;
120 [label="gini = 0.0\nsamples = 2\nvalue = [0, 0, 0, 0, 0, 0, 0, 0, 0, 0, 0, 0, 0, 2\n0]"] ;
116 -> 120 ;
121 [label="gini = 0.0\nsamples = 2\nvalue = [0, 0, 0, 0, 0, 0, 0, 0, 0, 0, 0, 0, 0, 2\n0]"] ;
115 -> 121 ;
122 [label="gini = 0.0\nsamples = 3737\nvalue = [0, 0, 0, 0, 0, 0, 0, 0, 0, 0, 0, 0, 0, 3737\n0]"] ;
114 -> 122 ;
123 [label="tcp.ack <= -0.2\ngini = 0.2\nsamples = 2110\nvalue = [0, 207, 0, 0, 0, 0, 0, 0, 0, 0, 0, 0, 0\n1856, 47]"] ;
103 -> 123 ;
124 [label="tcp.checksum <= -0.6\ngini = 0.2\nsamples = 237\nvalue = [0, 207, 0, 0, 0, 0, 0, 0, 0, 0, 0, 0, 0, 30\n0]"] ;
123 -> 124 ;
125 [label="gini = 0.0\nsamples = 12\nvalue = [0, 0, 0, 0, 0, 0, 0, 0, 0, 0, 0, 0, 0, 12\n0]"] ;
124 -> 125 ;
126 [label="tcp.checksum <= 1.5\ngini = 0.1\nsamples = 225\nvalue = [0, 207, 0, 0, 0, 0, 0, 0, 0, 0, 0, 0, 0, 18\n0]"] ;
124 -> 126 ;
127 [label="tcp.seq <= -0.2\ngini = 0.1\nsamples = 211\nvalue = [0, 205, 0, 0, 0, 0, 0, 0, 0, 0, 0, 0, 0, 6\n0]"] ;
126 -> 127 ;
128 [label="tcp.ack_raw <= -0.9\ngini = 0.0\nsamples = 210\nvalue = [0, 205, 0, 0, 0, 0, 0, 0, 0, 0, 0, 0, 0, 5\n0]"] ;
127 -> 128 ;
129 [label="gini = 0.0\nsamples = 1\nvalue = [0, 0, 0, 0, 0, 0, 0, 0, 0, 0, 0, 0, 0, 1\n0]"] ;
128 -> 129 ;
130 [label="gini = 0.0\nsamples = 209\nvalue = [0, 205, 0, 0, 0, 0, 0, 0, 0, 0, 0, 0, 0, 4\n0]"] ;
128 -> 130 ;
131 [label="gini = 0.0\nsamples = 1\nvalue = [0, 0, 0, 0, 0, 0, 0, 0, 0, 0, 0, 0, 0, 1\n0]"] ;
127 -> 131 ;
132 [label="tcp.ack <= -0.2\ngini = 0.2\nsamples = 14\nvalue = [0, 2, 0, 0, 0, 0, 0, 0, 0, 0, 0, 0, 0, 12\n0]"] ;
126 -> 132 ;
133 [label="gini = 0.0\nsamples = 12\nvalue = [0, 0, 0, 0, 0, 0, 0, 0, 0, 0, 0, 0, 0, 12\n0]"] ;
132 -> 133 ;
134 [label="gini = 0.0\nsamples = 2\nvalue = [0, 2, 0, 0, 0, 0, 0, 0, 0, 0, 0, 0, 0, 0\n0]"] ;
132 -> 134 ;
135 [label="tcp.len <= 2.5\ngini = 0.0\nsamples = 1873\nvalue = [0, 0, 0, 0, 0, 0, 0, 0, 0, 0, 0, 0, 0, 1826\n47]"] ;
123 -> 135 ;
136 [label="tcp.ack_raw <= 1.5\ngini = 0.5\nsamples = 67\nvalue = [0, 0, 0, 0, 0, 0, 0, 0, 0, 0, 0, 0, 0, 23\n44]"] ;
135 -> 136 ;
137 [label="gini = 0.0\nsamples = 22\nvalue = [0, 0, 0, 0, 0, 0, 0, 0, 0, 0, 0, 0, 0, 22\n0]"] ;
136 -> 137 ;
138 [label="tcp.seq <= -0.2\ngini = 0.0\nsamples = 45\nvalue = [0, 0, 0, 0, 0, 0, 0, 0, 0, 0, 0, 0, 0, 1\n44]"] ;
136 -> 138 ;
139 [label="gini = 0.0\nsamples = 44\nvalue = [0, 0, 0, 0, 0, 0, 0, 0, 0, 0, 0, 0, 0, 0\n44]"] ;
138 -> 139 ;
140 [label="gini = 0.0\nsamples = 1\nvalue = [0, 0, 0, 0, 0, 0, 0, 0, 0, 0, 0, 0, 0, 1\n0]"] ;
138 -> 140 ;
141 [label="tcp.seq <= -0.2\ngini = 0.0\nsamples = 1806\nvalue = [0, 0, 0, 0, 0, 0, 0, 0, 0, 0, 0, 0, 0, 1803\n3]"] ;
135 -> 141 ;
142 [label="tcp.ack <= -0.2\ngini = 0.5\nsamples = 5\nvalue = [0, 0, 0, 0, 0, 0, 0, 0, 0, 0, 0, 0, 0, 2\n3]"] ;
141 -> 142 ;
143 [label="gini = 0.0\nsamples = 2\nvalue = [0, 0, 0, 0, 0, 0, 0, 0, 0, 0, 0, 0, 0, 2\n0]"] ;
142 -> 143 ;
144 [label="gini = 0.0\nsamples = 3\nvalue = [0, 0, 0, 0, 0, 0, 0, 0, 0, 0, 0, 0, 0, 0\n3]"] ;
142 -> 144 ;
145 [label="gini = 0.0\nsamples = 1801\nvalue = [0, 0, 0, 0, 0, 0, 0, 0, 0, 0, 0, 0, 0, 1801\n0]"] ;
141 -> 145 ;
146 [label="tcp.seq <= -0.2\ngini = 0.2\nsamples = 349416\nvalue = [0, 5755, 0, 0, 0, 0, 0, 0, 0, 0, 0, 0, 0\n312849, 30812]"] ;
2 -> 146 ;
147 [label="tcp.len <= 0.7\ngini = 0.3\nsamples = 37742\nvalue = [0, 5755, 0, 0, 0, 0, 0, 0, 0, 0, 0, 0, 0\n1175, 30812]"] ;
146 -> 147 ;
148 [label="tcp.ack <= -0.2\ngini = 0.0\nsamples = 31384\nvalue = [0, 0, 0, 0, 0, 0, 0, 0, 0, 0, 0, 0, 0, 572\n30812]"] ;
147 -> 148 ;
149 [label="gini = 0.0\nsamples = 572\nvalue = [0, 0, 0, 0, 0, 0, 0, 0, 0, 0, 0, 0, 0, 572\n0]"] ;
148 -> 149 ;
150 [label="gini = 0.0\nsamples = 30812\nvalue = [0, 0, 0, 0, 0, 0, 0, 0, 0, 0, 0, 0, 0, 0\n30812]"] ;
148 -> 150 ;
151 [label="tcp.len <= 0.8\ngini = 0.2\nsamples = 6358\nvalue = [0, 5755, 0, 0, 0, 0, 0, 0, 0, 0, 0, 0, 0\n603, 0]"] ;
147 -> 151 ;
152 [label="http.content_length <= 1.9\ngini = 0.1\nsamples = 6050\nvalue = [0, 5755, 0, 0, 0, 0, 0, 0, 0, 0, 0, 0, 0\n295, 0]"] ;
151 -> 152 ;
153 [label="gini = 0.0\nsamples = 4980\nvalue = [0, 4980, 0, 0, 0, 0, 0, 0, 0, 0, 0, 0, 0, 0\n0]"] ;
152 -> 153 ;
154 [label="tcp.ack_raw <= -1.1\ngini = 0.4\nsamples = 1070\nvalue = [0, 775, 0, 0, 0, 0, 0, 0, 0, 0, 0, 0, 0, 295\n0]"] ;
152 -> 154 ;
155 [label="tcp.ack <= -0.2\ngini = 0.2\nsamples = 60\nvalue = [0, 6, 0, 0, 0, 0, 0, 0, 0, 0, 0, 0, 0, 54\n0]"] ;
154 -> 155 ;
156 [label="gini = 0.0\nsamples = 54\nvalue = [0, 0, 0, 0, 0, 0, 0, 0, 0, 0, 0, 0, 0, 54\n0]"] ;
155 -> 156 ;
157 [label="gini = 0.0\nsamples = 6\nvalue = [0, 6, 0, 0, 0, 0, 0, 0, 0, 0, 0, 0, 0, 0\n0]"] ;
155 -> 157 ;
158 [label="tcp.ack_raw <= 1.3\ngini = 0.4\nsamples = 1010\nvalue = [0, 769, 0, 0, 0, 0, 0, 0, 0, 0, 0, 0, 0, 241\n0]"] ;
154 -> 158 ;
159 [label="tcp.checksum <= 1.4\ngini = 0.4\nsamples = 714\nvalue = [0, 514, 0, 0, 0, 0, 0, 0, 0, 0, 0, 0, 0, 200\n0]"] ;
158 -> 159 ;
160 [label="gini = 0.4\nsamples = 649\nvalue = [0, 482, 0, 0, 0, 0, 0, 0, 0, 0, 0, 0, 0, 167\n0]"] ;
159 -> 160 ;
161 [label="gini = 0.5\nsamples = 65\nvalue = [0, 32, 0, 0, 0, 0, 0, 0, 0, 0, 0, 0, 0, 33\n0]"] ;
159 -> 161 ;
162 [label="tcp.checksum <= 1.7\ngini = 0.2\nsamples = 296\nvalue = [0, 255, 0, 0, 0, 0, 0, 0, 0, 0, 0, 0, 0, 41\n0]"] ;
158 -> 162 ;
163 [label="gini = 0.2\nsamples = 289\nvalue = [0, 255, 0, 0, 0, 0, 0, 0, 0, 0, 0, 0, 0, 34\n0]"] ;
162 -> 163 ;
164 [label="gini = 0.0\nsamples = 7\nvalue = [0, 0, 0, 0, 0, 0, 0, 0, 0, 0, 0, 0, 0, 7\n0]"] ;
162 -> 164 ;
165 [label="gini = 0.0\nsamples = 308\nvalue = [0, 0, 0, 0, 0, 0, 0, 0, 0, 0, 0, 0, 0, 308\n0]"] ;
151 -> 165 ;
166 [label="gini = 0.0\nsamples = 311674\nvalue = [0, 0, 0, 0, 0, 0, 0, 0, 0, 0, 0, 0, 0\n311674, 0]"] ;
146 -> 166 ;
167 [label="tcp.connection.rst <= 1.9\ngini = 0.7\nsamples = 1199724\nvalue = [0, 0, 0, 0, 0, 0, 0, 0, 399908, 0, 0, 399908\n399908, 0, 0]"] ;
1 -> 167 ;
168 [label="http.content_length <= 0.1\ngini = 0.7\nsamples = 1121900\nvalue = [0, 0, 0, 0, 0, 0, 0, 0, 398080, 0, 0, 392411\n331409, 0, 0]"] ;
167 -> 168 ;
169 [label="tcp.len <= 0.4\ngini = 0.7\nsamples = 1094117\nvalue = [0, 0, 0, 0, 0, 0, 0, 0, 370297, 0, 0, 392411\n331409, 0, 0]"] ;
168 -> 169 ;
170 [label="tcp.len <= -0.1\ngini = 0.7\nsamples = 993992\nvalue = [0, 0, 0, 0, 0, 0, 0, 0, 352611, 0, 0, 324327\n317054, 0, 0]"] ;
169 -> 170 ;
171 [label="tcp.ack_raw <= -1.2\ngini = 0.7\nsamples = 931497\nvalue = [0, 0, 0, 0, 0, 0, 0, 0, 334782, 0, 0, 323956\n272759, 0, 0]"] ;
170 -> 171 ;
172 [label="tcp.checksum <= -0.8\ngini = 0.6\nsamples = 146751\nvalue = [0, 0, 0, 0, 0, 0, 0, 0, 35244, 0, 0, 33224\n78283, 0, 0]"] ;
171 -> 172 ;
173 [label="tcp.checksum <= -1.0\ngini = 0.6\nsamples = 21375\nvalue = [0, 0, 0, 0, 0, 0, 0, 0, 5004, 0, 0, 4415\n11956, 0, 0]"] ;
172 -> 173 ;
174 [label="tcp.checksum <= -1.1\ngini = 0.6\nsamples = 11572\nvalue = [0, 0, 0, 0, 0, 0, 0, 0, 2501, 0, 0, 2547, 6524\n0, 0]"] ;
173 -> 174 ;
175 [label="gini = 0.6\nsamples = 9697\nvalue = [0, 0, 0, 0, 0, 0, 0, 0, 2258, 0, 0, 2118, 5321\n0, 0]"] ;
174 -> 175 ;
176 [label="gini = 0.5\nsamples = 1875\nvalue = [0, 0, 0, 0, 0, 0, 0, 0, 243, 0, 0, 429, 1203\n0, 0]"] ;
174 -> 176 ;
177 [label="tcp.checksum <= -1.0\ngini = 0.6\nsamples = 9803\nvalue = [0, 0, 0, 0, 0, 0, 0, 0, 2503, 0, 0, 1868, 5432\n0, 0]"] ;
173 -> 177 ;
178 [label="gini = 0.6\nsamples = 3145\nvalue = [0, 0, 0, 0, 0, 0, 0, 0, 978, 0, 0, 582, 1585\n0, 0]"] ;
177 -> 178 ;
179 [label="gini = 0.6\nsamples = 6658\nvalue = [0, 0, 0, 0, 0, 0, 0, 0, 1525, 0, 0, 1286, 3847\n0, 0]"] ;
177 -> 179 ;
180 [label="tcp.checksum <= 1.8\ngini = 0.6\nsamples = 125376\nvalue = [0, 0, 0, 0, 0, 0, 0, 0, 30240, 0, 0, 28809\n66327, 0, 0]"] ;
172 -> 180 ;
181 [label="tcp.checksum <= 1.8\ngini = 0.6\nsamples = 124918\nvalue = [0, 0, 0, 0, 0, 0, 0, 0, 30066, 0, 0, 28685\n66167, 0, 0]"] ;
180 -> 181 ;
182 [label="gini = 0.6\nsamples = 124508\nvalue = [0, 0, 0, 0, 0, 0, 0, 0, 30010, 0, 0, 28632\n65866, 0, 0]"] ;
181 -> 182 ;
183 [label="gini = 0.4\nsamples = 410\nvalue = [0, 0, 0, 0, 0, 0, 0, 0, 56, 0, 0, 53, 301, 0\n0]"] ;
181 -> 183 ;
184 [label="tcp.checksum <= 1.8\ngini = 0.7\nsamples = 458\nvalue = [0, 0, 0, 0, 0, 0, 0, 0, 174, 0, 0, 124, 160\n0, 0]"] ;
180 -> 184 ;
185 [label="gini = 0.5\nsamples = 112\nvalue = [0, 0, 0, 0, 0, 0, 0, 0, 73, 0, 0, 27, 12, 0\n0]"] ;
184 -> 185 ;
186 [label="gini = 0.7\nsamples = 346\nvalue = [0, 0, 0, 0, 0, 0, 0, 0, 101, 0, 0, 97, 148\n0, 0]"] ;
184 -> 186 ;
187 [label="tcp.ack <= -0.2\ngini = 0.7\nsamples = 784746\nvalue = [0, 0, 0, 0, 0, 0, 0, 0, 299538, 0, 0, 290732\n194476, 0, 0]"] ;
171 -> 187 ;
188 [label="http.request.method_0 <= 0.7\ngini = 0.7\nsamples = 775709\nvalue = [0, 0, 0, 0, 0, 0, 0, 0, 299538, 0, 0, 290732\n185439, 0, 0]"] ;
187 -> 188 ;
189 [label="gini = 0.0\nsamples = 9082\nvalue = [0, 0, 0, 0, 0, 0, 0, 0, 9082, 0, 0, 0, 0, 0\n0]"] ;
188 -> 189 ;
190 [label="tcp.seq <= -0.2\ngini = 0.7\nsamples = 766627\nvalue = [0, 0, 0, 0, 0, 0, 0, 0, 290456, 0, 0, 290732\n185439, 0, 0]"] ;
188 -> 190 ;
191 [label="gini = 0.7\nsamples = 763231\nvalue = [0, 0, 0, 0, 0, 0, 0, 0, 290456, 0, 0, 290732\n182043, 0, 0]"] ;
190 -> 191 ;
192 [label="gini = 0.0\nsamples = 3396\nvalue = [0, 0, 0, 0, 0, 0, 0, 0, 0, 0, 0, 0, 3396, 0\n0]"] ;
190 -> 192 ;
193 [label="gini = 0.0\nsamples = 9037\nvalue = [0, 0, 0, 0, 0, 0, 0, 0, 0, 0, 0, 0, 9037, 0\n0]"] ;
187 -> 193 ;
194 [label="tcp.len <= 0.2\ngini = 0.4\nsamples = 62495\nvalue = [0, 0, 0, 0, 0, 0, 0, 0, 17829, 0, 0, 371\n44295, 0, 0]"] ;
170 -> 194 ;
195 [label="tcp.flags <= 1.0\ngini = 0.0\nsamples = 44062\nvalue = [0, 0, 0, 0, 0, 0, 0, 0, 12, 0, 0, 20, 44030\n0, 0]"] ;
194 -> 195 ;
196 [label="tcp.flags <= 0.8\ngini = 0.4\nsamples = 26\nvalue = [0, 0, 0, 0, 0, 0, 0, 0, 6, 0, 0, 20, 0, 0\n0]"] ;
195 -> 196 ;
197 [label="gini = 0.0\nsamples = 20\nvalue = [0, 0, 0, 0, 0, 0, 0, 0, 0, 0, 0, 20, 0, 0\n0]"] ;
196 -> 197 ;
198 [label="gini = 0.0\nsamples = 6\nvalue = [0, 0, 0, 0, 0, 0, 0, 0, 6, 0, 0, 0, 0, 0\n0]"] ;
196 -> 198 ;
199 [label="http.request.version_3 <= 8.7\ngini = 0.0\nsamples = 44036\nvalue = [0, 0, 0, 0, 0, 0, 0, 0, 6, 0, 0, 0, 44030, 0\n0]"] ;
195 -> 199 ;
200 [label="gini = 0.0\nsamples = 44030\nvalue = [0, 0, 0, 0, 0, 0, 0, 0, 0, 0, 0, 0, 44030, 0\n0]"] ;
199 -> 200 ;
201 [label="gini = 0.0\nsamples = 6\nvalue = [0, 0, 0, 0, 0, 0, 0, 0, 6, 0, 0, 0, 0, 0\n0]"] ;
199 -> 201 ;
202 [label="http.request.version_2 <= 2.9\ngini = 0.1\nsamples = 18433\nvalue = [0, 0, 0, 0, 0, 0, 0, 0, 17817, 0, 0, 351, 265\n0, 0]"] ;
194 -> 202 ;
203 [label="tcp.seq <= -0.2\ngini = 0.0\nsamples = 18097\nvalue = [0, 0, 0, 0, 0, 0, 0, 0, 17817, 0, 0, 15, 265\n0, 0]"] ;
202 -> 203 ;
204 [label="tcp.flags <= 1.0\ngini = 0.0\nsamples = 17818\nvalue = [0, 0, 0, 0, 0, 0, 0, 0, 17815, 0, 0, 3, 0, 0\n0]"] ;
203 -> 204 ;
205 [label="gini = 0.0\nsamples = 3\nvalue = [0, 0, 0, 0, 0, 0, 0, 0, 0, 0, 0, 3, 0, 0\n0]"] ;
204 -> 205 ;
206 [label="gini = 0.0\nsamples = 17815\nvalue = [0, 0, 0, 0, 0, 0, 0, 0, 17815, 0, 0, 0, 0, 0\n0]"] ;
204 -> 206 ;
207 [label="tcp.flags <= 1.1\ngini = 0.1\nsamples = 279\nvalue = [0, 0, 0, 0, 0, 0, 0, 0, 2, 0, 0, 12, 265, 0\n0]"] ;
203 -> 207 ;
208 [label="gini = 0.2\nsamples = 14\nvalue = [0, 0, 0, 0, 0, 0, 0, 0, 2, 0, 0, 12, 0, 0\n0]"] ;
207 -> 208 ;
209 [label="gini = 0.0\nsamples = 265\nvalue = [0, 0, 0, 0, 0, 0, 0, 0, 0, 0, 0, 0, 265, 0\n0]"] ;
207 -> 209 ;
210 [label="gini = 0.0\nsamples = 336\nvalue = [0, 0, 0, 0, 0, 0, 0, 0, 0, 0, 0, 336, 0, 0\n0]"] ;
202 -> 210 ;
211 [label="tcp.len <= 1.3\ngini = 0.5\nsamples = 100125\nvalue = [0, 0, 0, 0, 0, 0, 0, 0, 17686, 0, 0, 68084\n14355, 0, 0]"] ;
169 -> 211 ;
212 [label="tcp.seq <= -0.2\ngini = 0.0\nsamples = 69177\nvalue = [0, 0, 0, 0, 0, 0, 0, 0, 0, 0, 0, 68084, 1093\n0, 0]"] ;
211 -> 212 ;
213 [label="tcp.ack <= -0.2\ngini = 0.0\nsamples = 68153\nvalue = [0, 0, 0, 0, 0, 0, 0, 0, 0, 0, 0, 68072, 81\n0, 0]"] ;
212 -> 213 ;
214 [label="tcp.len <= 0.8\ngini = 0.0\nsamples = 68073\nvalue = [0, 0, 0, 0, 0, 0, 0, 0, 0, 0, 0, 68072, 1, 0\n0]"] ;
213 -> 214 ;
215 [label="gini = 0.0\nsamples = 60859\nvalue = [0, 0, 0, 0, 0, 0, 0, 0, 0, 0, 0, 60859, 0, 0\n0]"] ;
214 -> 215 ;
216 [label="tcp.len <= 0.9\ngini = 0.0\nsamples = 7214\nvalue = [0, 0, 0, 0, 0, 0, 0, 0, 0, 0, 0, 7213, 1, 0\n0]"] ;
214 -> 216 ;
217 [label="gini = 0.0\nsamples = 1\nvalue = [0, 0, 0, 0, 0, 0, 0, 0, 0, 0, 0, 0, 1, 0\n0]"] ;
216 -> 217 ;
218 [label="gini = 0.0\nsamples = 7213\nvalue = [0, 0, 0, 0, 0, 0, 0, 0, 0, 0, 0, 7213, 0, 0\n0]"] ;
216 -> 218 ;
219 [label="gini = 0.0\nsamples = 80\nvalue = [0, 0, 0, 0, 0, 0, 0, 0, 0, 0, 0, 0, 80, 0\n0]"] ;
213 -> 219 ;
220 [label="tcp.connection.fin <= 1.5\ngini = 0.0\nsamples = 1024\nvalue = [0, 0, 0, 0, 0, 0, 0, 0, 0, 0, 0, 12, 1012, 0\n0]"] ;
212 -> 220 ;
221 [label="gini = 0.0\nsamples = 1012\nvalue = [0, 0, 0, 0, 0, 0, 0, 0, 0, 0, 0, 0, 1012, 0\n0]"] ;
220 -> 221 ;
222 [label="gini = 0.0\nsamples = 12\nvalue = [0, 0, 0, 0, 0, 0, 0, 0, 0, 0, 0, 12, 0, 0\n0]"] ;
220 -> 222 ;
223 [label="tcp.seq <= -0.2\ngini = 0.5\nsamples = 30948\nvalue = [0, 0, 0, 0, 0, 0, 0, 0, 17686, 0, 0, 0, 13262\n0, 0]"] ;
211 -> 223 ;
224 [label="gini = 0.0\nsamples = 17686\nvalue = [0, 0, 0, 0, 0, 0, 0, 0, 17686, 0, 0, 0, 0, 0\n0]"] ;
223 -> 224 ;
225 [label="gini = 0.0\nsamples = 13262\nvalue = [0, 0, 0, 0, 0, 0, 0, 0, 0, 0, 0, 0, 13262, 0\n0]"] ;
223 -> 225 ;
226 [label="gini = 0.0\nsamples = 27783\nvalue = [0, 0, 0, 0, 0, 0, 0, 0, 27783, 0, 0, 0, 0, 0\n0]"] ;
168 -> 226 ;
227 [label="tcp.seq <= -0.2\ngini = 0.2\nsamples = 77824\nvalue = [0, 0, 0, 0, 0, 0, 0, 0, 1828, 0, 0, 7497\n68499, 0, 0]"] ;
167 -> 227 ;
228 [label="tcp.ack_raw <= -1.1\ngini = 0.1\nsamples = 69940\nvalue = [0, 0, 0, 0, 0, 0, 0, 0, 1828, 0, 0, 0, 68112\n0, 0]"] ;
227 -> 228 ;
229 [label="tcp.seq <= -0.2\ngini = 0.3\nsamples = 8833\nvalue = [0, 0, 0, 0, 0, 0, 0, 0, 1828, 0, 0, 0, 7005\n0, 0]"] ;
228 -> 229 ;
230 [label="tcp.checksum <= -1.2\ngini = 0.3\nsamples = 8760\nvalue = [0, 0, 0, 0, 0, 0, 0, 0, 1771, 0, 0, 0, 6989\n0, 0]"] ;
229 -> 230 ;
231 [label="gini = 0.0\nsamples = 90\nvalue = [0, 0, 0, 0, 0, 0, 0, 0, 0, 0, 0, 0, 90, 0\n0]"] ;
230 -> 231 ;
232 [label="tcp.checksum <= -1.1\ngini = 0.3\nsamples = 8670\nvalue = [0, 0, 0, 0, 0, 0, 0, 0, 1771, 0, 0, 0, 6899\n0, 0]"] ;
230 -> 232 ;
233 [label="tcp.seq <= -0.2\ngini = 0.5\nsamples = 188\nvalue = [0, 0, 0, 0, 0, 0, 0, 0, 79, 0, 0, 0, 109, 0\n0]"] ;
232 -> 233 ;
234 [label="gini = 0.0\nsamples = 79\nvalue = [0, 0, 0, 0, 0, 0, 0, 0, 79, 0, 0, 0, 0, 0\n0]"] ;
233 -> 234 ;
235 [label="gini = 0.0\nsamples = 109\nvalue = [0, 0, 0, 0, 0, 0, 0, 0, 0, 0, 0, 0, 109, 0\n0]"] ;
233 -> 235 ;
236 [label="tcp.checksum <= -1.0\ngini = 0.3\nsamples = 8482\nvalue = [0, 0, 0, 0, 0, 0, 0, 0, 1692, 0, 0, 0, 6790\n0, 0]"] ;
232 -> 236 ;
237 [label="tcp.seq <= -0.2\ngini = 0.2\nsamples = 495\nvalue = [0, 0, 0, 0, 0, 0, 0, 0, 41, 0, 0, 0, 454, 0\n0]"] ;
236 -> 237 ;
238 [label="gini = 0.1\nsamples = 43\nvalue = [0, 0, 0, 0, 0, 0, 0, 0, 41, 0, 0, 0, 2, 0\n0]"] ;
237 -> 238 ;
239 [label="gini = 0.0\nsamples = 452\nvalue = [0, 0, 0, 0, 0, 0, 0, 0, 0, 0, 0, 0, 452, 0\n0]"] ;
237 -> 239 ;
240 [label="tcp.seq <= -0.2\ngini = 0.3\nsamples = 7987\nvalue = [0, 0, 0, 0, 0, 0, 0, 0, 1651, 0, 0, 0, 6336\n0, 0]"] ;
236 -> 240 ;
241 [label="gini = 0.0\nsamples = 1446\nvalue = [0, 0, 0, 0, 0, 0, 0, 0, 1442, 0, 0, 0, 4, 0\n0]"] ;
240 -> 241 ;
242 [label="gini = 0.1\nsamples = 6541\nvalue = [0, 0, 0, 0, 0, 0, 0, 0, 209, 0, 0, 0, 6332\n0, 0]"] ;
240 -> 242 ;
243 [label="tcp.seq <= -0.2\ngini = 0.3\nsamples = 73\nvalue = [0, 0, 0, 0, 0, 0, 0, 0, 57, 0, 0, 0, 16, 0\n0]"] ;
229 -> 243 ;
244 [label="tcp.checksum <= -0.8\ngini = 0.3\nsamples = 67\nvalue = [0, 0, 0, 0, 0, 0, 0, 0, 57, 0, 0, 0, 10, 0\n0]"] ;
243 -> 244 ;
245 [label="gini = 0.0\nsamples = 1\nvalue = [0, 0, 0, 0, 0, 0, 0, 0, 0, 0, 0, 0, 1, 0\n0]"] ;
244 -> 245 ;
246 [label="tcp.checksum <= -0.3\ngini = 0.2\nsamples = 66\nvalue = [0, 0, 0, 0, 0, 0, 0, 0, 57, 0, 0, 0, 9, 0\n0]"] ;
244 -> 246 ;
247 [label="gini = 0.0\nsamples = 27\nvalue = [0, 0, 0, 0, 0, 0, 0, 0, 27, 0, 0, 0, 0, 0\n0]"] ;
246 -> 247 ;
248 [label="tcp.checksum <= 0.7\ngini = 0.4\nsamples = 39\nvalue = [0, 0, 0, 0, 0, 0, 0, 0, 30, 0, 0, 0, 9, 0\n0]"] ;
246 -> 248 ;
249 [label="gini = 0.4\nsamples = 8\nvalue = [0, 0, 0, 0, 0, 0, 0, 0, 2, 0, 0, 0, 6, 0\n0]"] ;
248 -> 249 ;
250 [label="gini = 0.2\nsamples = 31\nvalue = [0, 0, 0, 0, 0, 0, 0, 0, 28, 0, 0, 0, 3, 0\n0]"] ;
248 -> 250 ;
251 [label="gini = 0.0\nsamples = 6\nvalue = [0, 0, 0, 0, 0, 0, 0, 0, 0, 0, 0, 0, 6, 0\n0]"] ;
243 -> 251 ;
252 [label="gini = 0.0\nsamples = 61107\nvalue = [0, 0, 0, 0, 0, 0, 0, 0, 0, 0, 0, 0, 61107, 0\n0]"] ;
228 -> 252 ;
253 [label="tcp.seq <= -0.2\ngini = 0.1\nsamples = 7884\nvalue = [0, 0, 0, 0, 0, 0, 0, 0, 0, 0, 0, 7497, 387\n0, 0]"] ;
227 -> 253 ;
254 [label="tcp.ack <= -0.2\ngini = 0.0\nsamples = 7578\nvalue = [0, 0, 0, 0, 0, 0, 0, 0, 0, 0, 0, 7497, 81, 0\n0]"] ;
253 -> 254 ;
255 [label="tcp.checksum <= 0.8\ngini = 0.0\nsamples = 7575\nvalue = [0, 0, 0, 0, 0, 0, 0, 0, 0, 0, 0, 7497, 78, 0\n0]"] ;
254 -> 255 ;
256 [label="tcp.checksum <= 0.8\ngini = 0.0\nsamples = 5037\nvalue = [0, 0, 0, 0, 0, 0, 0, 0, 0, 0, 0, 4972, 65, 0\n0]"] ;
255 -> 256 ;
257 [label="tcp.checksum <= 0.8\ngini = 0.0\nsamples = 5036\nvalue = [0, 0, 0, 0, 0, 0, 0, 0, 0, 0, 0, 4972, 64, 0\n0]"] ;
256 -> 257 ;
258 [label="tcp.checksum <= 0.4\ngini = 0.0\nsamples = 4993\nvalue = [0, 0, 0, 0, 0, 0, 0, 0, 0, 0, 0, 4935, 58, 0\n0]"] ;
257 -> 258 ;
259 [label="gini = 0.0\nsamples = 4253\nvalue = [0, 0, 0, 0, 0, 0, 0, 0, 0, 0, 0, 4220, 33, 0\n0]"] ;
258 -> 259 ;
260 [label="gini = 0.1\nsamples = 740\nvalue = [0, 0, 0, 0, 0, 0, 0, 0, 0, 0, 0, 715, 25, 0\n0]"] ;
258 -> 260 ;
261 [label="tcp.checksum <= 0.8\ngini = 0.2\nsamples = 43\nvalue = [0, 0, 0, 0, 0, 0, 0, 0, 0, 0, 0, 37, 6, 0\n0]"] ;
257 -> 261 ;
262 [label="gini = 0.0\nsamples = 3\nvalue = [0, 0, 0, 0, 0, 0, 0, 0, 0, 0, 0, 0, 3, 0\n0]"] ;
261 -> 262 ;
263 [label="gini = 0.1\nsamples = 40\nvalue = [0, 0, 0, 0, 0, 0, 0, 0, 0, 0, 0, 37, 3, 0\n0]"] ;
261 -> 263 ;
264 [label="gini = 0.0\nsamples = 1\nvalue = [0, 0, 0, 0, 0, 0, 0, 0, 0, 0, 0, 0, 1, 0\n0]"] ;
256 -> 264 ;
265 [label="tcp.checksum <= 1.6\ngini = 0.0\nsamples = 2538\nvalue = [0, 0, 0, 0, 0, 0, 0, 0, 0, 0, 0, 2525, 13, 0\n0]"] ;
255 -> 265 ;
266 [label="tcp.checksum <= 1.1\ngini = 0.0\nsamples = 1992\nvalue = [0, 0, 0, 0, 0, 0, 0, 0, 0, 0, 0, 1989, 3, 0\n0]"] ;
265 -> 266 ;
267 [label="tcp.checksum <= 1.1\ngini = 0.0\nsamples = 759\nvalue = [0, 0, 0, 0, 0, 0, 0, 0, 0, 0, 0, 756, 3, 0\n0]"] ;
266 -> 267 ;
268 [label="gini = 0.0\nsamples = 755\nvalue = [0, 0, 0, 0, 0, 0, 0, 0, 0, 0, 0, 755, 0, 0\n0]"] ;
267 -> 268 ;
269 [label="gini = 0.4\nsamples = 4\nvalue = [0, 0, 0, 0, 0, 0, 0, 0, 0, 0, 0, 1, 3, 0\n0]"] ;
267 -> 269 ;
270 [label="gini = 0.0\nsamples = 1233\nvalue = [0, 0, 0, 0, 0, 0, 0, 0, 0, 0, 0, 1233, 0, 0\n0]"] ;
266 -> 270 ;
271 [label="tcp.checksum <= 1.6\ngini = 0.0\nsamples = 546\nvalue = [0, 0, 0, 0, 0, 0, 0, 0, 0, 0, 0, 536, 10, 0\n0]"] ;
265 -> 271 ;
272 [label="gini = 0.0\nsamples = 3\nvalue = [0, 0, 0, 0, 0, 0, 0, 0, 0, 0, 0, 0, 3, 0\n0]"] ;
271 -> 272 ;
273 [label="tcp.seq <= -0.2\ngini = 0.0\nsamples = 543\nvalue = [0, 0, 0, 0, 0, 0, 0, 0, 0, 0, 0, 536, 7, 0\n0]"] ;
271 -> 273 ;
274 [label="gini = 0.0\nsamples = 1\nvalue = [0, 0, 0, 0, 0, 0, 0, 0, 0, 0, 0, 0, 1, 0\n0]"] ;
273 -> 274 ;
275 [label="gini = 0.0\nsamples = 542\nvalue = [0, 0, 0, 0, 0, 0, 0, 0, 0, 0, 0, 536, 6, 0\n0]"] ;
273 -> 275 ;
276 [label="gini = 0.0\nsamples = 3\nvalue = [0, 0, 0, 0, 0, 0, 0, 0, 0, 0, 0, 0, 3, 0\n0]"] ;
254 -> 276 ;
277 [label="gini = 0.0\nsamples = 306\nvalue = [0, 0, 0, 0, 0, 0, 0, 0, 0, 0, 0, 0, 306, 0\n0]"] ;
253 -> 277 ;
278 [label="http.request.version_0 <= 0.7\ngini = 0.9\nsamples = 3599172\nvalue = [399908, 0, 399908, 399908, 399908, 399908, 399908\n399908, 0, 399908, 399908, 0, 0, 0, 0]"] ;
0 -> 278 [labeldistance=2.5, labelangle=-45, headlabel="False"] ;
279 [label="mqtt.topic_0 <= -0.0\ngini = 0.9\nsamples = 3199264\nvalue = [399908, 0, 399908, 399908, 399908, 399908, 0, 399908\n0, 399908, 399908, 0, 0, 0, 0]"] ;
278 -> 279 ;
280 [label="gini = 0.0\nsamples = 399908\nvalue = [0, 0, 0, 0, 0, 0, 0, 399908, 0, 0, 0, 0, 0\n0, 0]"] ;
279 -> 280 ;
281 [label="udp.stream <= -0.3\ngini = 0.9\nsamples = 2799356\nvalue = [399908, 0, 399908, 399908, 399908, 399908, 0, 0, 0\n399908, 399908, 0, 0, 0, 0]"] ;
279 -> 281 ;
282 [label="icmp.seq_le <= -0.2\ngini = 0.8\nsamples = 2399448\nvalue = [399908, 0, 399908, 399908, 0, 399908, 0, 0, 0\n399908, 399908, 0, 0, 0, 0]"] ;
281 -> 282 ;
283 [label="tcp.ack_raw <= -1.2\ngini = 0.8\nsamples = 2000778\nvalue = [399908, 0, 1238, 399908, 0, 399908, 0, 0, 0, 399908\n399908, 0, 0, 0, 0]"] ;
282 -> 283 ;
284 [label="tcp.checksum <= -1.3\ngini = 0.2\nsamples = 376328\nvalue = [14050, 0, 1238, 1, 0, 337124, 0, 0, 0, 24, 23891\n0, 0, 0, 0]"] ;
283 -> 284 ;
285 [label="icmp.seq_le <= -0.2\ngini = 0.0\nsamples = 276217\nvalue = [27, 0, 1238, 1, 0, 274926, 0, 0, 0, 24, 1, 0\n0, 0, 0]"] ;
284 -> 285 ;
286 [label="icmp.checksum <= -0.2\ngini = 0.0\nsamples = 160907\nvalue = [27, 0, 32, 1, 0, 160822, 0, 0, 0, 24, 1, 0, 0\n0, 0]"] ;
285 -> 286 ;
287 [label="arp.opcode <= 253.6\ngini = 0.2\nsamples = 552\nvalue = [27, 0, 4, 1, 0, 495, 0, 0, 0, 24, 1, 0, 0, 0\n0]"] ;
286 -> 287 ;
288 [label="gini = 0.2\nsamples = 547\nvalue = [26, 0, 3, 0, 0, 494, 0, 0, 0, 23, 1, 0, 0, 0\n0]"] ;
287 -> 288 ;
289 [label="gini = 0.8\nsamples = 5\nvalue = [1, 0, 1, 1, 0, 1, 0, 0, 0, 1, 0, 0, 0, 0\n0]"] ;
287 -> 289 ;
290 [label="icmp.seq_le <= -0.2\ngini = 0.0\nsamples = 160355\nvalue = [0, 0, 28, 0, 0, 160327, 0, 0, 0, 0, 0, 0, 0\n0, 0]"] ;
286 -> 290 ;
291 [label="gini = 0.0\nsamples = 154078\nvalue = [0, 0, 0, 0, 0, 154078, 0, 0, 0, 0, 0, 0, 0\n0, 0]"] ;
290 -> 291 ;
292 [label="gini = 0.0\nsamples = 6277\nvalue = [0, 0, 28, 0, 0, 6249, 0, 0, 0, 0, 0, 0, 0, 0\n0]"] ;
290 -> 292 ;
293 [label="icmp.seq_le <= -0.2\ngini = 0.0\nsamples = 115310\nvalue = [0, 0, 1206, 0, 0, 114104, 0, 0, 0, 0, 0, 0, 0\n0, 0]"] ;
285 -> 293 ;
294 [label="icmp.checksum <= 4.1\ngini = 0.0\nsamples = 88045\nvalue = [0, 0, 1204, 0, 0, 86841, 0, 0, 0, 0, 0, 0, 0\n0, 0]"] ;
293 -> 294 ;
295 [label="gini = 0.0\nsamples = 50718\nvalue = [0, 0, 916, 0, 0, 49802, 0, 0, 0, 0, 0, 0, 0\n0, 0]"] ;
294 -> 295 ;
296 [label="gini = 0.0\nsamples = 37327\nvalue = [0, 0, 288, 0, 0, 37039, 0, 0, 0, 0, 0, 0, 0\n0, 0]"] ;
294 -> 296 ;
297 [label="icmp.checksum <= 4.6\ngini = 0.0\nsamples = 27265\nvalue = [0, 0, 2, 0, 0, 27263, 0, 0, 0, 0, 0, 0, 0, 0\n0]"] ;
293 -> 297 ;
298 [label="gini = 0.0\nsamples = 14888\nvalue = [0, 0, 0, 0, 0, 14888, 0, 0, 0, 0, 0, 0, 0, 0\n0]"] ;
297 -> 298 ;
299 [label="gini = 0.0\nsamples = 12377\nvalue = [0, 0, 2, 0, 0, 12375, 0, 0, 0, 0, 0, 0, 0, 0\n0]"] ;
297 -> 299 ;
300 [label="tcp.checksum <= -0.7\ngini = 0.5\nsamples = 100111\nvalue = [14023, 0, 0, 0, 0, 62198, 0, 0, 0, 0, 23890, 0\n0, 0, 0]"] ;
284 -> 300 ;
301 [label="tcp.checksum <= -0.9\ngini = 0.6\nsamples = 15132\nvalue = [2732, 0, 0, 0, 0, 7672, 0, 0, 0, 0, 4728, 0, 0\n0, 0]"] ;
300 -> 301 ;
302 [label="tcp.checksum <= -1.2\ngini = 0.5\nsamples = 10174\nvalue = [1544, 0, 0, 0, 0, 6312, 0, 0, 0, 0, 2318, 0, 0\n0, 0]"] ;
301 -> 302 ;
303 [label="gini = 0.2\nsamples = 439\nvalue = [22, 0, 0, 0, 0, 36, 0, 0, 0, 0, 381, 0, 0, 0\n0]"] ;
302 -> 303 ;
304 [label="gini = 0.5\nsamples = 9735\nvalue = [1522, 0, 0, 0, 0, 6276, 0, 0, 0, 0, 1937, 0, 0\n0, 0]"] ;
302 -> 304 ;
305 [label="tcp.checksum <= -0.8\ngini = 0.6\nsamples = 4958\nvalue = [1188, 0, 0, 0, 0, 1360, 0, 0, 0, 0, 2410, 0, 0\n0, 0]"] ;
301 -> 305 ;
306 [label="gini = 0.5\nsamples = 2416\nvalue = [837, 0, 0, 0, 0, 0, 0, 0, 0, 0, 1579, 0, 0\n0, 0]"] ;
305 -> 306 ;
307 [label="gini = 0.6\nsamples = 2542\nvalue = [351, 0, 0, 0, 0, 1360, 0, 0, 0, 0, 831, 0, 0\n0, 0]"] ;
305 -> 307 ;
308 [label="tcp.checksum <= -0.6\ngini = 0.5\nsamples = 84979\nvalue = [11291, 0, 0, 0, 0, 54526, 0, 0, 0, 0, 19162, 0\n0, 0, 0]"] ;
300 -> 308 ;
309 [label="tcp.checksum <= -0.6\ngini = 0.3\nsamples = 7411\nvalue = [633, 0, 0, 0, 0, 6031, 0, 0, 0, 0, 747, 0, 0\n0, 0]"] ;
308 -> 309 ;
310 [label="gini = 0.4\nsamples = 4077\nvalue = [393, 0, 0, 0, 0, 3094, 0, 0, 0, 0, 590, 0, 0\n0, 0]"] ;
309 -> 310 ;
311 [label="gini = 0.2\nsamples = 3334\nvalue = [240, 0, 0, 0, 0, 2937, 0, 0, 0, 0, 157, 0, 0\n0, 0]"] ;
309 -> 311 ;
312 [label="tcp.checksum <= -0.5\ngini = 0.5\nsamples = 77568\nvalue = [10658, 0, 0, 0, 0, 48495, 0, 0, 0, 0, 18415, 0\n0, 0, 0]"] ;
308 -> 312 ;
313 [label="gini = 0.5\nsamples = 1381\nvalue = [405, 0, 0, 0, 0, 69, 0, 0, 0, 0, 907, 0, 0\n0, 0]"] ;
312 -> 313 ;
314 [label="gini = 0.5\nsamples = 76187\nvalue = [10253, 0, 0, 0, 0, 48426, 0, 0, 0, 0, 17508, 0\n0, 0, 0]"] ;
312 -> 314 ;
315 [label="tcp.ack_raw <= 0.5\ngini = 0.8\nsamples = 1624450\nvalue = [385858, 0, 0, 399907, 0, 62784, 0, 0, 0, 399884\n376017, 0, 0, 0, 0]"] ;
283 -> 315 ;
316 [label="tcp.seq <= -0.2\ngini = 0.7\nsamples = 1195670\nvalue = [91346, 0, 0, 399907, 0, 62784, 0, 0, 0, 399884\n241749, 0, 0, 0, 0]"] ;
315 -> 316 ;
317 [label="tcp.len <= -0.2\ngini = 0.6\nsamples = 931304\nvalue = [6309, 0, 0, 399907, 0, 62784, 0, 0, 0, 399884\n62420, 0, 0, 0, 0]"] ;
316 -> 317 ;
318 [label="tcp.connection.syn <= -0.3\ngini = 0.6\nsamples = 698136\nvalue = [6306, 0, 0, 166744, 0, 62784, 0, 0, 0, 399884\n62418, 0, 0, 0, 0]"] ;
317 -> 318 ;
319 [label="gini = 0.7\nsamples = 497560\nvalue = [6306, 0, 0, 166744, 0, 62784, 0, 0, 0, 199308\n62418, 0, 0, 0, 0]"] ;
318 -> 319 ;
320 [label="gini = 0.0\nsamples = 200576\nvalue = [0, 0, 0, 0, 0, 0, 0, 0, 0, 200576, 0, 0, 0\n0, 0]"] ;
318 -> 320 ;
321 [label="tcp.flags <= -0.6\ngini = 0.0\nsamples = 233168\nvalue = [3, 0, 0, 233163, 0, 0, 0, 0, 0, 0, 2, 0, 0\n0, 0]"] ;
317 -> 321 ;
322 [label="gini = 0.0\nsamples = 233163\nvalue = [0, 0, 0, 233163, 0, 0, 0, 0, 0, 0, 0, 0, 0\n0, 0]"] ;
321 -> 322 ;
323 [label="gini = 0.5\nsamples = 5\nvalue = [3, 0, 0, 0, 0, 0, 0, 0, 0, 0, 2, 0, 0, 0\n0]"] ;
321 -> 323 ;
324 [label="tcp.ack_raw <= -0.0\ngini = 0.4\nsamples = 264366\nvalue = [85037, 0, 0, 0, 0, 0, 0, 0, 0, 0, 179329, 0, 0\n0, 0]"] ;
316 -> 324 ;
325 [label="tcp.ack_raw <= -0.1\ngini = 0.5\nsamples = 138515\nvalue = [85023, 0, 0, 0, 0, 0, 0, 0, 0, 0, 53492, 0, 0\n0, 0]"] ;
324 -> 325 ;
326 [label="gini = 0.0\nsamples = 53576\nvalue = [84, 0, 0, 0, 0, 0, 0, 0, 0, 0, 53492, 0, 0\n0, 0]"] ;
325 -> 326 ;
327 [label="gini = 0.0\nsamples = 84939\nvalue = [84939, 0, 0, 0, 0, 0, 0, 0, 0, 0, 0, 0, 0, 0\n0]"] ;
325 -> 327 ;
328 [label="tcp.len <= 2.7\ngini = 0.0\nsamples = 125851\nvalue = [14, 0, 0, 0, 0, 0, 0, 0, 0, 0, 125837, 0, 0\n0, 0]"] ;
324 -> 328 ;
329 [label="gini = 0.0\nsamples = 125838\nvalue = [1, 0, 0, 0, 0, 0, 0, 0, 0, 0, 125837, 0, 0\n0, 0]"] ;
328 -> 329 ;
330 [label="gini = 0.0\nsamples = 13\nvalue = [13, 0, 0, 0, 0, 0, 0, 0, 0, 0, 0, 0, 0, 0\n0]"] ;
328 -> 330 ;
331 [label="tcp.ack_raw <= 0.8\ngini = 0.4\nsamples = 428780\nvalue = [294512, 0, 0, 0, 0, 0, 0, 0, 0, 0, 134268, 0\n0, 0, 0]"] ;
315 -> 331 ;
332 [label="tcp.ack_raw <= 0.5\ngini = 0.5\nsamples = 231114\nvalue = [106813, 0, 0, 0, 0, 0, 0, 0, 0, 0, 124301, 0\n0, 0, 0]"] ;
331 -> 332 ;
333 [label="tcp.connection.rst <= 1.9\ngini = 0.0\nsamples = 106212\nvalue = [105796, 0, 0, 0, 0, 0, 0, 0, 0, 0, 416, 0, 0\n0, 0]"] ;
332 -> 333 ;
334 [label="gini = 0.0\nsamples = 105330\nvalue = [105328, 0, 0, 0, 0, 0, 0, 0, 0, 0, 2, 0, 0\n0, 0]"] ;
333 -> 334 ;
335 [label="gini = 0.5\nsamples = 882\nvalue = [468, 0, 0, 0, 0, 0, 0, 0, 0, 0, 414, 0, 0, 0\n0]"] ;
333 -> 335 ;
336 [label="tcp.flags <= 0.2\ngini = 0.0\nsamples = 124902\nvalue = [1017, 0, 0, 0, 0, 0, 0, 0, 0, 0, 123885, 0, 0\n0, 0]"] ;
332 -> 336 ;
337 [label="gini = 0.0\nsamples = 122000\nvalue = [14, 0, 0, 0, 0, 0, 0, 0, 0, 0, 121986, 0, 0\n0, 0]"] ;
336 -> 337 ;
338 [label="gini = 0.5\nsamples = 2902\nvalue = [1003, 0, 0, 0, 0, 0, 0, 0, 0, 0, 1899, 0, 0\n0, 0]"] ;
336 -> 338 ;
339 [label="tcp.ack <= -0.2\ngini = 0.1\nsamples = 197666\nvalue = [187699, 0, 0, 0, 0, 0, 0, 0, 0, 0, 9967, 0, 0\n0, 0]"] ;
331 -> 339 ;
340 [label="tcp.checksum <= 1.7\ngini = 0.5\nsamples = 15407\nvalue = [5440, 0, 0, 0, 0, 0, 0, 0, 0, 0, 9967, 0, 0\n0, 0]"] ;
339 -> 340 ;
341 [label="gini = 0.5\nsamples = 14870\nvalue = [5403, 0, 0, 0, 0, 0, 0, 0, 0, 0, 9467, 0, 0\n0, 0]"] ;
340 -> 341 ;
342 [label="gini = 0.1\nsamples = 537\nvalue = [37, 0, 0, 0, 0, 0, 0, 0, 0, 0, 500, 0, 0, 0\n0]"] ;
340 -> 342 ;
343 [label="gini = 0.0\nsamples = 182259\nvalue = [182259, 0, 0, 0, 0, 0, 0, 0, 0, 0, 0, 0, 0\n0, 0]"] ;
339 -> 343 ;
344 [label="gini = 0.0\nsamples = 398670\nvalue = [0, 0, 398670, 0, 0, 0, 0, 0, 0, 0, 0, 0, 0\n0, 0]"] ;
282 -> 344 ;
345 [label="gini = 0.0\nsamples = 399908\nvalue = [0, 0, 0, 0, 399908, 0, 0, 0, 0, 0, 0, 0, 0\n0, 0]"] ;
281 -> 345 ;
346 [label="gini = 0.0\nsamples = 399908\nvalue = [0, 0, 0, 0, 0, 0, 399908, 0, 0, 0, 0, 0, 0\n0, 0]"] ;
278 -> 346 ;
}