digraph Tree {
node [shape=box, style="rounded", color="black", fontname="helvetica"] ;
edge [fontname="helvetica"] ;
0 [label="mqtt.conack.flags_0 <= -0.4\ngini = 0.8\nsamples = 636538\nvalue = [19262, 38805, 54446, 40012, 97015, 667, 284, 200024\n40106, 15967, 7775, 40787, 29307, 40063, 12018]"] ;
1 [label="gini = 0.0\nsamples = 200024\nvalue = [0, 0, 0, 0, 0, 0, 0, 200024, 0, 0, 0, 0, 0\n0, 0]"] ;
0 -> 1 [labeldistance=2.5, labelangle=45, headlabel="True"] ;
2 [label="udp.stream <= -0.3\ngini = 0.9\nsamples = 436514\nvalue = [19262, 38805, 54446, 40012, 97015, 667, 284, 0, 40106\n15967, 7775, 40787, 29307, 40063, 12018]"] ;
0 -> 2 [labeldistance=2.5, labelangle=-45, headlabel="False"] ;
3 [label="icmp.seq_le <= -0.3\ngini = 0.9\nsamples = 339499\nvalue = [19262, 38805, 54446, 40012, 0, 667, 284, 0, 40106\n15967, 7775, 40787, 29307, 40063, 12018]"] ;
2 -> 3 ;
4 [label="http.referer_1 <= -1.0\ngini = 0.9\nsamples = 284930\nvalue = [19262, 38805, 3, 40012, 0, 541, 284, 0, 40106, 15967\n7775, 40787, 29307, 40063, 12018]"] ;
3 -> 4 ;
5 [label="tcp.seq <= -0.2\ngini = 0.6\nsamples = 90886\nvalue = [0, 38805, 0, 0, 0, 0, 0, 0, 0, 0, 0, 0, 0\n40063, 12018]"] ;
4 -> 5 ;
6 [label="http.request.version_0 <= 0.5\ngini = 0.5\nsamples = 57206\nvalue = [0, 38743, 0, 0, 0, 0, 0, 0, 0, 0, 0, 0, 0\n6475, 11988]"] ;
5 -> 6 ;
7 [label="tcp.len <= 0.1\ngini = 0.5\nsamples = 2300\nvalue = [0, 2, 0, 0, 0, 0, 0, 0, 0, 0, 0, 0, 0, 1195\n1103]"] ;
6 -> 7 ;
8 [label="tcp.ack <= -0.2\ngini = 0.0\nsamples = 1104\nvalue = [0, 0, 0, 0, 0, 0, 0, 0, 0, 0, 0, 0, 0, 2\n1102]"] ;
7 -> 8 ;
9 [label="gini = 0.0\nsamples = 1102\nvalue = [0, 0, 0, 0, 0, 0, 0, 0, 0, 0, 0, 0, 0, 0\n1102]"] ;
8 -> 9 ;
10 [label="gini = 0.0\nsamples = 2\nvalue = [0, 0, 0, 0, 0, 0, 0, 0, 0, 0, 0, 0, 0, 2\n0]"] ;
8 -> 10 ;
11 [label="http.referer_4 <= 282.1\ngini = 0.0\nsamples = 1196\nvalue = [0, 2, 0, 0, 0, 0, 0, 0, 0, 0, 0, 0, 0, 1193\n1]"] ;
7 -> 11 ;
12 [label="http.referer_2 <= 22.8\ngini = 0.0\nsamples = 1194\nvalue = [0, 0, 0, 0, 0, 0, 0, 0, 0, 0, 0, 0, 0, 1193\n1]"] ;
11 -> 12 ;
13 [label="gini = 0.0\nsamples = 1193\nvalue = [0, 0, 0, 0, 0, 0, 0, 0, 0, 0, 0, 0, 0, 1193\n0]"] ;
12 -> 13 ;
14 [label="gini = 0.0\nsamples = 1\nvalue = [0, 0, 0, 0, 0, 0, 0, 0, 0, 0, 0, 0, 0, 0\n1]"] ;
12 -> 14 ;
15 [label="gini = 0.0\nsamples = 2\nvalue = [0, 2, 0, 0, 0, 0, 0, 0, 0, 0, 0, 0, 0, 0\n0]"] ;
11 -> 15 ;
16 [label="tcp.flags <= 0.7\ngini = 0.5\nsamples = 54906\nvalue = [0, 38741, 0, 0, 0, 0, 0, 0, 0, 0, 0, 0, 0\n5280, 10885]"] ;
6 -> 16 ;
17 [label="tcp.seq <= -0.2\ngini = 0.5\nsamples = 39096\nvalue = [0, 24747, 0, 0, 0, 0, 0, 0, 0, 0, 0, 0, 0\n4398, 9951]"] ;
16 -> 17 ;
18 [label="tcp.flags <= 0.5\ngini = 0.3\nsamples = 27433\nvalue = [0, 22087, 0, 0, 0, 0, 0, 0, 0, 0, 0, 0, 0\n1585, 3761]"] ;
17 -> 18 ;
19 [label="tcp.ack_raw <= -1.0\ngini = 0.3\nsamples = 25205\nvalue = [0, 21216, 0, 0, 0, 0, 0, 0, 0, 0, 0, 0, 0\n1175, 2814]"] ;
18 -> 19 ;
20 [label="tcp.connection.rst <= 1.8\ngini = 0.2\nsamples = 11337\nvalue = [0, 9994, 0, 0, 0, 0, 0, 0, 0, 0, 0, 0, 0\n385, 958]"] ;
19 -> 20 ;
21 [label="tcp.flags <= -1.3\ngini = 0.2\nsamples = 11126\nvalue = [0, 9783, 0, 0, 0, 0, 0, 0, 0, 0, 0, 0, 0\n385, 958]"] ;
20 -> 21 ;
22 [label="arp.opcode <= 58.2\ngini = 0.7\nsamples = 8\nvalue = [0, 3, 0, 0, 0, 0, 0, 0, 0, 0, 0, 0, 0, 2\n3]"] ;
21 -> 22 ;
23 [label="gini = 0.5\nsamples = 2\nvalue = [0, 1, 0, 0, 0, 0, 0, 0, 0, 0, 0, 0, 0, 0\n1]"] ;
22 -> 23 ;
24 [label="arp.opcode <= 174.6\ngini = 0.7\nsamples = 6\nvalue = [0, 2, 0, 0, 0, 0, 0, 0, 0, 0, 0, 0, 0, 2\n2]"] ;
22 -> 24 ;
25 [label="gini = 0.7\nsamples = 3\nvalue = [0, 1, 0, 0, 0, 0, 0, 0, 0, 0, 0, 0, 0, 1\n1]"] ;
24 -> 25 ;
26 [label="gini = 0.7\nsamples = 3\nvalue = [0, 1, 0, 0, 0, 0, 0, 0, 0, 0, 0, 0, 0, 1\n1]"] ;
24 -> 26 ;
27 [label="tcp.checksum <= -0.7\ngini = 0.2\nsamples = 11118\nvalue = [0, 9780, 0, 0, 0, 0, 0, 0, 0, 0, 0, 0, 0\n383, 955]"] ;
21 -> 27 ;
28 [label="tcp.checksum <= -0.7\ngini = 0.2\nsamples = 1838\nvalue = [0, 1598, 0, 0, 0, 0, 0, 0, 0, 0, 0, 0, 0, 48\n192]"] ;
27 -> 28 ;
29 [label="tcp.checksum <= -1.1\ngini = 0.2\nsamples = 1837\nvalue = [0, 1598, 0, 0, 0, 0, 0, 0, 0, 0, 0, 0, 0, 48\n191]"] ;
28 -> 29 ;
30 [label="tcp.checksum <= -1.1\ngini = 0.4\nsamples = 30\nvalue = [0, 23, 0, 0, 0, 0, 0, 0, 0, 0, 0, 0, 0, 2\n5]"] ;
29 -> 30 ;
31 [label="tcp.checksum <= -1.1\ngini = 0.3\nsamples = 25\nvalue = [0, 21, 0, 0, 0, 0, 0, 0, 0, 0, 0, 0, 0, 2\n2]"] ;
30 -> 31 ;
32 [label="gini = 0.0\nsamples = 11\nvalue = [0, 11, 0, 0, 0, 0, 0, 0, 0, 0, 0, 0, 0, 0\n0]"] ;
31 -> 32 ;
33 [label="tcp.checksum <= -1.1\ngini = 0.4\nsamples = 14\nvalue = [0, 10, 0, 0, 0, 0, 0, 0, 0, 0, 0, 0, 0, 2\n2]"] ;
31 -> 33 ;
34 [label="gini = 0.0\nsamples = 1\nvalue = [0, 0, 0, 0, 0, 0, 0, 0, 0, 0, 0, 0, 0, 0\n1]"] ;
33 -> 34 ;
35 [label="tcp.checksum <= -1.1\ngini = 0.4\nsamples = 13\nvalue = [0, 10, 0, 0, 0, 0, 0, 0, 0, 0, 0, 0, 0, 2\n1]"] ;
33 -> 35 ;
36 [label="tcp.checksum <= -1.1\ngini = 0.5\nsamples = 9\nvalue = [0, 6, 0, 0, 0, 0, 0, 0, 0, 0, 0, 0, 0, 2\n1]"] ;
35 -> 36 ;
37 [label="gini = 0.4\nsamples = 8\nvalue = [0, 6, 0, 0, 0, 0, 0, 0, 0, 0, 0, 0, 0, 1\n1]"] ;
36 -> 37 ;
38 [label="gini = 0.0\nsamples = 1\nvalue = [0, 0, 0, 0, 0, 0, 0, 0, 0, 0, 0, 0, 0, 1\n0]"] ;
36 -> 38 ;
39 [label="gini = 0.0\nsamples = 4\nvalue = [0, 4, 0, 0, 0, 0, 0, 0, 0, 0, 0, 0, 0, 0\n0]"] ;
35 -> 39 ;
40 [label="tcp.checksum <= -1.1\ngini = 0.5\nsamples = 5\nvalue = [0, 2, 0, 0, 0, 0, 0, 0, 0, 0, 0, 0, 0, 0\n3]"] ;
30 -> 40 ;
41 [label="gini = 0.0\nsamples = 2\nvalue = [0, 0, 0, 0, 0, 0, 0, 0, 0, 0, 0, 0, 0, 0\n2]"] ;
40 -> 41 ;
42 [label="tcp.checksum <= -1.1\ngini = 0.4\nsamples = 3\nvalue = [0, 2, 0, 0, 0, 0, 0, 0, 0, 0, 0, 0, 0, 0\n1]"] ;
40 -> 42 ;
43 [label="gini = 0.0\nsamples = 2\nvalue = [0, 2, 0, 0, 0, 0, 0, 0, 0, 0, 0, 0, 0, 0\n0]"] ;
42 -> 43 ;
44 [label="gini = 0.0\nsamples = 1\nvalue = [0, 0, 0, 0, 0, 0, 0, 0, 0, 0, 0, 0, 0, 0\n1]"] ;
42 -> 44 ;
45 [label="tcp.checksum <= -1.1\ngini = 0.2\nsamples = 1807\nvalue = [0, 1575, 0, 0, 0, 0, 0, 0, 0, 0, 0, 0, 0, 46\n186]"] ;
29 -> 45 ;
46 [label="gini = 0.0\nsamples = 25\nvalue = [0, 25, 0, 0, 0, 0, 0, 0, 0, 0, 0, 0, 0, 0\n0]"] ;
45 -> 46 ;
47 [label="tcp.checksum <= -1.1\ngini = 0.2\nsamples = 1782\nvalue = [0, 1550, 0, 0, 0, 0, 0, 0, 0, 0, 0, 0, 0, 46\n186]"] ;
45 -> 47 ;
48 [label="gini = 0.5\nsamples = 2\nvalue = [0, 1, 0, 0, 0, 0, 0, 0, 0, 0, 0, 0, 0, 0\n1]"] ;
47 -> 48 ;
49 [label="tcp.checksum <= -0.7\ngini = 0.2\nsamples = 1780\nvalue = [0, 1549, 0, 0, 0, 0, 0, 0, 0, 0, 0, 0, 0, 46\n185]"] ;
47 -> 49 ;
50 [label="tcp.checksum <= -0.8\ngini = 0.2\nsamples = 1583\nvalue = [0, 1384, 0, 0, 0, 0, 0, 0, 0, 0, 0, 0, 0, 41\n158]"] ;
49 -> 50 ;
51 [label="tcp.checksum <= -0.8\ngini = 0.2\nsamples = 1206\nvalue = [0, 1043, 0, 0, 0, 0, 0, 0, 0, 0, 0, 0, 0, 32\n131]"] ;
50 -> 51 ;
52 [label="gini = 0.2\nsamples = 1203\nvalue = [0, 1042, 0, 0, 0, 0, 0, 0, 0, 0, 0, 0, 0, 32\n129]"] ;
51 -> 52 ;
53 [label="gini = 0.4\nsamples = 3\nvalue = [0, 1, 0, 0, 0, 0, 0, 0, 0, 0, 0, 0, 0, 0\n2]"] ;
51 -> 53 ;
54 [label="tcp.checksum <= -0.8\ngini = 0.2\nsamples = 377\nvalue = [0, 341, 0, 0, 0, 0, 0, 0, 0, 0, 0, 0, 0, 9\n27]"] ;
50 -> 54 ;
55 [label="gini = 0.1\nsamples = 32\nvalue = [0, 30, 0, 0, 0, 0, 0, 0, 0, 0, 0, 0, 0, 2\n0]"] ;
54 -> 55 ;
56 [label="gini = 0.2\nsamples = 345\nvalue = [0, 311, 0, 0, 0, 0, 0, 0, 0, 0, 0, 0, 0, 7\n27]"] ;
54 -> 56 ;
57 [label="tcp.checksum <= -0.7\ngini = 0.3\nsamples = 197\nvalue = [0, 165, 0, 0, 0, 0, 0, 0, 0, 0, 0, 0, 0, 5\n27]"] ;
49 -> 57 ;
58 [label="gini = 0.0\nsamples = 1\nvalue = [0, 0, 0, 0, 0, 0, 0, 0, 0, 0, 0, 0, 0, 0\n1]"] ;
57 -> 58 ;
59 [label="tcp.checksum <= -0.7\ngini = 0.3\nsamples = 196\nvalue = [0, 165, 0, 0, 0, 0, 0, 0, 0, 0, 0, 0, 0, 5\n26]"] ;
57 -> 59 ;
60 [label="gini = 0.4\nsamples = 39\nvalue = [0, 30, 0, 0, 0, 0, 0, 0, 0, 0, 0, 0, 0, 1\n8]"] ;
59 -> 60 ;
61 [label="gini = 0.2\nsamples = 157\nvalue = [0, 135, 0, 0, 0, 0, 0, 0, 0, 0, 0, 0, 0, 4\n18]"] ;
59 -> 61 ;
62 [label="gini = 0.0\nsamples = 1\nvalue = [0, 0, 0, 0, 0, 0, 0, 0, 0, 0, 0, 0, 0, 0\n1]"] ;
28 -> 62 ;
63 [label="tcp.checksum <= 1.7\ngini = 0.2\nsamples = 9280\nvalue = [0, 8182, 0, 0, 0, 0, 0, 0, 0, 0, 0, 0, 0\n335, 763]"] ;
27 -> 63 ;
64 [label="tcp.checksum <= 1.7\ngini = 0.2\nsamples = 8810\nvalue = [0, 7755, 0, 0, 0, 0, 0, 0, 0, 0, 0, 0, 0\n322, 733]"] ;
63 -> 64 ;
65 [label="tcp.checksum <= 1.7\ngini = 0.2\nsamples = 8808\nvalue = [0, 7755, 0, 0, 0, 0, 0, 0, 0, 0, 0, 0, 0\n321, 732]"] ;
64 -> 65 ;
66 [label="tcp.ack <= -0.2\ngini = 0.2\nsamples = 8792\nvalue = [0, 7743, 0, 0, 0, 0, 0, 0, 0, 0, 0, 0, 0\n321, 728]"] ;
65 -> 66 ;
67 [label="tcp.flags <= -0.4\ngini = 0.2\nsamples = 8771\nvalue = [0, 7722, 0, 0, 0, 0, 0, 0, 0, 0, 0, 0, 0\n321, 728]"] ;
66 -> 67 ;
68 [label="tcp.checksum <= 1.7\ngini = 0.2\nsamples = 8762\nvalue = [0, 7717, 0, 0, 0, 0, 0, 0, 0, 0, 0, 0, 0\n321, 724]"] ;
67 -> 68 ;
69 [label="tcp.checksum <= 1.7\ngini = 0.2\nsamples = 8718\nvalue = [0, 7675, 0, 0, 0, 0, 0, 0, 0, 0, 0, 0, 0\n320, 723]"] ;
68 -> 69 ;
70 [label="gini = 0.2\nsamples = 8717\nvalue = [0, 7675, 0, 0, 0, 0, 0, 0, 0, 0, 0, 0, 0\n320, 722]"] ;
69 -> 70 ;
71 [label="gini = 0.0\nsamples = 1\nvalue = [0, 0, 0, 0, 0, 0, 0, 0, 0, 0, 0, 0, 0, 0\n1]"] ;
69 -> 71 ;
72 [label="tcp.checksum <= 1.7\ngini = 0.1\nsamples = 44\nvalue = [0, 42, 0, 0, 0, 0, 0, 0, 0, 0, 0, 0, 0, 1\n1]"] ;
68 -> 72 ;
73 [label="gini = 0.2\nsamples = 12\nvalue = [0, 11, 0, 0, 0, 0, 0, 0, 0, 0, 0, 0, 0, 1\n0]"] ;
72 -> 73 ;
74 [label="gini = 0.1\nsamples = 32\nvalue = [0, 31, 0, 0, 0, 0, 0, 0, 0, 0, 0, 0, 0, 0\n1]"] ;
72 -> 74 ;
75 [label="tcp.ack_raw <= -1.0\ngini = 0.5\nsamples = 9\nvalue = [0, 5, 0, 0, 0, 0, 0, 0, 0, 0, 0, 0, 0, 0\n4]"] ;
67 -> 75 ;
76 [label="gini = 0.0\nsamples = 2\nvalue = [0, 0, 0, 0, 0, 0, 0, 0, 0, 0, 0, 0, 0, 0\n2]"] ;
75 -> 76 ;
77 [label="tcp.ack_raw <= -1.0\ngini = 0.4\nsamples = 7\nvalue = [0, 5, 0, 0, 0, 0, 0, 0, 0, 0, 0, 0, 0, 0\n2]"] ;
75 -> 77 ;
78 [label="gini = 0.5\nsamples = 5\nvalue = [0, 3, 0, 0, 0, 0, 0, 0, 0, 0, 0, 0, 0, 0\n2]"] ;
77 -> 78 ;
79 [label="gini = 0.0\nsamples = 2\nvalue = [0, 2, 0, 0, 0, 0, 0, 0, 0, 0, 0, 0, 0, 0\n0]"] ;
77 -> 79 ;
80 [label="gini = 0.0\nsamples = 21\nvalue = [0, 21, 0, 0, 0, 0, 0, 0, 0, 0, 0, 0, 0, 0\n0]"] ;
66 -> 80 ;
81 [label="tcp.checksum <= 1.7\ngini = 0.4\nsamples = 16\nvalue = [0, 12, 0, 0, 0, 0, 0, 0, 0, 0, 0, 0, 0, 0\n4]"] ;
65 -> 81 ;
82 [label="tcp.checksum <= 1.7\ngini = 0.4\nsamples = 4\nvalue = [0, 1, 0, 0, 0, 0, 0, 0, 0, 0, 0, 0, 0, 0\n3]"] ;
81 -> 82 ;
83 [label="tcp.checksum <= 1.7\ngini = 0.5\nsamples = 2\nvalue = [0, 1, 0, 0, 0, 0, 0, 0, 0, 0, 0, 0, 0, 0\n1]"] ;
82 -> 83 ;
84 [label="gini = 0.0\nsamples = 1\nvalue = [0, 0, 0, 0, 0, 0, 0, 0, 0, 0, 0, 0, 0, 0\n1]"] ;
83 -> 84 ;
85 [label="gini = 0.0\nsamples = 1\nvalue = [0, 1, 0, 0, 0, 0, 0, 0, 0, 0, 0, 0, 0, 0\n0]"] ;
83 -> 85 ;
86 [label="gini = 0.0\nsamples = 2\nvalue = [0, 0, 0, 0, 0, 0, 0, 0, 0, 0, 0, 0, 0, 0\n2]"] ;
82 -> 86 ;
87 [label="tcp.checksum <= 1.7\ngini = 0.2\nsamples = 12\nvalue = [0, 11, 0, 0, 0, 0, 0, 0, 0, 0, 0, 0, 0, 0\n1]"] ;
81 -> 87 ;
88 [label="tcp.checksum <= 1.7\ngini = 0.4\nsamples = 3\nvalue = [0, 2, 0, 0, 0, 0, 0, 0, 0, 0, 0, 0, 0, 0\n1]"] ;
87 -> 88 ;
89 [label="gini = 0.0\nsamples = 2\nvalue = [0, 2, 0, 0, 0, 0, 0, 0, 0, 0, 0, 0, 0, 0\n0]"] ;
88 -> 89 ;
90 [label="gini = 0.0\nsamples = 1\nvalue = [0, 0, 0, 0, 0, 0, 0, 0, 0, 0, 0, 0, 0, 0\n1]"] ;
88 -> 90 ;
91 [label="gini = 0.0\nsamples = 9\nvalue = [0, 9, 0, 0, 0, 0, 0, 0, 0, 0, 0, 0, 0, 0\n0]"] ;
87 -> 91 ;
92 [label="tcp.checksum <= 1.7\ngini = 0.5\nsamples = 2\nvalue = [0, 0, 0, 0, 0, 0, 0, 0, 0, 0, 0, 0, 0, 1\n1]"] ;
64 -> 92 ;
93 [label="gini = 0.0\nsamples = 1\nvalue = [0, 0, 0, 0, 0, 0, 0, 0, 0, 0, 0, 0, 0, 0\n1]"] ;
92 -> 93 ;
94 [label="gini = 0.0\nsamples = 1\nvalue = [0, 0, 0, 0, 0, 0, 0, 0, 0, 0, 0, 0, 0, 1\n0]"] ;
92 -> 94 ;
95 [label="tcp.checksum <= 1.8\ngini = 0.2\nsamples = 470\nvalue = [0, 427, 0, 0, 0, 0, 0, 0, 0, 0, 0, 0, 0, 13\n30]"] ;
63 -> 95 ;
96 [label="tcp.checksum <= 1.8\ngini = 0.1\nsamples = 105\nvalue = [0, 101, 0, 0, 0, 0, 0, 0, 0, 0, 0, 0, 0, 0\n4]"] ;
95 -> 96 ;
97 [label="tcp.checksum <= 1.8\ngini = 0.1\nsamples = 61\nvalue = [0, 57, 0, 0, 0, 0, 0, 0, 0, 0, 0, 0, 0, 0\n4]"] ;
96 -> 97 ;
98 [label="tcp.checksum <= 1.8\ngini = 0.1\nsamples = 59\nvalue = [0, 56, 0, 0, 0, 0, 0, 0, 0, 0, 0, 0, 0, 0\n3]"] ;
97 -> 98 ;
99 [label="tcp.checksum <= 1.8\ngini = 0.0\nsamples = 42\nvalue = [0, 41, 0, 0, 0, 0, 0, 0, 0, 0, 0, 0, 0, 0\n1]"] ;
98 -> 99 ;
100 [label="tcp.checksum <= 1.8\ngini = 0.1\nsamples = 14\nvalue = [0, 13, 0, 0, 0, 0, 0, 0, 0, 0, 0, 0, 0, 0\n1]"] ;
99 -> 100 ;
101 [label="gini = 0.0\nsamples = 13\nvalue = [0, 13, 0, 0, 0, 0, 0, 0, 0, 0, 0, 0, 0, 0\n0]"] ;
100 -> 101 ;
102 [label="gini = 0.0\nsamples = 1\nvalue = [0, 0, 0, 0, 0, 0, 0, 0, 0, 0, 0, 0, 0, 0\n1]"] ;
100 -> 102 ;
103 [label="gini = 0.0\nsamples = 28\nvalue = [0, 28, 0, 0, 0, 0, 0, 0, 0, 0, 0, 0, 0, 0\n0]"] ;
99 -> 103 ;
104 [label="tcp.checksum <= 1.8\ngini = 0.2\nsamples = 17\nvalue = [0, 15, 0, 0, 0, 0, 0, 0, 0, 0, 0, 0, 0, 0\n2]"] ;
98 -> 104 ;
105 [label="gini = 0.0\nsamples = 2\nvalue = [0, 0, 0, 0, 0, 0, 0, 0, 0, 0, 0, 0, 0, 0\n2]"] ;
104 -> 105 ;
106 [label="gini = 0.0\nsamples = 15\nvalue = [0, 15, 0, 0, 0, 0, 0, 0, 0, 0, 0, 0, 0, 0\n0]"] ;
104 -> 106 ;
107 [label="gini = 0.5\nsamples = 2\nvalue = [0, 1, 0, 0, 0, 0, 0, 0, 0, 0, 0, 0, 0, 0\n1]"] ;
97 -> 107 ;
108 [label="gini = 0.0\nsamples = 44\nvalue = [0, 44, 0, 0, 0, 0, 0, 0, 0, 0, 0, 0, 0, 0\n0]"] ;
96 -> 108 ;
109 [label="tcp.checksum <= 1.8\ngini = 0.2\nsamples = 365\nvalue = [0, 326, 0, 0, 0, 0, 0, 0, 0, 0, 0, 0, 0, 13\n26]"] ;
95 -> 109 ;
110 [label="gini = 0.0\nsamples = 1\nvalue = [0, 0, 0, 0, 0, 0, 0, 0, 0, 0, 0, 0, 0, 0\n1]"] ;
109 -> 110 ;
111 [label="tcp.checksum <= 1.9\ngini = 0.2\nsamples = 364\nvalue = [0, 326, 0, 0, 0, 0, 0, 0, 0, 0, 0, 0, 0, 13\n25]"] ;
109 -> 111 ;
112 [label="tcp.checksum <= 1.9\ngini = 0.2\nsamples = 316\nvalue = [0, 280, 0, 0, 0, 0, 0, 0, 0, 0, 0, 0, 0, 13\n23]"] ;
111 -> 112 ;
113 [label="tcp.checksum <= 1.8\ngini = 0.2\nsamples = 314\nvalue = [0, 280, 0, 0, 0, 0, 0, 0, 0, 0, 0, 0, 0, 11\n23]"] ;
112 -> 113 ;
114 [label="tcp.checksum <= 1.8\ngini = 0.2\nsamples = 123\nvalue = [0, 106, 0, 0, 0, 0, 0, 0, 0, 0, 0, 0, 0, 6\n11]"] ;
113 -> 114 ;
115 [label="gini = 0.2\nsamples = 116\nvalue = [0, 102, 0, 0, 0, 0, 0, 0, 0, 0, 0, 0, 0, 5\n9]"] ;
114 -> 115 ;
116 [label="gini = 0.6\nsamples = 7\nvalue = [0, 4, 0, 0, 0, 0, 0, 0, 0, 0, 0, 0, 0, 1\n2]"] ;
114 -> 116 ;
117 [label="tcp.checksum <= 1.8\ngini = 0.2\nsamples = 191\nvalue = [0, 174, 0, 0, 0, 0, 0, 0, 0, 0, 0, 0, 0, 5\n12]"] ;
113 -> 117 ;
118 [label="gini = 0.1\nsamples = 99\nvalue = [0, 93, 0, 0, 0, 0, 0, 0, 0, 0, 0, 0, 0, 2\n4]"] ;
117 -> 118 ;
119 [label="gini = 0.2\nsamples = 92\nvalue = [0, 81, 0, 0, 0, 0, 0, 0, 0, 0, 0, 0, 0, 3\n8]"] ;
117 -> 119 ;
120 [label="gini = 0.0\nsamples = 2\nvalue = [0, 0, 0, 0, 0, 0, 0, 0, 0, 0, 0, 0, 0, 2\n0]"] ;
112 -> 120 ;
121 [label="tcp.checksum <= 1.9\ngini = 0.1\nsamples = 48\nvalue = [0, 46, 0, 0, 0, 0, 0, 0, 0, 0, 0, 0, 0, 0\n2]"] ;
111 -> 121 ;
122 [label="gini = 0.0\nsamples = 23\nvalue = [0, 23, 0, 0, 0, 0, 0, 0, 0, 0, 0, 0, 0, 0\n0]"] ;
121 -> 122 ;
123 [label="tcp.checksum <= 1.9\ngini = 0.1\nsamples = 25\nvalue = [0, 23, 0, 0, 0, 0, 0, 0, 0, 0, 0, 0, 0, 0\n2]"] ;
121 -> 123 ;
124 [label="gini = 0.0\nsamples = 1\nvalue = [0, 0, 0, 0, 0, 0, 0, 0, 0, 0, 0, 0, 0, 0\n1]"] ;
123 -> 124 ;
125 [label="tcp.checksum <= 1.9\ngini = 0.1\nsamples = 24\nvalue = [0, 23, 0, 0, 0, 0, 0, 0, 0, 0, 0, 0, 0, 0\n1]"] ;
123 -> 125 ;
126 [label="gini = 0.0\nsamples = 13\nvalue = [0, 13, 0, 0, 0, 0, 0, 0, 0, 0, 0, 0, 0, 0\n0]"] ;
125 -> 126 ;
127 [label="gini = 0.2\nsamples = 11\nvalue = [0, 10, 0, 0, 0, 0, 0, 0, 0, 0, 0, 0, 0, 0\n1]"] ;
125 -> 127 ;
128 [label="gini = 0.0\nsamples = 211\nvalue = [0, 211, 0, 0, 0, 0, 0, 0, 0, 0, 0, 0, 0, 0\n0]"] ;
20 -> 128 ;
129 [label="tcp.ack_raw <= -1.0\ngini = 0.3\nsamples = 13868\nvalue = [0, 11222, 0, 0, 0, 0, 0, 0, 0, 0, 0, 0, 0\n790, 1856]"] ;
19 -> 129 ;
130 [label="tcp.ack <= -0.2\ngini = 0.5\nsamples = 8\nvalue = [0, 0, 0, 0, 0, 0, 0, 0, 0, 0, 0, 0, 0, 4\n4]"] ;
129 -> 130 ;
131 [label="tcp.ack <= -0.2\ngini = 0.3\nsamples = 5\nvalue = [0, 0, 0, 0, 0, 0, 0, 0, 0, 0, 0, 0, 0, 1\n4]"] ;
130 -> 131 ;
132 [label="gini = 0.0\nsamples = 1\nvalue = [0, 0, 0, 0, 0, 0, 0, 0, 0, 0, 0, 0, 0, 1\n0]"] ;
131 -> 132 ;
133 [label="gini = 0.0\nsamples = 4\nvalue = [0, 0, 0, 0, 0, 0, 0, 0, 0, 0, 0, 0, 0, 0\n4]"] ;
131 -> 133 ;
134 [label="gini = 0.0\nsamples = 3\nvalue = [0, 0, 0, 0, 0, 0, 0, 0, 0, 0, 0, 0, 0, 3\n0]"] ;
130 -> 134 ;
135 [label="tcp.checksum <= -1.2\ngini = 0.3\nsamples = 13860\nvalue = [0, 11222, 0, 0, 0, 0, 0, 0, 0, 0, 0, 0, 0\n786, 1852]"] ;
129 -> 135 ;
136 [label="tcp.ack <= -0.2\ngini = 0.4\nsamples = 4\nvalue = [0, 1, 0, 0, 0, 0, 0, 0, 0, 0, 0, 0, 0, 0\n3]"] ;
135 -> 136 ;
137 [label="gini = 0.0\nsamples = 3\nvalue = [0, 0, 0, 0, 0, 0, 0, 0, 0, 0, 0, 0, 0, 0\n3]"] ;
136 -> 137 ;
138 [label="gini = 0.0\nsamples = 1\nvalue = [0, 1, 0, 0, 0, 0, 0, 0, 0, 0, 0, 0, 0, 0\n0]"] ;
136 -> 138 ;
139 [label="tcp.ack_raw <= 2.0\ngini = 0.3\nsamples = 13856\nvalue = [0, 11221, 0, 0, 0, 0, 0, 0, 0, 0, 0, 0, 0\n786, 1849]"] ;
135 -> 139 ;
140 [label="tcp.ack_raw <= 1.4\ngini = 0.3\nsamples = 13070\nvalue = [0, 10615, 0, 0, 0, 0, 0, 0, 0, 0, 0, 0, 0\n738, 1717]"] ;
139 -> 140 ;
141 [label="tcp.ack_raw <= 1.4\ngini = 0.3\nsamples = 10475\nvalue = [0, 8456, 0, 0, 0, 0, 0, 0, 0, 0, 0, 0, 0\n606, 1413]"] ;
140 -> 141 ;
142 [label="tcp.ack_raw <= -0.6\ngini = 0.3\nsamples = 10473\nvalue = [0, 8456, 0, 0, 0, 0, 0, 0, 0, 0, 0, 0, 0\n606, 1411]"] ;
141 -> 142 ;
143 [label="tcp.checksum <= 1.9\ngini = 0.3\nsamples = 1735\nvalue = [0, 1450, 0, 0, 0, 0, 0, 0, 0, 0, 0, 0, 0, 85\n200]"] ;
142 -> 143 ;
144 [label="tcp.ack_raw <= -0.8\ngini = 0.3\nsamples = 1734\nvalue = [0, 1450, 0, 0, 0, 0, 0, 0, 0, 0, 0, 0, 0, 85\n199]"] ;
143 -> 144 ;
145 [label="tcp.ack_raw <= -0.8\ngini = 0.3\nsamples = 1019\nvalue = [0, 835, 0, 0, 0, 0, 0, 0, 0, 0, 0, 0, 0, 55\n129]"] ;
144 -> 145 ;
146 [label="tcp.checksum <= -1.1\ngini = 0.3\nsamples = 997\nvalue = [0, 827, 0, 0, 0, 0, 0, 0, 0, 0, 0, 0, 0, 52\n118]"] ;
145 -> 146 ;
147 [label="gini = 0.4\nsamples = 23\nvalue = [0, 16, 0, 0, 0, 0, 0, 0, 0, 0, 0, 0, 0, 0\n7]"] ;
146 -> 147 ;
148 [label="gini = 0.3\nsamples = 974\nvalue = [0, 811, 0, 0, 0, 0, 0, 0, 0, 0, 0, 0, 0, 52\n111]"] ;
146 -> 148 ;
149 [label="tcp.ack <= -0.2\ngini = 0.6\nsamples = 22\nvalue = [0, 8, 0, 0, 0, 0, 0, 0, 0, 0, 0, 0, 0, 3\n11]"] ;
145 -> 149 ;
150 [label="gini = 0.3\nsamples = 13\nvalue = [0, 1, 0, 0, 0, 0, 0, 0, 0, 0, 0, 0, 0, 1\n11]"] ;
149 -> 150 ;
151 [label="gini = 0.3\nsamples = 9\nvalue = [0, 7, 0, 0, 0, 0, 0, 0, 0, 0, 0, 0, 0, 2\n0]"] ;
149 -> 151 ;
152 [label="tcp.ack_raw <= -0.8\ngini = 0.2\nsamples = 715\nvalue = [0, 615, 0, 0, 0, 0, 0, 0, 0, 0, 0, 0, 0, 30\n70]"] ;
144 -> 152 ;
153 [label="tcp.ack <= -0.2\ngini = 0.1\nsamples = 78\nvalue = [0, 75, 0, 0, 0, 0, 0, 0, 0, 0, 0, 0, 0, 1\n2]"] ;
152 -> 153 ;
154 [label="gini = 0.5\nsamples = 8\nvalue = [0, 5, 0, 0, 0, 0, 0, 0, 0, 0, 0, 0, 0, 1\n2]"] ;
153 -> 154 ;
155 [label="gini = 0.0\nsamples = 70\nvalue = [0, 70, 0, 0, 0, 0, 0, 0, 0, 0, 0, 0, 0, 0\n0]"] ;
153 -> 155 ;
156 [label="tcp.ack_raw <= -0.8\ngini = 0.3\nsamples = 637\nvalue = [0, 540, 0, 0, 0, 0, 0, 0, 0, 0, 0, 0, 0, 29\n68]"] ;
152 -> 156 ;
157 [label="gini = 0.0\nsamples = 2\nvalue = [0, 0, 0, 0, 0, 0, 0, 0, 0, 0, 0, 0, 0, 0\n2]"] ;
156 -> 157 ;
158 [label="gini = 0.3\nsamples = 635\nvalue = [0, 540, 0, 0, 0, 0, 0, 0, 0, 0, 0, 0, 0, 29\n66]"] ;
156 -> 158 ;
159 [label="gini = 0.0\nsamples = 1\nvalue = [0, 0, 0, 0, 0, 0, 0, 0, 0, 0, 0, 0, 0, 0\n1]"] ;
143 -> 159 ;
160 [label="tcp.ack_raw <= -0.6\ngini = 0.3\nsamples = 8738\nvalue = [0, 7006, 0, 0, 0, 0, 0, 0, 0, 0, 0, 0, 0\n521, 1211]"] ;
142 -> 160 ;
161 [label="gini = 0.0\nsamples = 3\nvalue = [0, 0, 0, 0, 0, 0, 0, 0, 0, 0, 0, 0, 0, 0\n3]"] ;
160 -> 161 ;
162 [label="tcp.len <= 1.1\ngini = 0.3\nsamples = 8735\nvalue = [0, 7006, 0, 0, 0, 0, 0, 0, 0, 0, 0, 0, 0\n521, 1208]"] ;
160 -> 162 ;
163 [label="tcp.ack_raw <= 0.3\ngini = 0.3\nsamples = 8733\nvalue = [0, 7006, 0, 0, 0, 0, 0, 0, 0, 0, 0, 0, 0\n519, 1208]"] ;
162 -> 163 ;
164 [label="tcp.ack_raw <= 0.3\ngini = 0.4\nsamples = 3693\nvalue = [0, 2900, 0, 0, 0, 0, 0, 0, 0, 0, 0, 0, 0\n247, 546]"] ;
163 -> 164 ;
165 [label="gini = 0.4\nsamples = 3691\nvalue = [0, 2900, 0, 0, 0, 0, 0, 0, 0, 0, 0, 0, 0\n247, 544]"] ;
164 -> 165 ;
166 [label="gini = 0.0\nsamples = 2\nvalue = [0, 0, 0, 0, 0, 0, 0, 0, 0, 0, 0, 0, 0, 0\n2]"] ;
164 -> 166 ;
167 [label="tcp.checksum <= -0.8\ngini = 0.3\nsamples = 5040\nvalue = [0, 4106, 0, 0, 0, 0, 0, 0, 0, 0, 0, 0, 0\n272, 662]"] ;
163 -> 167 ;
168 [label="gini = 0.4\nsamples = 515\nvalue = [0, 396, 0, 0, 0, 0, 0, 0, 0, 0, 0, 0, 0, 26\n93]"] ;
167 -> 168 ;
169 [label="gini = 0.3\nsamples = 4525\nvalue = [0, 3710, 0, 0, 0, 0, 0, 0, 0, 0, 0, 0, 0\n246, 569]"] ;
167 -> 169 ;
170 [label="gini = 0.0\nsamples = 2\nvalue = [0, 0, 0, 0, 0, 0, 0, 0, 0, 0, 0, 0, 0, 2\n0]"] ;
162 -> 170 ;
171 [label="gini = 0.0\nsamples = 2\nvalue = [0, 0, 0, 0, 0, 0, 0, 0, 0, 0, 0, 0, 0, 0\n2]"] ;
141 -> 171 ;
172 [label="tcp.ack_raw <= 1.4\ngini = 0.3\nsamples = 2595\nvalue = [0, 2159, 0, 0, 0, 0, 0, 0, 0, 0, 0, 0, 0\n132, 304]"] ;
140 -> 172 ;
173 [label="tcp.ack <= -0.2\ngini = 0.2\nsamples = 135\nvalue = [0, 122, 0, 0, 0, 0, 0, 0, 0, 0, 0, 0, 0, 3\n10]"] ;
172 -> 173 ;
174 [label="tcp.checksum <= 0.4\ngini = 0.5\nsamples = 20\nvalue = [0, 9, 0, 0, 0, 0, 0, 0, 0, 0, 0, 0, 0, 1\n10]"] ;
173 -> 174 ;
175 [label="tcp.ack_raw <= 1.4\ngini = 0.5\nsamples = 10\nvalue = [0, 2, 0, 0, 0, 0, 0, 0, 0, 0, 0, 0, 0, 1\n7]"] ;
174 -> 175 ;
176 [label="gini = 0.0\nsamples = 2\nvalue = [0, 2, 0, 0, 0, 0, 0, 0, 0, 0, 0, 0, 0, 0\n0]"] ;
175 -> 176 ;
177 [label="tcp.ack_raw <= 1.4\ngini = 0.2\nsamples = 8\nvalue = [0, 0, 0, 0, 0, 0, 0, 0, 0, 0, 0, 0, 0, 1\n7]"] ;
175 -> 177 ;
178 [label="gini = 0.0\nsamples = 5\nvalue = [0, 0, 0, 0, 0, 0, 0, 0, 0, 0, 0, 0, 0, 0\n5]"] ;
177 -> 178 ;
179 [label="tcp.ack_raw <= 1.4\ngini = 0.4\nsamples = 3\nvalue = [0, 0, 0, 0, 0, 0, 0, 0, 0, 0, 0, 0, 0, 1\n2]"] ;
177 -> 179 ;
180 [label="gini = 0.0\nsamples = 1\nvalue = [0, 0, 0, 0, 0, 0, 0, 0, 0, 0, 0, 0, 0, 1\n0]"] ;
179 -> 180 ;
181 [label="gini = 0.0\nsamples = 2\nvalue = [0, 0, 0, 0, 0, 0, 0, 0, 0, 0, 0, 0, 0, 0\n2]"] ;
179 -> 181 ;
182 [label="tcp.checksum <= 1.3\ngini = 0.4\nsamples = 10\nvalue = [0, 7, 0, 0, 0, 0, 0, 0, 0, 0, 0, 0, 0, 0\n3]"] ;
174 -> 182 ;
183 [label="tcp.ack <= -0.2\ngini = 0.2\nsamples = 7\nvalue = [0, 6, 0, 0, 0, 0, 0, 0, 0, 0, 0, 0, 0, 0\n1]"] ;
182 -> 183 ;
184 [label="tcp.checksum <= 0.7\ngini = 0.4\nsamples = 4\nvalue = [0, 3, 0, 0, 0, 0, 0, 0, 0, 0, 0, 0, 0, 0\n1]"] ;
183 -> 184 ;
185 [label="gini = 0.0\nsamples = 3\nvalue = [0, 3, 0, 0, 0, 0, 0, 0, 0, 0, 0, 0, 0, 0\n0]"] ;
184 -> 185 ;
186 [label="gini = 0.0\nsamples = 1\nvalue = [0, 0, 0, 0, 0, 0, 0, 0, 0, 0, 0, 0, 0, 0\n1]"] ;
184 -> 186 ;
187 [label="gini = 0.0\nsamples = 3\nvalue = [0, 3, 0, 0, 0, 0, 0, 0, 0, 0, 0, 0, 0, 0\n0]"] ;
183 -> 187 ;
188 [label="tcp.checksum <= 1.6\ngini = 0.4\nsamples = 3\nvalue = [0, 1, 0, 0, 0, 0, 0, 0, 0, 0, 0, 0, 0, 0\n2]"] ;
182 -> 188 ;
189 [label="gini = 0.0\nsamples = 1\nvalue = [0, 0, 0, 0, 0, 0, 0, 0, 0, 0, 0, 0, 0, 0\n1]"] ;
188 -> 189 ;
190 [label="tcp.ack_raw <= 1.4\ngini = 0.5\nsamples = 2\nvalue = [0, 1, 0, 0, 0, 0, 0, 0, 0, 0, 0, 0, 0, 0\n1]"] ;
188 -> 190 ;
191 [label="gini = 0.0\nsamples = 1\nvalue = [0, 1, 0, 0, 0, 0, 0, 0, 0, 0, 0, 0, 0, 0\n0]"] ;
190 -> 191 ;
192 [label="gini = 0.0\nsamples = 1\nvalue = [0, 0, 0, 0, 0, 0, 0, 0, 0, 0, 0, 0, 0, 0\n1]"] ;
190 -> 192 ;
193 [label="tcp.ack_raw <= 1.4\ngini = 0.0\nsamples = 115\nvalue = [0, 113, 0, 0, 0, 0, 0, 0, 0, 0, 0, 0, 0, 2\n0]"] ;
173 -> 193 ;
194 [label="tcp.ack_raw <= 1.4\ngini = 0.2\nsamples = 12\nvalue = [0, 11, 0, 0, 0, 0, 0, 0, 0, 0, 0, 0, 0, 1\n0]"] ;
193 -> 194 ;
195 [label="gini = 0.0\nsamples = 11\nvalue = [0, 11, 0, 0, 0, 0, 0, 0, 0, 0, 0, 0, 0, 0\n0]"] ;
194 -> 195 ;
196 [label="gini = 0.0\nsamples = 1\nvalue = [0, 0, 0, 0, 0, 0, 0, 0, 0, 0, 0, 0, 0, 1\n0]"] ;
194 -> 196 ;
197 [label="tcp.ack <= -0.2\ngini = 0.0\nsamples = 103\nvalue = [0, 102, 0, 0, 0, 0, 0, 0, 0, 0, 0, 0, 0, 1\n0]"] ;
193 -> 197 ;
198 [label="tcp.checksum <= 0.4\ngini = 0.1\nsamples = 19\nvalue = [0, 18, 0, 0, 0, 0, 0, 0, 0, 0, 0, 0, 0, 1\n0]"] ;
197 -> 198 ;
199 [label="gini = 0.0\nsamples = 13\nvalue = [0, 13, 0, 0, 0, 0, 0, 0, 0, 0, 0, 0, 0, 0\n0]"] ;
198 -> 199 ;
200 [label="tcp.checksum <= 0.7\ngini = 0.3\nsamples = 6\nvalue = [0, 5, 0, 0, 0, 0, 0, 0, 0, 0, 0, 0, 0, 1\n0]"] ;
198 -> 200 ;
201 [label="gini = 0.0\nsamples = 1\nvalue = [0, 0, 0, 0, 0, 0, 0, 0, 0, 0, 0, 0, 0, 1\n0]"] ;
200 -> 201 ;
202 [label="gini = 0.0\nsamples = 5\nvalue = [0, 5, 0, 0, 0, 0, 0, 0, 0, 0, 0, 0, 0, 0\n0]"] ;
200 -> 202 ;
203 [label="gini = 0.0\nsamples = 84\nvalue = [0, 84, 0, 0, 0, 0, 0, 0, 0, 0, 0, 0, 0, 0\n0]"] ;
197 -> 203 ;
204 [label="tcp.ack_raw <= 1.4\ngini = 0.3\nsamples = 2460\nvalue = [0, 2037, 0, 0, 0, 0, 0, 0, 0, 0, 0, 0, 0\n129, 294]"] ;
172 -> 204 ;
205 [label="tcp.checksum <= -0.7\ngini = 0.4\nsamples = 4\nvalue = [0, 1, 0, 0, 0, 0, 0, 0, 0, 0, 0, 0, 0, 0\n3]"] ;
204 -> 205 ;
206 [label="gini = 0.0\nsamples = 1\nvalue = [0, 1, 0, 0, 0, 0, 0, 0, 0, 0, 0, 0, 0, 0\n0]"] ;
205 -> 206 ;
207 [label="gini = 0.0\nsamples = 3\nvalue = [0, 0, 0, 0, 0, 0, 0, 0, 0, 0, 0, 0, 0, 0\n3]"] ;
205 -> 207 ;
208 [label="tcp.ack_raw <= 2.0\ngini = 0.3\nsamples = 2456\nvalue = [0, 2036, 0, 0, 0, 0, 0, 0, 0, 0, 0, 0, 0\n129, 291]"] ;
204 -> 208 ;
209 [label="tcp.ack_raw <= 2.0\ngini = 0.3\nsamples = 2341\nvalue = [0, 1932, 0, 0, 0, 0, 0, 0, 0, 0, 0, 0, 0\n126, 283]"] ;
208 -> 209 ;
210 [label="tcp.ack_raw <= 1.6\ngini = 0.3\nsamples = 2337\nvalue = [0, 1931, 0, 0, 0, 0, 0, 0, 0, 0, 0, 0, 0\n123, 283]"] ;
209 -> 210 ;
211 [label="tcp.checksum <= 1.7\ngini = 0.3\nsamples = 688\nvalue = [0, 584, 0, 0, 0, 0, 0, 0, 0, 0, 0, 0, 0, 36\n68]"] ;
210 -> 211 ;
212 [label="gini = 0.3\nsamples = 644\nvalue = [0, 553, 0, 0, 0, 0, 0, 0, 0, 0, 0, 0, 0, 32\n59]"] ;
211 -> 212 ;
213 [label="gini = 0.5\nsamples = 44\nvalue = [0, 31, 0, 0, 0, 0, 0, 0, 0, 0, 0, 0, 0, 4\n9]"] ;
211 -> 213 ;
214 [label="tcp.ack_raw <= 1.6\ngini = 0.3\nsamples = 1649\nvalue = [0, 1347, 0, 0, 0, 0, 0, 0, 0, 0, 0, 0, 0, 87\n215]"] ;
210 -> 214 ;
215 [label="gini = 0.4\nsamples = 9\nvalue = [0, 1, 0, 0, 0, 0, 0, 0, 0, 0, 0, 0, 0, 1\n7]"] ;
214 -> 215 ;
216 [label="gini = 0.3\nsamples = 1640\nvalue = [0, 1346, 0, 0, 0, 0, 0, 0, 0, 0, 0, 0, 0, 86\n208]"] ;
214 -> 216 ;
217 [label="tcp.checksum <= -0.3\ngini = 0.4\nsamples = 4\nvalue = [0, 1, 0, 0, 0, 0, 0, 0, 0, 0, 0, 0, 0, 3\n0]"] ;
209 -> 217 ;
218 [label="gini = 0.0\nsamples = 1\nvalue = [0, 1, 0, 0, 0, 0, 0, 0, 0, 0, 0, 0, 0, 0\n0]"] ;
217 -> 218 ;
219 [label="gini = 0.0\nsamples = 3\nvalue = [0, 0, 0, 0, 0, 0, 0, 0, 0, 0, 0, 0, 0, 3\n0]"] ;
217 -> 219 ;
220 [label="tcp.ack <= -0.2\ngini = 0.2\nsamples = 115\nvalue = [0, 104, 0, 0, 0, 0, 0, 0, 0, 0, 0, 0, 0, 3\n8]"] ;
208 -> 220 ;
221 [label="tcp.ack_raw <= 2.0\ngini = 0.5\nsamples = 26\nvalue = [0, 16, 0, 0, 0, 0, 0, 0, 0, 0, 0, 0, 0, 2\n8]"] ;
220 -> 221 ;
222 [label="tcp.checksum <= 1.5\ngini = 0.5\nsamples = 2\nvalue = [0, 0, 0, 0, 0, 0, 0, 0, 0, 0, 0, 0, 0, 1\n1]"] ;
221 -> 222 ;
223 [label="gini = 0.0\nsamples = 1\nvalue = [0, 0, 0, 0, 0, 0, 0, 0, 0, 0, 0, 0, 0, 0\n1]"] ;
222 -> 223 ;
224 [label="gini = 0.0\nsamples = 1\nvalue = [0, 0, 0, 0, 0, 0, 0, 0, 0, 0, 0, 0, 0, 1\n0]"] ;
222 -> 224 ;
225 [label="tcp.ack_raw <= 2.0\ngini = 0.5\nsamples = 24\nvalue = [0, 16, 0, 0, 0, 0, 0, 0, 0, 0, 0, 0, 0, 1\n7]"] ;
221 -> 225 ;
226 [label="gini = 0.0\nsamples = 5\nvalue = [0, 5, 0, 0, 0, 0, 0, 0, 0, 0, 0, 0, 0, 0\n0]"] ;
225 -> 226 ;
227 [label="gini = 0.5\nsamples = 19\nvalue = [0, 11, 0, 0, 0, 0, 0, 0, 0, 0, 0, 0, 0, 1\n7]"] ;
225 -> 227 ;
228 [label="tcp.ack <= -0.2\ngini = 0.0\nsamples = 89\nvalue = [0, 88, 0, 0, 0, 0, 0, 0, 0, 0, 0, 0, 0, 1\n0]"] ;
220 -> 228 ;
229 [label="tcp.ack_raw <= 2.0\ngini = 0.3\nsamples = 5\nvalue = [0, 4, 0, 0, 0, 0, 0, 0, 0, 0, 0, 0, 0, 1\n0]"] ;
228 -> 229 ;
230 [label="gini = 0.0\nsamples = 3\nvalue = [0, 3, 0, 0, 0, 0, 0, 0, 0, 0, 0, 0, 0, 0\n0]"] ;
229 -> 230 ;
231 [label="gini = 0.5\nsamples = 2\nvalue = [0, 1, 0, 0, 0, 0, 0, 0, 0, 0, 0, 0, 0, 1\n0]"] ;
229 -> 231 ;
232 [label="gini = 0.0\nsamples = 84\nvalue = [0, 84, 0, 0, 0, 0, 0, 0, 0, 0, 0, 0, 0, 0\n0]"] ;
228 -> 232 ;
233 [label="tcp.ack_raw <= 2.0\ngini = 0.4\nsamples = 786\nvalue = [0, 606, 0, 0, 0, 0, 0, 0, 0, 0, 0, 0, 0, 48\n132]"] ;
139 -> 233 ;
234 [label="tcp.checksum <= 0.1\ngini = 0.6\nsamples = 9\nvalue = [0, 2, 0, 0, 0, 0, 0, 0, 0, 0, 0, 0, 0, 3\n4]"] ;
233 -> 234 ;
235 [label="tcp.checksum <= -0.6\ngini = 0.7\nsamples = 7\nvalue = [0, 2, 0, 0, 0, 0, 0, 0, 0, 0, 0, 0, 0, 3\n2]"] ;
234 -> 235 ;
236 [label="tcp.ack <= -0.2\ngini = 0.4\nsamples = 3\nvalue = [0, 0, 0, 0, 0, 0, 0, 0, 0, 0, 0, 0, 0, 1\n2]"] ;
235 -> 236 ;
237 [label="gini = 0.0\nsamples = 2\nvalue = [0, 0, 0, 0, 0, 0, 0, 0, 0, 0, 0, 0, 0, 0\n2]"] ;
236 -> 237 ;
238 [label="gini = 0.0\nsamples = 1\nvalue = [0, 0, 0, 0, 0, 0, 0, 0, 0, 0, 0, 0, 0, 1\n0]"] ;
236 -> 238 ;
239 [label="tcp.checksum <= -0.4\ngini = 0.5\nsamples = 4\nvalue = [0, 2, 0, 0, 0, 0, 0, 0, 0, 0, 0, 0, 0, 2\n0]"] ;
235 -> 239 ;
240 [label="gini = 0.0\nsamples = 1\nvalue = [0, 0, 0, 0, 0, 0, 0, 0, 0, 0, 0, 0, 0, 1\n0]"] ;
239 -> 240 ;
241 [label="tcp.checksum <= -0.3\ngini = 0.4\nsamples = 3\nvalue = [0, 2, 0, 0, 0, 0, 0, 0, 0, 0, 0, 0, 0, 1\n0]"] ;
239 -> 241 ;
242 [label="gini = 0.0\nsamples = 2\nvalue = [0, 2, 0, 0, 0, 0, 0, 0, 0, 0, 0, 0, 0, 0\n0]"] ;
241 -> 242 ;
243 [label="gini = 0.0\nsamples = 1\nvalue = [0, 0, 0, 0, 0, 0, 0, 0, 0, 0, 0, 0, 0, 1\n0]"] ;
241 -> 243 ;
244 [label="gini = 0.0\nsamples = 2\nvalue = [0, 0, 0, 0, 0, 0, 0, 0, 0, 0, 0, 0, 0, 0\n2]"] ;
234 -> 244 ;
245 [label="tcp.ack_raw <= 2.2\ngini = 0.4\nsamples = 777\nvalue = [0, 604, 0, 0, 0, 0, 0, 0, 0, 0, 0, 0, 0, 45\n128]"] ;
233 -> 245 ;
246 [label="tcp.ack <= -0.2\ngini = 0.4\nsamples = 672\nvalue = [0, 511, 0, 0, 0, 0, 0, 0, 0, 0, 0, 0, 0, 41\n120]"] ;
245 -> 246 ;
247 [label="tcp.ack_raw <= 2.0\ngini = 0.5\nsamples = 201\nvalue = [0, 57, 0, 0, 0, 0, 0, 0, 0, 0, 0, 0, 0, 24\n120]"] ;
246 -> 247 ;
248 [label="tcp.ack_raw <= 2.0\ngini = 0.5\nsamples = 17\nvalue = [0, 9, 0, 0, 0, 0, 0, 0, 0, 0, 0, 0, 0, 1\n7]"] ;
247 -> 248 ;
249 [label="gini = 0.0\nsamples = 5\nvalue = [0, 0, 0, 0, 0, 0, 0, 0, 0, 0, 0, 0, 0, 0\n5]"] ;
248 -> 249 ;
250 [label="tcp.checksum <= -0.2\ngini = 0.4\nsamples = 12\nvalue = [0, 9, 0, 0, 0, 0, 0, 0, 0, 0, 0, 0, 0, 1\n2]"] ;
248 -> 250 ;
251 [label="gini = 0.0\nsamples = 1\nvalue = [0, 0, 0, 0, 0, 0, 0, 0, 0, 0, 0, 0, 0, 0\n1]"] ;
250 -> 251 ;
252 [label="tcp.checksum <= 1.2\ngini = 0.3\nsamples = 11\nvalue = [0, 9, 0, 0, 0, 0, 0, 0, 0, 0, 0, 0, 0, 1\n1]"] ;
250 -> 252 ;
253 [label="gini = 0.2\nsamples = 10\nvalue = [0, 9, 0, 0, 0, 0, 0, 0, 0, 0, 0, 0, 0, 1\n0]"] ;
252 -> 253 ;
254 [label="gini = 0.0\nsamples = 1\nvalue = [0, 0, 0, 0, 0, 0, 0, 0, 0, 0, 0, 0, 0, 0\n1]"] ;
252 -> 254 ;
255 [label="tcp.checksum <= 1.8\ngini = 0.5\nsamples = 184\nvalue = [0, 48, 0, 0, 0, 0, 0, 0, 0, 0, 0, 0, 0, 23\n113]"] ;
247 -> 255 ;
256 [label="tcp.ack_raw <= 2.1\ngini = 0.5\nsamples = 180\nvalue = [0, 45, 0, 0, 0, 0, 0, 0, 0, 0, 0, 0, 0, 23\n112]"] ;
255 -> 256 ;
257 [label="tcp.ack_raw <= 2.1\ngini = 0.5\nsamples = 147\nvalue = [0, 32, 0, 0, 0, 0, 0, 0, 0, 0, 0, 0, 0, 20\n95]"] ;
256 -> 257 ;
258 [label="gini = 0.6\nsamples = 125\nvalue = [0, 31, 0, 0, 0, 0, 0, 0, 0, 0, 0, 0, 0, 19\n75]"] ;
257 -> 258 ;
259 [label="gini = 0.2\nsamples = 22\nvalue = [0, 1, 0, 0, 0, 0, 0, 0, 0, 0, 0, 0, 0, 1\n20]"] ;
257 -> 259 ;
260 [label="tcp.ack <= -0.2\ngini = 0.6\nsamples = 33\nvalue = [0, 13, 0, 0, 0, 0, 0, 0, 0, 0, 0, 0, 0, 3\n17]"] ;
256 -> 260 ;
261 [label="gini = 0.5\nsamples = 21\nvalue = [0, 13, 0, 0, 0, 0, 0, 0, 0, 0, 0, 0, 0, 3\n5]"] ;
260 -> 261 ;
262 [label="gini = 0.0\nsamples = 12\nvalue = [0, 0, 0, 0, 0, 0, 0, 0, 0, 0, 0, 0, 0, 0\n12]"] ;
260 -> 262 ;
263 [label="tcp.ack_raw <= 2.1\ngini = 0.4\nsamples = 4\nvalue = [0, 3, 0, 0, 0, 0, 0, 0, 0, 0, 0, 0, 0, 0\n1]"] ;
255 -> 263 ;
264 [label="tcp.checksum <= 1.8\ngini = 0.5\nsamples = 2\nvalue = [0, 1, 0, 0, 0, 0, 0, 0, 0, 0, 0, 0, 0, 0\n1]"] ;
263 -> 264 ;
265 [label="gini = 0.0\nsamples = 1\nvalue = [0, 0, 0, 0, 0, 0, 0, 0, 0, 0, 0, 0, 0, 0\n1]"] ;
264 -> 265 ;
266 [label="gini = 0.0\nsamples = 1\nvalue = [0, 1, 0, 0, 0, 0, 0, 0, 0, 0, 0, 0, 0, 0\n0]"] ;
264 -> 266 ;
267 [label="gini = 0.0\nsamples = 2\nvalue = [0, 2, 0, 0, 0, 0, 0, 0, 0, 0, 0, 0, 0, 0\n0]"] ;
263 -> 267 ;
268 [label="tcp.ack_raw <= 2.1\ngini = 0.1\nsamples = 471\nvalue = [0, 454, 0, 0, 0, 0, 0, 0, 0, 0, 0, 0, 0, 17\n0]"] ;
246 -> 268 ;
269 [label="tcp.checksum <= 1.8\ngini = 0.1\nsamples = 462\nvalue = [0, 448, 0, 0, 0, 0, 0, 0, 0, 0, 0, 0, 0, 14\n0]"] ;
268 -> 269 ;
270 [label="tcp.checksum <= -0.7\ngini = 0.1\nsamples = 460\nvalue = [0, 447, 0, 0, 0, 0, 0, 0, 0, 0, 0, 0, 0, 13\n0]"] ;
269 -> 270 ;
271 [label="gini = 0.0\nsamples = 68\nvalue = [0, 68, 0, 0, 0, 0, 0, 0, 0, 0, 0, 0, 0, 0\n0]"] ;
270 -> 271 ;
272 [label="tcp.checksum <= -0.7\ngini = 0.1\nsamples = 392\nvalue = [0, 379, 0, 0, 0, 0, 0, 0, 0, 0, 0, 0, 0, 13\n0]"] ;
270 -> 272 ;
273 [label="gini = 0.0\nsamples = 2\nvalue = [0, 0, 0, 0, 0, 0, 0, 0, 0, 0, 0, 0, 0, 2\n0]"] ;
272 -> 273 ;
274 [label="gini = 0.1\nsamples = 390\nvalue = [0, 379, 0, 0, 0, 0, 0, 0, 0, 0, 0, 0, 0, 11\n0]"] ;
272 -> 274 ;
275 [label="tcp.checksum <= 1.8\ngini = 0.5\nsamples = 2\nvalue = [0, 1, 0, 0, 0, 0, 0, 0, 0, 0, 0, 0, 0, 1\n0]"] ;
269 -> 275 ;
276 [label="gini = 0.0\nsamples = 1\nvalue = [0, 0, 0, 0, 0, 0, 0, 0, 0, 0, 0, 0, 0, 1\n0]"] ;
275 -> 276 ;
277 [label="gini = 0.0\nsamples = 1\nvalue = [0, 1, 0, 0, 0, 0, 0, 0, 0, 0, 0, 0, 0, 0\n0]"] ;
275 -> 277 ;
278 [label="tcp.ack_raw <= 2.2\ngini = 0.4\nsamples = 9\nvalue = [0, 6, 0, 0, 0, 0, 0, 0, 0, 0, 0, 0, 0, 3\n0]"] ;
268 -> 278 ;
279 [label="gini = 0.0\nsamples = 2\nvalue = [0, 0, 0, 0, 0, 0, 0, 0, 0, 0, 0, 0, 0, 2\n0]"] ;
278 -> 279 ;
280 [label="tcp.ack <= -0.2\ngini = 0.2\nsamples = 7\nvalue = [0, 6, 0, 0, 0, 0, 0, 0, 0, 0, 0, 0, 0, 1\n0]"] ;
278 -> 280 ;
281 [label="gini = 0.0\nsamples = 1\nvalue = [0, 0, 0, 0, 0, 0, 0, 0, 0, 0, 0, 0, 0, 1\n0]"] ;
280 -> 281 ;
282 [label="gini = 0.0\nsamples = 6\nvalue = [0, 6, 0, 0, 0, 0, 0, 0, 0, 0, 0, 0, 0, 0\n0]"] ;
280 -> 282 ;
283 [label="tcp.ack <= -0.2\ngini = 0.2\nsamples = 105\nvalue = [0, 93, 0, 0, 0, 0, 0, 0, 0, 0, 0, 0, 0, 4\n8]"] ;
245 -> 283 ;
284 [label="tcp.checksum <= 0.2\ngini = 0.6\nsamples = 15\nvalue = [0, 6, 0, 0, 0, 0, 0, 0, 0, 0, 0, 0, 0, 1\n8]"] ;
283 -> 284 ;
285 [label="gini = 0.0\nsamples = 7\nvalue = [0, 0, 0, 0, 0, 0, 0, 0, 0, 0, 0, 0, 0, 0\n7]"] ;
284 -> 285 ;
286 [label="tcp.checksum <= 0.6\ngini = 0.4\nsamples = 8\nvalue = [0, 6, 0, 0, 0, 0, 0, 0, 0, 0, 0, 0, 0, 1\n1]"] ;
284 -> 286 ;
287 [label="tcp.checksum <= 0.4\ngini = 0.5\nsamples = 2\nvalue = [0, 1, 0, 0, 0, 0, 0, 0, 0, 0, 0, 0, 0, 1\n0]"] ;
286 -> 287 ;
288 [label="gini = 0.0\nsamples = 1\nvalue = [0, 1, 0, 0, 0, 0, 0, 0, 0, 0, 0, 0, 0, 0\n0]"] ;
287 -> 288 ;
289 [label="gini = 0.0\nsamples = 1\nvalue = [0, 0, 0, 0, 0, 0, 0, 0, 0, 0, 0, 0, 0, 1\n0]"] ;
287 -> 289 ;
290 [label="tcp.checksum <= 0.9\ngini = 0.3\nsamples = 6\nvalue = [0, 5, 0, 0, 0, 0, 0, 0, 0, 0, 0, 0, 0, 0\n1]"] ;
286 -> 290 ;
291 [label="gini = 0.0\nsamples = 3\nvalue = [0, 3, 0, 0, 0, 0, 0, 0, 0, 0, 0, 0, 0, 0\n0]"] ;
290 -> 291 ;
292 [label="tcp.checksum <= 1.1\ngini = 0.4\nsamples = 3\nvalue = [0, 2, 0, 0, 0, 0, 0, 0, 0, 0, 0, 0, 0, 0\n1]"] ;
290 -> 292 ;
293 [label="gini = 0.0\nsamples = 1\nvalue = [0, 0, 0, 0, 0, 0, 0, 0, 0, 0, 0, 0, 0, 0\n1]"] ;
292 -> 293 ;
294 [label="gini = 0.0\nsamples = 2\nvalue = [0, 2, 0, 0, 0, 0, 0, 0, 0, 0, 0, 0, 0, 0\n0]"] ;
292 -> 294 ;
295 [label="tcp.ack <= -0.2\ngini = 0.1\nsamples = 90\nvalue = [0, 87, 0, 0, 0, 0, 0, 0, 0, 0, 0, 0, 0, 3\n0]"] ;
283 -> 295 ;
296 [label="tcp.ack_raw <= 2.2\ngini = 0.3\nsamples = 16\nvalue = [0, 13, 0, 0, 0, 0, 0, 0, 0, 0, 0, 0, 0, 3\n0]"] ;
295 -> 296 ;
297 [label="tcp.ack_raw <= 2.2\ngini = 0.5\nsamples = 5\nvalue = [0, 3, 0, 0, 0, 0, 0, 0, 0, 0, 0, 0, 0, 2\n0]"] ;
296 -> 297 ;
298 [label="gini = 0.0\nsamples = 3\nvalue = [0, 3, 0, 0, 0, 0, 0, 0, 0, 0, 0, 0, 0, 0\n0]"] ;
297 -> 298 ;
299 [label="gini = 0.0\nsamples = 2\nvalue = [0, 0, 0, 0, 0, 0, 0, 0, 0, 0, 0, 0, 0, 2\n0]"] ;
297 -> 299 ;
300 [label="tcp.checksum <= 1.2\ngini = 0.2\nsamples = 11\nvalue = [0, 10, 0, 0, 0, 0, 0, 0, 0, 0, 0, 0, 0, 1\n0]"] ;
296 -> 300 ;
301 [label="gini = 0.0\nsamples = 9\nvalue = [0, 9, 0, 0, 0, 0, 0, 0, 0, 0, 0, 0, 0, 0\n0]"] ;
300 -> 301 ;
302 [label="tcp.ack_raw <= 2.2\ngini = 0.5\nsamples = 2\nvalue = [0, 1, 0, 0, 0, 0, 0, 0, 0, 0, 0, 0, 0, 1\n0]"] ;
300 -> 302 ;
303 [label="gini = 0.0\nsamples = 1\nvalue = [0, 1, 0, 0, 0, 0, 0, 0, 0, 0, 0, 0, 0, 0\n0]"] ;
302 -> 303 ;
304 [label="gini = 0.0\nsamples = 1\nvalue = [0, 0, 0, 0, 0, 0, 0, 0, 0, 0, 0, 0, 0, 1\n0]"] ;
302 -> 304 ;
305 [label="gini = 0.0\nsamples = 74\nvalue = [0, 74, 0, 0, 0, 0, 0, 0, 0, 0, 0, 0, 0, 0\n0]"] ;
295 -> 305 ;
306 [label="tcp.ack_raw <= 2.0\ngini = 0.6\nsamples = 2228\nvalue = [0, 871, 0, 0, 0, 0, 0, 0, 0, 0, 0, 0, 0, 410\n947]"] ;
18 -> 306 ;
307 [label="tcp.ack_raw <= 1.9\ngini = 0.6\nsamples = 2095\nvalue = [0, 831, 0, 0, 0, 0, 0, 0, 0, 0, 0, 0, 0, 385\n879]"] ;
306 -> 307 ;
308 [label="tcp.ack_raw <= 1.9\ngini = 0.6\nsamples = 2053\nvalue = [0, 806, 0, 0, 0, 0, 0, 0, 0, 0, 0, 0, 0, 378\n869]"] ;
307 -> 308 ;
309 [label="tcp.checksum <= -0.7\ngini = 0.6\nsamples = 2043\nvalue = [0, 806, 0, 0, 0, 0, 0, 0, 0, 0, 0, 0, 0, 375\n862]"] ;
308 -> 309 ;
310 [label="tcp.checksum <= -0.8\ngini = 0.6\nsamples = 310\nvalue = [0, 133, 0, 0, 0, 0, 0, 0, 0, 0, 0, 0, 0, 66\n111]"] ;
309 -> 310 ;
311 [label="tcp.ack_raw <= -0.9\ngini = 0.6\nsamples = 246\nvalue = [0, 99, 0, 0, 0, 0, 0, 0, 0, 0, 0, 0, 0, 51\n96]"] ;
310 -> 311 ;
312 [label="gini = 0.0\nsamples = 3\nvalue = [0, 0, 0, 0, 0, 0, 0, 0, 0, 0, 0, 0, 0, 3\n0]"] ;
311 -> 312 ;
313 [label="tcp.ack_raw <= 1.8\ngini = 0.6\nsamples = 243\nvalue = [0, 99, 0, 0, 0, 0, 0, 0, 0, 0, 0, 0, 0, 48\n96]"] ;
311 -> 313 ;
314 [label="tcp.ack_raw <= 1.0\ngini = 0.6\nsamples = 235\nvalue = [0, 92, 0, 0, 0, 0, 0, 0, 0, 0, 0, 0, 0, 48\n95]"] ;
313 -> 314 ;
315 [label="tcp.ack_raw <= 1.0\ngini = 0.6\nsamples = 170\nvalue = [0, 76, 0, 0, 0, 0, 0, 0, 0, 0, 0, 0, 0, 31\n63]"] ;
314 -> 315 ;
316 [label="tcp.ack_raw <= -0.7\ngini = 0.6\nsamples = 161\nvalue = [0, 69, 0, 0, 0, 0, 0, 0, 0, 0, 0, 0, 0, 30\n62]"] ;
315 -> 316 ;
317 [label="tcp.ack_raw <= -0.9\ngini = 0.5\nsamples = 21\nvalue = [0, 13, 0, 0, 0, 0, 0, 0, 0, 0, 0, 0, 0, 3\n5]"] ;
316 -> 317 ;
318 [label="gini = 0.6\nsamples = 9\nvalue = [0, 3, 0, 0, 0, 0, 0, 0, 0, 0, 0, 0, 0, 2\n4]"] ;
317 -> 318 ;
319 [label="gini = 0.3\nsamples = 12\nvalue = [0, 10, 0, 0, 0, 0, 0, 0, 0, 0, 0, 0, 0, 1\n1]"] ;
317 -> 319 ;
320 [label="tcp.ack_raw <= 0.2\ngini = 0.6\nsamples = 140\nvalue = [0, 56, 0, 0, 0, 0, 0, 0, 0, 0, 0, 0, 0, 27\n57]"] ;
316 -> 320 ;
321 [label="gini = 0.6\nsamples = 71\nvalue = [0, 24, 0, 0, 0, 0, 0, 0, 0, 0, 0, 0, 0, 11\n36]"] ;
320 -> 321 ;
322 [label="gini = 0.6\nsamples = 69\nvalue = [0, 32, 0, 0, 0, 0, 0, 0, 0, 0, 0, 0, 0, 16\n21]"] ;
320 -> 322 ;
323 [label="tcp.checksum <= -0.9\ngini = 0.4\nsamples = 9\nvalue = [0, 7, 0, 0, 0, 0, 0, 0, 0, 0, 0, 0, 0, 1\n1]"] ;
315 -> 323 ;
324 [label="tcp.checksum <= -1.0\ngini = 0.2\nsamples = 8\nvalue = [0, 7, 0, 0, 0, 0, 0, 0, 0, 0, 0, 0, 0, 1\n0]"] ;
323 -> 324 ;
325 [label="gini = 0.4\nsamples = 3\nvalue = [0, 2, 0, 0, 0, 0, 0, 0, 0, 0, 0, 0, 0, 1\n0]"] ;
324 -> 325 ;
326 [label="gini = 0.0\nsamples = 5\nvalue = [0, 5, 0, 0, 0, 0, 0, 0, 0, 0, 0, 0, 0, 0\n0]"] ;
324 -> 326 ;
327 [label="gini = 0.0\nsamples = 1\nvalue = [0, 0, 0, 0, 0, 0, 0, 0, 0, 0, 0, 0, 0, 0\n1]"] ;
323 -> 327 ;
328 [label="tcp.checksum <= -0.9\ngini = 0.6\nsamples = 65\nvalue = [0, 16, 0, 0, 0, 0, 0, 0, 0, 0, 0, 0, 0, 17\n32]"] ;
314 -> 328 ;
329 [label="tcp.ack_raw <= 1.7\ngini = 0.7\nsamples = 38\nvalue = [0, 13, 0, 0, 0, 0, 0, 0, 0, 0, 0, 0, 0, 10\n15]"] ;
328 -> 329 ;
330 [label="tcp.checksum <= -1.1\ngini = 0.7\nsamples = 35\nvalue = [0, 10, 0, 0, 0, 0, 0, 0, 0, 0, 0, 0, 0, 10\n15]"] ;
329 -> 330 ;
331 [label="gini = 0.4\nsamples = 9\nvalue = [0, 0, 0, 0, 0, 0, 0, 0, 0, 0, 0, 0, 0, 3\n6]"] ;
330 -> 331 ;
332 [label="gini = 0.7\nsamples = 26\nvalue = [0, 10, 0, 0, 0, 0, 0, 0, 0, 0, 0, 0, 0, 7\n9]"] ;
330 -> 332 ;
333 [label="gini = 0.0\nsamples = 3\nvalue = [0, 3, 0, 0, 0, 0, 0, 0, 0, 0, 0, 0, 0, 0\n0]"] ;
329 -> 333 ;
334 [label="tcp.ack_raw <= 1.2\ngini = 0.5\nsamples = 27\nvalue = [0, 3, 0, 0, 0, 0, 0, 0, 0, 0, 0, 0, 0, 7\n17]"] ;
328 -> 334 ;
335 [label="tcp.ack_raw <= 1.1\ngini = 0.4\nsamples = 6\nvalue = [0, 0, 0, 0, 0, 0, 0, 0, 0, 0, 0, 0, 0, 4\n2]"] ;
334 -> 335 ;
336 [label="gini = 0.4\nsamples = 3\nvalue = [0, 0, 0, 0, 0, 0, 0, 0, 0, 0, 0, 0, 0, 1\n2]"] ;
335 -> 336 ;
337 [label="gini = 0.0\nsamples = 3\nvalue = [0, 0, 0, 0, 0, 0, 0, 0, 0, 0, 0, 0, 0, 3\n0]"] ;
335 -> 337 ;
338 [label="tcp.ack_raw <= 1.3\ngini = 0.4\nsamples = 21\nvalue = [0, 3, 0, 0, 0, 0, 0, 0, 0, 0, 0, 0, 0, 3\n15]"] ;
334 -> 338 ;
339 [label="gini = 0.0\nsamples = 5\nvalue = [0, 0, 0, 0, 0, 0, 0, 0, 0, 0, 0, 0, 0, 0\n5]"] ;
338 -> 339 ;
340 [label="gini = 0.5\nsamples = 16\nvalue = [0, 3, 0, 0, 0, 0, 0, 0, 0, 0, 0, 0, 0, 3\n10]"] ;
338 -> 340 ;
341 [label="tcp.checksum <= -1.1\ngini = 0.2\nsamples = 8\nvalue = [0, 7, 0, 0, 0, 0, 0, 0, 0, 0, 0, 0, 0, 0\n1]"] ;
313 -> 341 ;
342 [label="gini = 0.0\nsamples = 1\nvalue = [0, 0, 0, 0, 0, 0, 0, 0, 0, 0, 0, 0, 0, 0\n1]"] ;
341 -> 342 ;
343 [label="gini = 0.0\nsamples = 7\nvalue = [0, 7, 0, 0, 0, 0, 0, 0, 0, 0, 0, 0, 0, 0\n0]"] ;
341 -> 343 ;
344 [label="tcp.ack_raw <= 1.6\ngini = 0.6\nsamples = 64\nvalue = [0, 34, 0, 0, 0, 0, 0, 0, 0, 0, 0, 0, 0, 15\n15]"] ;
310 -> 344 ;
345 [label="tcp.checksum <= -0.8\ngini = 0.6\nsamples = 59\nvalue = [0, 34, 0, 0, 0, 0, 0, 0, 0, 0, 0, 0, 0, 14\n11]"] ;
344 -> 345 ;
346 [label="gini = 0.0\nsamples = 7\nvalue = [0, 7, 0, 0, 0, 0, 0, 0, 0, 0, 0, 0, 0, 0\n0]"] ;
345 -> 346 ;
347 [label="tcp.checksum <= -0.8\ngini = 0.6\nsamples = 52\nvalue = [0, 27, 0, 0, 0, 0, 0, 0, 0, 0, 0, 0, 0, 14\n11]"] ;
345 -> 347 ;
348 [label="tcp.ack_raw <= -0.6\ngini = 0.4\nsamples = 4\nvalue = [0, 0, 0, 0, 0, 0, 0, 0, 0, 0, 0, 0, 0, 3\n1]"] ;
347 -> 348 ;
349 [label="gini = 0.0\nsamples = 1\nvalue = [0, 0, 0, 0, 0, 0, 0, 0, 0, 0, 0, 0, 0, 0\n1]"] ;
348 -> 349 ;
350 [label="gini = 0.0\nsamples = 3\nvalue = [0, 0, 0, 0, 0, 0, 0, 0, 0, 0, 0, 0, 0, 3\n0]"] ;
348 -> 350 ;
351 [label="tcp.checksum <= -0.7\ngini = 0.6\nsamples = 48\nvalue = [0, 27, 0, 0, 0, 0, 0, 0, 0, 0, 0, 0, 0, 11\n10]"] ;
347 -> 351 ;
352 [label="tcp.ack_raw <= -0.1\ngini = 0.2\nsamples = 8\nvalue = [0, 7, 0, 0, 0, 0, 0, 0, 0, 0, 0, 0, 0, 0\n1]"] ;
351 -> 352 ;
353 [label="tcp.ack_raw <= -0.4\ngini = 0.4\nsamples = 3\nvalue = [0, 2, 0, 0, 0, 0, 0, 0, 0, 0, 0, 0, 0, 0\n1]"] ;
352 -> 353 ;
354 [label="gini = 0.0\nsamples = 2\nvalue = [0, 2, 0, 0, 0, 0, 0, 0, 0, 0, 0, 0, 0, 0\n0]"] ;
353 -> 354 ;
355 [label="gini = 0.0\nsamples = 1\nvalue = [0, 0, 0, 0, 0, 0, 0, 0, 0, 0, 0, 0, 0, 0\n1]"] ;
353 -> 355 ;
356 [label="gini = 0.0\nsamples = 5\nvalue = [0, 5, 0, 0, 0, 0, 0, 0, 0, 0, 0, 0, 0, 0\n0]"] ;
352 -> 356 ;
357 [label="tcp.checksum <= -0.7\ngini = 0.6\nsamples = 40\nvalue = [0, 20, 0, 0, 0, 0, 0, 0, 0, 0, 0, 0, 0, 11\n9]"] ;
351 -> 357 ;
358 [label="tcp.checksum <= -0.7\ngini = 0.4\nsamples = 3\nvalue = [0, 0, 0, 0, 0, 0, 0, 0, 0, 0, 0, 0, 0, 2\n1]"] ;
357 -> 358 ;
359 [label="gini = 0.0\nsamples = 1\nvalue = [0, 0, 0, 0, 0, 0, 0, 0, 0, 0, 0, 0, 0, 0\n1]"] ;
358 -> 359 ;
360 [label="gini = 0.0\nsamples = 2\nvalue = [0, 0, 0, 0, 0, 0, 0, 0, 0, 0, 0, 0, 0, 2\n0]"] ;
358 -> 360 ;
361 [label="tcp.checksum <= -0.7\ngini = 0.6\nsamples = 37\nvalue = [0, 20, 0, 0, 0, 0, 0, 0, 0, 0, 0, 0, 0, 9\n8]"] ;
357 -> 361 ;
362 [label="gini = 0.0\nsamples = 3\nvalue = [0, 3, 0, 0, 0, 0, 0, 0, 0, 0, 0, 0, 0, 0\n0]"] ;
361 -> 362 ;
363 [label="gini = 0.6\nsamples = 34\nvalue = [0, 17, 0, 0, 0, 0, 0, 0, 0, 0, 0, 0, 0, 9\n8]"] ;
361 -> 363 ;
364 [label="tcp.checksum <= -0.8\ngini = 0.3\nsamples = 5\nvalue = [0, 0, 0, 0, 0, 0, 0, 0, 0, 0, 0, 0, 0, 1\n4]"] ;
344 -> 364 ;
365 [label="gini = 0.0\nsamples = 1\nvalue = [0, 0, 0, 0, 0, 0, 0, 0, 0, 0, 0, 0, 0, 1\n0]"] ;
364 -> 365 ;
366 [label="gini = 0.0\nsamples = 4\nvalue = [0, 0, 0, 0, 0, 0, 0, 0, 0, 0, 0, 0, 0, 0\n4]"] ;
364 -> 366 ;
367 [label="tcp.checksum <= 1.9\ngini = 0.6\nsamples = 1733\nvalue = [0, 673, 0, 0, 0, 0, 0, 0, 0, 0, 0, 0, 0, 309\n751]"] ;
309 -> 367 ;
368 [label="tcp.checksum <= -0.7\ngini = 0.6\nsamples = 1723\nvalue = [0, 671, 0, 0, 0, 0, 0, 0, 0, 0, 0, 0, 0, 309\n743]"] ;
367 -> 368 ;
369 [label="gini = 0.0\nsamples = 4\nvalue = [0, 0, 0, 0, 0, 0, 0, 0, 0, 0, 0, 0, 0, 0\n4]"] ;
368 -> 369 ;
370 [label="tcp.checksum <= -0.7\ngini = 0.6\nsamples = 1719\nvalue = [0, 671, 0, 0, 0, 0, 0, 0, 0, 0, 0, 0, 0, 309\n739]"] ;
368 -> 370 ;
371 [label="tcp.ack_raw <= 1.1\ngini = 0.5\nsamples = 5\nvalue = [0, 3, 0, 0, 0, 0, 0, 0, 0, 0, 0, 0, 0, 2\n0]"] ;
370 -> 371 ;
372 [label="tcp.ack_raw <= 0.4\ngini = 0.4\nsamples = 3\nvalue = [0, 1, 0, 0, 0, 0, 0, 0, 0, 0, 0, 0, 0, 2\n0]"] ;
371 -> 372 ;
373 [label="gini = 0.0\nsamples = 1\nvalue = [0, 1, 0, 0, 0, 0, 0, 0, 0, 0, 0, 0, 0, 0\n0]"] ;
372 -> 373 ;
374 [label="gini = 0.0\nsamples = 2\nvalue = [0, 0, 0, 0, 0, 0, 0, 0, 0, 0, 0, 0, 0, 2\n0]"] ;
372 -> 374 ;
375 [label="gini = 0.0\nsamples = 2\nvalue = [0, 2, 0, 0, 0, 0, 0, 0, 0, 0, 0, 0, 0, 0\n0]"] ;
371 -> 375 ;
376 [label="tcp.checksum <= -0.7\ngini = 0.6\nsamples = 1714\nvalue = [0, 668, 0, 0, 0, 0, 0, 0, 0, 0, 0, 0, 0, 307\n739]"] ;
370 -> 376 ;
377 [label="tcp.checksum <= -0.7\ngini = 0.3\nsamples = 6\nvalue = [0, 1, 0, 0, 0, 0, 0, 0, 0, 0, 0, 0, 0, 0\n5]"] ;
376 -> 377 ;
378 [label="tcp.checksum <= -0.7\ngini = 0.5\nsamples = 2\nvalue = [0, 1, 0, 0, 0, 0, 0, 0, 0, 0, 0, 0, 0, 0\n1]"] ;
377 -> 378 ;
379 [label="gini = 0.0\nsamples = 1\nvalue = [0, 0, 0, 0, 0, 0, 0, 0, 0, 0, 0, 0, 0, 0\n1]"] ;
378 -> 379 ;
380 [label="gini = 0.0\nsamples = 1\nvalue = [0, 1, 0, 0, 0, 0, 0, 0, 0, 0, 0, 0, 0, 0\n0]"] ;
378 -> 380 ;
381 [label="gini = 0.0\nsamples = 4\nvalue = [0, 0, 0, 0, 0, 0, 0, 0, 0, 0, 0, 0, 0, 0\n4]"] ;
377 -> 381 ;
382 [label="tcp.checksum <= 1.9\ngini = 0.6\nsamples = 1708\nvalue = [0, 667, 0, 0, 0, 0, 0, 0, 0, 0, 0, 0, 0, 307\n734]"] ;
376 -> 382 ;
383 [label="tcp.ack_raw <= 0.9\ngini = 0.6\nsamples = 1703\nvalue = [0, 666, 0, 0, 0, 0, 0, 0, 0, 0, 0, 0, 0, 304\n733]"] ;
382 -> 383 ;
384 [label="tcp.checksum <= -0.5\ngini = 0.6\nsamples = 1121\nvalue = [0, 441, 0, 0, 0, 0, 0, 0, 0, 0, 0, 0, 0, 214\n466]"] ;
383 -> 384 ;
385 [label="gini = 0.6\nsamples = 75\nvalue = [0, 14, 0, 0, 0, 0, 0, 0, 0, 0, 0, 0, 0, 21\n40]"] ;
384 -> 385 ;
386 [label="gini = 0.6\nsamples = 1046\nvalue = [0, 427, 0, 0, 0, 0, 0, 0, 0, 0, 0, 0, 0, 193\n426]"] ;
384 -> 386 ;
387 [label="tcp.checksum <= -0.5\ngini = 0.6\nsamples = 582\nvalue = [0, 225, 0, 0, 0, 0, 0, 0, 0, 0, 0, 0, 0, 90\n267]"] ;
383 -> 387 ;
388 [label="gini = 0.5\nsamples = 34\nvalue = [0, 22, 0, 0, 0, 0, 0, 0, 0, 0, 0, 0, 0, 4\n8]"] ;
387 -> 388 ;
389 [label="gini = 0.6\nsamples = 548\nvalue = [0, 203, 0, 0, 0, 0, 0, 0, 0, 0, 0, 0, 0, 86\n259]"] ;
387 -> 389 ;
390 [label="tcp.ack_raw <= -0.2\ngini = 0.6\nsamples = 5\nvalue = [0, 1, 0, 0, 0, 0, 0, 0, 0, 0, 0, 0, 0, 3\n1]"] ;
382 -> 390 ;
391 [label="gini = 0.0\nsamples = 1\nvalue = [0, 0, 0, 0, 0, 0, 0, 0, 0, 0, 0, 0, 0, 0\n1]"] ;
390 -> 391 ;
392 [label="tcp.checksum <= 1.9\ngini = 0.4\nsamples = 4\nvalue = [0, 1, 0, 0, 0, 0, 0, 0, 0, 0, 0, 0, 0, 3\n0]"] ;
390 -> 392 ;
393 [label="gini = 0.0\nsamples = 2\nvalue = [0, 0, 0, 0, 0, 0, 0, 0, 0, 0, 0, 0, 0, 2\n0]"] ;
392 -> 393 ;
394 [label="gini = 0.5\nsamples = 2\nvalue = [0, 1, 0, 0, 0, 0, 0, 0, 0, 0, 0, 0, 0, 1\n0]"] ;
392 -> 394 ;
395 [label="tcp.checksum <= 1.9\ngini = 0.3\nsamples = 10\nvalue = [0, 2, 0, 0, 0, 0, 0, 0, 0, 0, 0, 0, 0, 0\n8]"] ;
367 -> 395 ;
396 [label="tcp.ack_raw <= -0.2\ngini = 0.2\nsamples = 9\nvalue = [0, 1, 0, 0, 0, 0, 0, 0, 0, 0, 0, 0, 0, 0\n8]"] ;
395 -> 396 ;
397 [label="tcp.ack_raw <= -0.5\ngini = 0.5\nsamples = 2\nvalue = [0, 1, 0, 0, 0, 0, 0, 0, 0, 0, 0, 0, 0, 0\n1]"] ;
396 -> 397 ;
398 [label="gini = 0.0\nsamples = 1\nvalue = [0, 0, 0, 0, 0, 0, 0, 0, 0, 0, 0, 0, 0, 0\n1]"] ;
397 -> 398 ;
399 [label="gini = 0.0\nsamples = 1\nvalue = [0, 1, 0, 0, 0, 0, 0, 0, 0, 0, 0, 0, 0, 0\n0]"] ;
397 -> 399 ;
400 [label="gini = 0.0\nsamples = 7\nvalue = [0, 0, 0, 0, 0, 0, 0, 0, 0, 0, 0, 0, 0, 0\n7]"] ;
396 -> 400 ;
401 [label="gini = 0.0\nsamples = 1\nvalue = [0, 1, 0, 0, 0, 0, 0, 0, 0, 0, 0, 0, 0, 0\n0]"] ;
395 -> 401 ;
402 [label="tcp.checksum <= 0.4\ngini = 0.4\nsamples = 10\nvalue = [0, 0, 0, 0, 0, 0, 0, 0, 0, 0, 0, 0, 0, 3\n7]"] ;
308 -> 402 ;
403 [label="tcp.checksum <= -1.1\ngini = 0.2\nsamples = 8\nvalue = [0, 0, 0, 0, 0, 0, 0, 0, 0, 0, 0, 0, 0, 1\n7]"] ;
402 -> 403 ;
404 [label="gini = 0.0\nsamples = 1\nvalue = [0, 0, 0, 0, 0, 0, 0, 0, 0, 0, 0, 0, 0, 1\n0]"] ;
403 -> 404 ;
405 [label="gini = 0.0\nsamples = 7\nvalue = [0, 0, 0, 0, 0, 0, 0, 0, 0, 0, 0, 0, 0, 0\n7]"] ;
403 -> 405 ;
406 [label="gini = 0.0\nsamples = 2\nvalue = [0, 0, 0, 0, 0, 0, 0, 0, 0, 0, 0, 0, 0, 2\n0]"] ;
402 -> 406 ;
407 [label="tcp.ack_raw <= 2.0\ngini = 0.6\nsamples = 42\nvalue = [0, 25, 0, 0, 0, 0, 0, 0, 0, 0, 0, 0, 0, 7\n10]"] ;
307 -> 407 ;
408 [label="tcp.checksum <= 1.4\ngini = 0.5\nsamples = 16\nvalue = [0, 11, 0, 0, 0, 0, 0, 0, 0, 0, 0, 0, 0, 4\n1]"] ;
407 -> 408 ;
409 [label="tcp.checksum <= -0.4\ngini = 0.3\nsamples = 14\nvalue = [0, 11, 0, 0, 0, 0, 0, 0, 0, 0, 0, 0, 0, 3\n0]"] ;
408 -> 409 ;
410 [label="tcp.checksum <= -0.8\ngini = 0.5\nsamples = 7\nvalue = [0, 4, 0, 0, 0, 0, 0, 0, 0, 0, 0, 0, 0, 3\n0]"] ;
409 -> 410 ;
411 [label="gini = 0.0\nsamples = 3\nvalue = [0, 3, 0, 0, 0, 0, 0, 0, 0, 0, 0, 0, 0, 0\n0]"] ;
410 -> 411 ;
412 [label="tcp.ack_raw <= 1.9\ngini = 0.4\nsamples = 4\nvalue = [0, 1, 0, 0, 0, 0, 0, 0, 0, 0, 0, 0, 0, 3\n0]"] ;
410 -> 412 ;
413 [label="gini = 0.0\nsamples = 1\nvalue = [0, 1, 0, 0, 0, 0, 0, 0, 0, 0, 0, 0, 0, 0\n0]"] ;
412 -> 413 ;
414 [label="gini = 0.0\nsamples = 3\nvalue = [0, 0, 0, 0, 0, 0, 0, 0, 0, 0, 0, 0, 0, 3\n0]"] ;
412 -> 414 ;
415 [label="gini = 0.0\nsamples = 7\nvalue = [0, 7, 0, 0, 0, 0, 0, 0, 0, 0, 0, 0, 0, 0\n0]"] ;
409 -> 415 ;
416 [label="tcp.ack_raw <= 2.0\ngini = 0.5\nsamples = 2\nvalue = [0, 0, 0, 0, 0, 0, 0, 0, 0, 0, 0, 0, 0, 1\n1]"] ;
408 -> 416 ;
417 [label="gini = 0.0\nsamples = 1\nvalue = [0, 0, 0, 0, 0, 0, 0, 0, 0, 0, 0, 0, 0, 0\n1]"] ;
416 -> 417 ;
418 [label="gini = 0.0\nsamples = 1\nvalue = [0, 0, 0, 0, 0, 0, 0, 0, 0, 0, 0, 0, 0, 1\n0]"] ;
416 -> 418 ;
419 [label="tcp.checksum <= -0.8\ngini = 0.6\nsamples = 26\nvalue = [0, 14, 0, 0, 0, 0, 0, 0, 0, 0, 0, 0, 0, 3\n9]"] ;
407 -> 419 ;
420 [label="gini = 0.0\nsamples = 2\nvalue = [0, 0, 0, 0, 0, 0, 0, 0, 0, 0, 0, 0, 0, 0\n2]"] ;
419 -> 420 ;
421 [label="tcp.ack_raw <= 2.0\ngini = 0.6\nsamples = 24\nvalue = [0, 14, 0, 0, 0, 0, 0, 0, 0, 0, 0, 0, 0, 3\n7]"] ;
419 -> 421 ;
422 [label="tcp.checksum <= -0.4\ngini = 0.4\nsamples = 6\nvalue = [0, 2, 0, 0, 0, 0, 0, 0, 0, 0, 0, 0, 0, 0\n4]"] ;
421 -> 422 ;
423 [label="gini = 0.0\nsamples = 1\nvalue = [0, 1, 0, 0, 0, 0, 0, 0, 0, 0, 0, 0, 0, 0\n0]"] ;
422 -> 423 ;
424 [label="tcp.ack_raw <= 2.0\ngini = 0.3\nsamples = 5\nvalue = [0, 1, 0, 0, 0, 0, 0, 0, 0, 0, 0, 0, 0, 0\n4]"] ;
422 -> 424 ;
425 [label="tcp.ack_raw <= 2.0\ngini = 0.5\nsamples = 2\nvalue = [0, 1, 0, 0, 0, 0, 0, 0, 0, 0, 0, 0, 0, 0\n1]"] ;
424 -> 425 ;
426 [label="gini = 0.0\nsamples = 1\nvalue = [0, 0, 0, 0, 0, 0, 0, 0, 0, 0, 0, 0, 0, 0\n1]"] ;
425 -> 426 ;
427 [label="gini = 0.0\nsamples = 1\nvalue = [0, 1, 0, 0, 0, 0, 0, 0, 0, 0, 0, 0, 0, 0\n0]"] ;
425 -> 427 ;
428 [label="gini = 0.0\nsamples = 3\nvalue = [0, 0, 0, 0, 0, 0, 0, 0, 0, 0, 0, 0, 0, 0\n3]"] ;
424 -> 428 ;
429 [label="tcp.ack_raw <= 2.0\ngini = 0.5\nsamples = 18\nvalue = [0, 12, 0, 0, 0, 0, 0, 0, 0, 0, 0, 0, 0, 3\n3]"] ;
421 -> 429 ;
430 [label="tcp.ack_raw <= 2.0\ngini = 0.5\nsamples = 17\nvalue = [0, 12, 0, 0, 0, 0, 0, 0, 0, 0, 0, 0, 0, 2\n3]"] ;
429 -> 430 ;
431 [label="gini = 0.0\nsamples = 5\nvalue = [0, 5, 0, 0, 0, 0, 0, 0, 0, 0, 0, 0, 0, 0\n0]"] ;
430 -> 431 ;
432 [label="tcp.ack_raw <= 2.0\ngini = 0.6\nsamples = 12\nvalue = [0, 7, 0, 0, 0, 0, 0, 0, 0, 0, 0, 0, 0, 2\n3]"] ;
430 -> 432 ;
433 [label="tcp.ack_raw <= 2.0\ngini = 0.6\nsamples = 9\nvalue = [0, 4, 0, 0, 0, 0, 0, 0, 0, 0, 0, 0, 0, 2\n3]"] ;
432 -> 433 ;
434 [label="gini = 0.0\nsamples = 1\nvalue = [0, 0, 0, 0, 0, 0, 0, 0, 0, 0, 0, 0, 0, 0\n1]"] ;
433 -> 434 ;
435 [label="tcp.checksum <= 1.0\ngini = 0.6\nsamples = 8\nvalue = [0, 4, 0, 0, 0, 0, 0, 0, 0, 0, 0, 0, 0, 2\n2]"] ;
433 -> 435 ;
436 [label="tcp.ack_raw <= 2.0\ngini = 0.5\nsamples = 6\nvalue = [0, 4, 0, 0, 0, 0, 0, 0, 0, 0, 0, 0, 0, 1\n1]"] ;
435 -> 436 ;
437 [label="gini = 0.3\nsamples = 5\nvalue = [0, 4, 0, 0, 0, 0, 0, 0, 0, 0, 0, 0, 0, 0\n1]"] ;
436 -> 437 ;
438 [label="gini = 0.0\nsamples = 1\nvalue = [0, 0, 0, 0, 0, 0, 0, 0, 0, 0, 0, 0, 0, 1\n0]"] ;
436 -> 438 ;
439 [label="tcp.checksum <= 1.3\ngini = 0.5\nsamples = 2\nvalue = [0, 0, 0, 0, 0, 0, 0, 0, 0, 0, 0, 0, 0, 1\n1]"] ;
435 -> 439 ;
440 [label="gini = 0.0\nsamples = 1\nvalue = [0, 0, 0, 0, 0, 0, 0, 0, 0, 0, 0, 0, 0, 1\n0]"] ;
439 -> 440 ;
441 [label="gini = 0.0\nsamples = 1\nvalue = [0, 0, 0, 0, 0, 0, 0, 0, 0, 0, 0, 0, 0, 0\n1]"] ;
439 -> 441 ;
442 [label="gini = 0.0\nsamples = 3\nvalue = [0, 3, 0, 0, 0, 0, 0, 0, 0, 0, 0, 0, 0, 0\n0]"] ;
432 -> 442 ;
443 [label="gini = 0.0\nsamples = 1\nvalue = [0, 0, 0, 0, 0, 0, 0, 0, 0, 0, 0, 0, 0, 1\n0]"] ;
429 -> 443 ;
444 [label="tcp.ack_raw <= 2.2\ngini = 0.6\nsamples = 133\nvalue = [0, 40, 0, 0, 0, 0, 0, 0, 0, 0, 0, 0, 0, 25\n68]"] ;
306 -> 444 ;
445 [label="tcp.checksum <= -1.0\ngini = 0.6\nsamples = 119\nvalue = [0, 32, 0, 0, 0, 0, 0, 0, 0, 0, 0, 0, 0, 21\n66]"] ;
444 -> 445 ;
446 [label="tcp.checksum <= -1.1\ngini = 0.3\nsamples = 5\nvalue = [0, 4, 0, 0, 0, 0, 0, 0, 0, 0, 0, 0, 0, 0\n1]"] ;
445 -> 446 ;
447 [label="tcp.checksum <= -1.1\ngini = 0.5\nsamples = 2\nvalue = [0, 1, 0, 0, 0, 0, 0, 0, 0, 0, 0, 0, 0, 0\n1]"] ;
446 -> 447 ;
448 [label="gini = 0.0\nsamples = 1\nvalue = [0, 1, 0, 0, 0, 0, 0, 0, 0, 0, 0, 0, 0, 0\n0]"] ;
447 -> 448 ;
449 [label="gini = 0.0\nsamples = 1\nvalue = [0, 0, 0, 0, 0, 0, 0, 0, 0, 0, 0, 0, 0, 0\n1]"] ;
447 -> 449 ;
450 [label="gini = 0.0\nsamples = 3\nvalue = [0, 3, 0, 0, 0, 0, 0, 0, 0, 0, 0, 0, 0, 0\n0]"] ;
446 -> 450 ;
451 [label="tcp.ack_raw <= 2.0\ngini = 0.6\nsamples = 114\nvalue = [0, 28, 0, 0, 0, 0, 0, 0, 0, 0, 0, 0, 0, 21\n65]"] ;
445 -> 451 ;
452 [label="gini = 0.0\nsamples = 6\nvalue = [0, 0, 0, 0, 0, 0, 0, 0, 0, 0, 0, 0, 0, 0\n6]"] ;
451 -> 452 ;
453 [label="tcp.checksum <= -0.0\ngini = 0.6\nsamples = 108\nvalue = [0, 28, 0, 0, 0, 0, 0, 0, 0, 0, 0, 0, 0, 21\n59]"] ;
451 -> 453 ;
454 [label="tcp.ack_raw <= 2.0\ngini = 0.5\nsamples = 45\nvalue = [0, 10, 0, 0, 0, 0, 0, 0, 0, 0, 0, 0, 0, 5\n30]"] ;
453 -> 454 ;
455 [label="tcp.ack_raw <= 2.0\ngini = 0.5\nsamples = 2\nvalue = [0, 1, 0, 0, 0, 0, 0, 0, 0, 0, 0, 0, 0, 1\n0]"] ;
454 -> 455 ;
456 [label="gini = 0.0\nsamples = 1\nvalue = [0, 1, 0, 0, 0, 0, 0, 0, 0, 0, 0, 0, 0, 0\n0]"] ;
455 -> 456 ;
457 [label="gini = 0.0\nsamples = 1\nvalue = [0, 0, 0, 0, 0, 0, 0, 0, 0, 0, 0, 0, 0, 1\n0]"] ;
455 -> 457 ;
458 [label="tcp.checksum <= -1.0\ngini = 0.5\nsamples = 43\nvalue = [0, 9, 0, 0, 0, 0, 0, 0, 0, 0, 0, 0, 0, 4\n30]"] ;
454 -> 458 ;
459 [label="gini = 0.0\nsamples = 1\nvalue = [0, 0, 0, 0, 0, 0, 0, 0, 0, 0, 0, 0, 0, 1\n0]"] ;
458 -> 459 ;
460 [label="tcp.ack_raw <= 2.1\ngini = 0.4\nsamples = 42\nvalue = [0, 9, 0, 0, 0, 0, 0, 0, 0, 0, 0, 0, 0, 3\n30]"] ;
458 -> 460 ;
461 [label="tcp.checksum <= -0.5\ngini = 0.3\nsamples = 31\nvalue = [0, 5, 0, 0, 0, 0, 0, 0, 0, 0, 0, 0, 0, 1\n25]"] ;
460 -> 461 ;
462 [label="tcp.checksum <= -0.5\ngini = 0.4\nsamples = 21\nvalue = [0, 5, 0, 0, 0, 0, 0, 0, 0, 0, 0, 0, 0, 1\n15]"] ;
461 -> 462 ;
463 [label="tcp.ack_raw <= 2.1\ngini = 0.4\nsamples = 20\nvalue = [0, 4, 0, 0, 0, 0, 0, 0, 0, 0, 0, 0, 0, 1\n15]"] ;
462 -> 463 ;
464 [label="gini = 0.3\nsamples = 17\nvalue = [0, 3, 0, 0, 0, 0, 0, 0, 0, 0, 0, 0, 0, 0\n14]"] ;
463 -> 464 ;
465 [label="gini = 0.7\nsamples = 3\nvalue = [0, 1, 0, 0, 0, 0, 0, 0, 0, 0, 0, 0, 0, 1\n1]"] ;
463 -> 465 ;
466 [label="gini = 0.0\nsamples = 1\nvalue = [0, 1, 0, 0, 0, 0, 0, 0, 0, 0, 0, 0, 0, 0\n0]"] ;
462 -> 466 ;
467 [label="gini = 0.0\nsamples = 10\nvalue = [0, 0, 0, 0, 0, 0, 0, 0, 0, 0, 0, 0, 0, 0\n10]"] ;
461 -> 467 ;
468 [label="tcp.ack_raw <= 2.1\ngini = 0.6\nsamples = 11\nvalue = [0, 4, 0, 0, 0, 0, 0, 0, 0, 0, 0, 0, 0, 2\n5]"] ;
460 -> 468 ;
469 [label="gini = 0.0\nsamples = 3\nvalue = [0, 3, 0, 0, 0, 0, 0, 0, 0, 0, 0, 0, 0, 0\n0]"] ;
468 -> 469 ;
470 [label="tcp.ack_raw <= 2.2\ngini = 0.5\nsamples = 8\nvalue = [0, 1, 0, 0, 0, 0, 0, 0, 0, 0, 0, 0, 0, 2\n5]"] ;
468 -> 470 ;
471 [label="tcp.checksum <= -0.6\ngini = 0.4\nsamples = 7\nvalue = [0, 0, 0, 0, 0, 0, 0, 0, 0, 0, 0, 0, 0, 2\n5]"] ;
470 -> 471 ;
472 [label="gini = 0.0\nsamples = 1\nvalue = [0, 0, 0, 0, 0, 0, 0, 0, 0, 0, 0, 0, 0, 1\n0]"] ;
471 -> 472 ;
473 [label="gini = 0.3\nsamples = 6\nvalue = [0, 0, 0, 0, 0, 0, 0, 0, 0, 0, 0, 0, 0, 1\n5]"] ;
471 -> 473 ;
474 [label="gini = 0.0\nsamples = 1\nvalue = [0, 1, 0, 0, 0, 0, 0, 0, 0, 0, 0, 0, 0, 0\n0]"] ;
470 -> 474 ;
475 [label="tcp.checksum <= -0.0\ngini = 0.6\nsamples = 63\nvalue = [0, 18, 0, 0, 0, 0, 0, 0, 0, 0, 0, 0, 0, 16\n29]"] ;
453 -> 475 ;
476 [label="gini = 0.0\nsamples = 3\nvalue = [0, 3, 0, 0, 0, 0, 0, 0, 0, 0, 0, 0, 0, 0\n0]"] ;
475 -> 476 ;
477 [label="tcp.ack_raw <= 2.1\ngini = 0.6\nsamples = 60\nvalue = [0, 15, 0, 0, 0, 0, 0, 0, 0, 0, 0, 0, 0, 16\n29]"] ;
475 -> 477 ;
478 [label="tcp.ack_raw <= 2.0\ngini = 0.6\nsamples = 23\nvalue = [0, 9, 0, 0, 0, 0, 0, 0, 0, 0, 0, 0, 0, 3\n11]"] ;
477 -> 478 ;
479 [label="tcp.ack_raw <= 2.0\ngini = 0.3\nsamples = 6\nvalue = [0, 1, 0, 0, 0, 0, 0, 0, 0, 0, 0, 0, 0, 0\n5]"] ;
478 -> 479 ;
480 [label="tcp.checksum <= 1.0\ngini = 0.5\nsamples = 2\nvalue = [0, 1, 0, 0, 0, 0, 0, 0, 0, 0, 0, 0, 0, 0\n1]"] ;
479 -> 480 ;
481 [label="gini = 0.0\nsamples = 1\nvalue = [0, 0, 0, 0, 0, 0, 0, 0, 0, 0, 0, 0, 0, 0\n1]"] ;
480 -> 481 ;
482 [label="gini = 0.0\nsamples = 1\nvalue = [0, 1, 0, 0, 0, 0, 0, 0, 0, 0, 0, 0, 0, 0\n0]"] ;
480 -> 482 ;
483 [label="gini = 0.0\nsamples = 4\nvalue = [0, 0, 0, 0, 0, 0, 0, 0, 0, 0, 0, 0, 0, 0\n4]"] ;
479 -> 483 ;
484 [label="tcp.checksum <= 0.9\ngini = 0.6\nsamples = 17\nvalue = [0, 8, 0, 0, 0, 0, 0, 0, 0, 0, 0, 0, 0, 3\n6]"] ;
478 -> 484 ;
485 [label="tcp.ack_raw <= 2.1\ngini = 0.6\nsamples = 8\nvalue = [0, 4, 0, 0, 0, 0, 0, 0, 0, 0, 0, 0, 0, 3\n1]"] ;
484 -> 485 ;
486 [label="tcp.checksum <= 0.7\ngini = 0.4\nsamples = 4\nvalue = [0, 1, 0, 0, 0, 0, 0, 0, 0, 0, 0, 0, 0, 3\n0]"] ;
485 -> 486 ;
487 [label="gini = 0.5\nsamples = 2\nvalue = [0, 1, 0, 0, 0, 0, 0, 0, 0, 0, 0, 0, 0, 1\n0]"] ;
486 -> 487 ;
488 [label="gini = 0.0\nsamples = 2\nvalue = [0, 0, 0, 0, 0, 0, 0, 0, 0, 0, 0, 0, 0, 2\n0]"] ;
486 -> 488 ;
489 [label="tcp.checksum <= 0.3\ngini = 0.4\nsamples = 4\nvalue = [0, 3, 0, 0, 0, 0, 0, 0, 0, 0, 0, 0, 0, 0\n1]"] ;
485 -> 489 ;
490 [label="gini = 0.0\nsamples = 1\nvalue = [0, 0, 0, 0, 0, 0, 0, 0, 0, 0, 0, 0, 0, 0\n1]"] ;
489 -> 490 ;
491 [label="gini = 0.0\nsamples = 3\nvalue = [0, 3, 0, 0, 0, 0, 0, 0, 0, 0, 0, 0, 0, 0\n0]"] ;
489 -> 491 ;
492 [label="tcp.checksum <= 1.1\ngini = 0.5\nsamples = 9\nvalue = [0, 4, 0, 0, 0, 0, 0, 0, 0, 0, 0, 0, 0, 0\n5]"] ;
484 -> 492 ;
493 [label="gini = 0.0\nsamples = 4\nvalue = [0, 0, 0, 0, 0, 0, 0, 0, 0, 0, 0, 0, 0, 0\n4]"] ;
492 -> 493 ;
494 [label="tcp.ack_raw <= 2.1\ngini = 0.3\nsamples = 5\nvalue = [0, 4, 0, 0, 0, 0, 0, 0, 0, 0, 0, 0, 0, 0\n1]"] ;
492 -> 494 ;
495 [label="gini = 0.0\nsamples = 3\nvalue = [0, 3, 0, 0, 0, 0, 0, 0, 0, 0, 0, 0, 0, 0\n0]"] ;
494 -> 495 ;
496 [label="gini = 0.5\nsamples = 2\nvalue = [0, 1, 0, 0, 0, 0, 0, 0, 0, 0, 0, 0, 0, 0\n1]"] ;
494 -> 496 ;
497 [label="tcp.ack_raw <= 2.1\ngini = 0.6\nsamples = 37\nvalue = [0, 6, 0, 0, 0, 0, 0, 0, 0, 0, 0, 0, 0, 13\n18]"] ;
477 -> 497 ;
498 [label="gini = 0.0\nsamples = 3\nvalue = [0, 0, 0, 0, 0, 0, 0, 0, 0, 0, 0, 0, 0, 3\n0]"] ;
497 -> 498 ;
499 [label="tcp.checksum <= 0.1\ngini = 0.6\nsamples = 34\nvalue = [0, 6, 0, 0, 0, 0, 0, 0, 0, 0, 0, 0, 0, 10\n18]"] ;
497 -> 499 ;
500 [label="tcp.ack_raw <= 2.1\ngini = 0.6\nsamples = 6\nvalue = [0, 2, 0, 0, 0, 0, 0, 0, 0, 0, 0, 0, 0, 3\n1]"] ;
499 -> 500 ;
501 [label="gini = 0.0\nsamples = 1\nvalue = [0, 1, 0, 0, 0, 0, 0, 0, 0, 0, 0, 0, 0, 0\n0]"] ;
500 -> 501 ;
502 [label="tcp.checksum <= 0.1\ngini = 0.6\nsamples = 5\nvalue = [0, 1, 0, 0, 0, 0, 0, 0, 0, 0, 0, 0, 0, 3\n1]"] ;
500 -> 502 ;
503 [label="gini = 0.4\nsamples = 4\nvalue = [0, 0, 0, 0, 0, 0, 0, 0, 0, 0, 0, 0, 0, 3\n1]"] ;
502 -> 503 ;
504 [label="gini = 0.0\nsamples = 1\nvalue = [0, 1, 0, 0, 0, 0, 0, 0, 0, 0, 0, 0, 0, 0\n0]"] ;
502 -> 504 ;
505 [label="tcp.ack_raw <= 2.1\ngini = 0.5\nsamples = 28\nvalue = [0, 4, 0, 0, 0, 0, 0, 0, 0, 0, 0, 0, 0, 7\n17]"] ;
499 -> 505 ;
506 [label="tcp.ack_raw <= 2.1\ngini = 0.5\nsamples = 5\nvalue = [0, 0, 0, 0, 0, 0, 0, 0, 0, 0, 0, 0, 0, 3\n2]"] ;
505 -> 506 ;
507 [label="gini = 0.4\nsamples = 3\nvalue = [0, 0, 0, 0, 0, 0, 0, 0, 0, 0, 0, 0, 0, 1\n2]"] ;
506 -> 507 ;
508 [label="gini = 0.0\nsamples = 2\nvalue = [0, 0, 0, 0, 0, 0, 0, 0, 0, 0, 0, 0, 0, 2\n0]"] ;
506 -> 508 ;
509 [label="tcp.checksum <= 0.3\ngini = 0.5\nsamples = 23\nvalue = [0, 4, 0, 0, 0, 0, 0, 0, 0, 0, 0, 0, 0, 4\n15]"] ;
505 -> 509 ;
510 [label="gini = 0.0\nsamples = 4\nvalue = [0, 0, 0, 0, 0, 0, 0, 0, 0, 0, 0, 0, 0, 0\n4]"] ;
509 -> 510 ;
511 [label="gini = 0.6\nsamples = 19\nvalue = [0, 4, 0, 0, 0, 0, 0, 0, 0, 0, 0, 0, 0, 4\n11]"] ;
509 -> 511 ;
512 [label="tcp.checksum <= 0.8\ngini = 0.6\nsamples = 14\nvalue = [0, 8, 0, 0, 0, 0, 0, 0, 0, 0, 0, 0, 0, 4\n2]"] ;
444 -> 512 ;
513 [label="tcp.ack_raw <= 2.2\ngini = 0.5\nsamples = 10\nvalue = [0, 7, 0, 0, 0, 0, 0, 0, 0, 0, 0, 0, 0, 1\n2]"] ;
512 -> 513 ;
514 [label="gini = 0.0\nsamples = 1\nvalue = [0, 0, 0, 0, 0, 0, 0, 0, 0, 0, 0, 0, 0, 1\n0]"] ;
513 -> 514 ;
515 [label="tcp.ack_raw <= 2.2\ngini = 0.3\nsamples = 9\nvalue = [0, 7, 0, 0, 0, 0, 0, 0, 0, 0, 0, 0, 0, 0\n2]"] ;
513 -> 515 ;
516 [label="tcp.ack_raw <= 2.2\ngini = 0.5\nsamples = 5\nvalue = [0, 3, 0, 0, 0, 0, 0, 0, 0, 0, 0, 0, 0, 0\n2]"] ;
515 -> 516 ;
517 [label="gini = 0.0\nsamples = 2\nvalue = [0, 2, 0, 0, 0, 0, 0, 0, 0, 0, 0, 0, 0, 0\n0]"] ;
516 -> 517 ;
518 [label="tcp.checksum <= 0.6\ngini = 0.4\nsamples = 3\nvalue = [0, 1, 0, 0, 0, 0, 0, 0, 0, 0, 0, 0, 0, 0\n2]"] ;
516 -> 518 ;
519 [label="gini = 0.0\nsamples = 2\nvalue = [0, 0, 0, 0, 0, 0, 0, 0, 0, 0, 0, 0, 0, 0\n2]"] ;
518 -> 519 ;
520 [label="gini = 0.0\nsamples = 1\nvalue = [0, 1, 0, 0, 0, 0, 0, 0, 0, 0, 0, 0, 0, 0\n0]"] ;
518 -> 520 ;
521 [label="gini = 0.0\nsamples = 4\nvalue = [0, 4, 0, 0, 0, 0, 0, 0, 0, 0, 0, 0, 0, 0\n0]"] ;
515 -> 521 ;
522 [label="tcp.checksum <= 1.4\ngini = 0.4\nsamples = 4\nvalue = [0, 1, 0, 0, 0, 0, 0, 0, 0, 0, 0, 0, 0, 3\n0]"] ;
512 -> 522 ;
523 [label="gini = 0.0\nsamples = 3\nvalue = [0, 0, 0, 0, 0, 0, 0, 0, 0, 0, 0, 0, 0, 3\n0]"] ;
522 -> 523 ;
524 [label="gini = 0.0\nsamples = 1\nvalue = [0, 1, 0, 0, 0, 0, 0, 0, 0, 0, 0, 0, 0, 0\n0]"] ;
522 -> 524 ;
525 [label="tcp.seq <= -0.2\ngini = 0.6\nsamples = 11663\nvalue = [0, 2660, 0, 0, 0, 0, 0, 0, 0, 0, 0, 0, 0\n2813, 6190]"] ;
17 -> 525 ;
526 [label="tcp.ack <= -0.2\ngini = 0.1\nsamples = 3501\nvalue = [0, 63, 0, 0, 0, 0, 0, 0, 0, 0, 0, 0, 0, 41\n3397]"] ;
525 -> 526 ;
527 [label="tcp.ack <= -0.2\ngini = 0.0\nsamples = 3475\nvalue = [0, 63, 0, 0, 0, 0, 0, 0, 0, 0, 0, 0, 0, 15\n3397]"] ;
526 -> 527 ;
528 [label="tcp.seq <= -0.2\ngini = 0.3\nsamples = 71\nvalue = [0, 11, 0, 0, 0, 0, 0, 0, 0, 0, 0, 0, 0, 1\n59]"] ;
527 -> 528 ;
529 [label="tcp.seq <= -0.2\ngini = 0.1\nsamples = 58\nvalue = [0, 4, 0, 0, 0, 0, 0, 0, 0, 0, 0, 0, 0, 0\n54]"] ;
528 -> 529 ;
530 [label="gini = 0.0\nsamples = 1\nvalue = [0, 1, 0, 0, 0, 0, 0, 0, 0, 0, 0, 0, 0, 0\n0]"] ;
529 -> 530 ;
531 [label="tcp.checksum <= 0.3\ngini = 0.1\nsamples = 57\nvalue = [0, 3, 0, 0, 0, 0, 0, 0, 0, 0, 0, 0, 0, 0\n54]"] ;
529 -> 531 ;
532 [label="tcp.checksum <= 0.3\ngini = 0.2\nsamples = 27\nvalue = [0, 3, 0, 0, 0, 0, 0, 0, 0, 0, 0, 0, 0, 0\n24]"] ;
531 -> 532 ;
533 [label="tcp.checksum <= -0.7\ngini = 0.1\nsamples = 26\nvalue = [0, 2, 0, 0, 0, 0, 0, 0, 0, 0, 0, 0, 0, 0\n24]"] ;
532 -> 533 ;
534 [label="gini = 0.0\nsamples = 11\nvalue = [0, 0, 0, 0, 0, 0, 0, 0, 0, 0, 0, 0, 0, 0\n11]"] ;
533 -> 534 ;
535 [label="tcp.checksum <= -0.6\ngini = 0.2\nsamples = 15\nvalue = [0, 2, 0, 0, 0, 0, 0, 0, 0, 0, 0, 0, 0, 0\n13]"] ;
533 -> 535 ;
536 [label="gini = 0.0\nsamples = 1\nvalue = [0, 1, 0, 0, 0, 0, 0, 0, 0, 0, 0, 0, 0, 0\n0]"] ;
535 -> 536 ;
537 [label="tcp.checksum <= -0.1\ngini = 0.1\nsamples = 14\nvalue = [0, 1, 0, 0, 0, 0, 0, 0, 0, 0, 0, 0, 0, 0\n13]"] ;
535 -> 537 ;
538 [label="gini = 0.0\nsamples = 9\nvalue = [0, 0, 0, 0, 0, 0, 0, 0, 0, 0, 0, 0, 0, 0\n9]"] ;
537 -> 538 ;
539 [label="tcp.checksum <= -0.0\ngini = 0.3\nsamples = 5\nvalue = [0, 1, 0, 0, 0, 0, 0, 0, 0, 0, 0, 0, 0, 0\n4]"] ;
537 -> 539 ;
540 [label="gini = 0.0\nsamples = 1\nvalue = [0, 1, 0, 0, 0, 0, 0, 0, 0, 0, 0, 0, 0, 0\n0]"] ;
539 -> 540 ;
541 [label="gini = 0.0\nsamples = 4\nvalue = [0, 0, 0, 0, 0, 0, 0, 0, 0, 0, 0, 0, 0, 0\n4]"] ;
539 -> 541 ;
542 [label="gini = 0.0\nsamples = 1\nvalue = [0, 1, 0, 0, 0, 0, 0, 0, 0, 0, 0, 0, 0, 0\n0]"] ;
532 -> 542 ;
543 [label="gini = 0.0\nsamples = 30\nvalue = [0, 0, 0, 0, 0, 0, 0, 0, 0, 0, 0, 0, 0, 0\n30]"] ;
531 -> 543 ;
544 [label="tcp.seq <= -0.2\ngini = 0.6\nsamples = 13\nvalue = [0, 7, 0, 0, 0, 0, 0, 0, 0, 0, 0, 0, 0, 1\n5]"] ;
528 -> 544 ;
545 [label="gini = 0.0\nsamples = 7\nvalue = [0, 7, 0, 0, 0, 0, 0, 0, 0, 0, 0, 0, 0, 0\n0]"] ;
544 -> 545 ;
546 [label="tcp.flags <= -0.3\ngini = 0.3\nsamples = 6\nvalue = [0, 0, 0, 0, 0, 0, 0, 0, 0, 0, 0, 0, 0, 1\n5]"] ;
544 -> 546 ;
547 [label="gini = 0.0\nsamples = 5\nvalue = [0, 0, 0, 0, 0, 0, 0, 0, 0, 0, 0, 0, 0, 0\n5]"] ;
546 -> 547 ;
548 [label="gini = 0.0\nsamples = 1\nvalue = [0, 0, 0, 0, 0, 0, 0, 0, 0, 0, 0, 0, 0, 1\n0]"] ;
546 -> 548 ;
549 [label="tcp.ack <= -0.2\ngini = 0.0\nsamples = 3404\nvalue = [0, 52, 0, 0, 0, 0, 0, 0, 0, 0, 0, 0, 0, 14\n3338]"] ;
527 -> 549 ;
550 [label="gini = 0.0\nsamples = 2138\nvalue = [0, 0, 0, 0, 0, 0, 0, 0, 0, 0, 0, 0, 0, 0\n2138]"] ;
549 -> 550 ;
551 [label="tcp.seq <= -0.2\ngini = 0.1\nsamples = 1266\nvalue = [0, 52, 0, 0, 0, 0, 0, 0, 0, 0, 0, 0, 0, 14\n1200]"] ;
549 -> 551 ;
552 [label="tcp.ack_raw <= 2.2\ngini = 0.1\nsamples = 1252\nvalue = [0, 52, 0, 0, 0, 0, 0, 0, 0, 0, 0, 0, 0, 0\n1200]"] ;
551 -> 552 ;
553 [label="tcp.connection.fin <= 1.7\ngini = 0.1\nsamples = 1251\nvalue = [0, 51, 0, 0, 0, 0, 0, 0, 0, 0, 0, 0, 0, 0\n1200]"] ;
552 -> 553 ;
554 [label="tcp.seq <= -0.2\ngini = 0.1\nsamples = 929\nvalue = [0, 29, 0, 0, 0, 0, 0, 0, 0, 0, 0, 0, 0, 0\n900]"] ;
553 -> 554 ;
555 [label="gini = 0.0\nsamples = 11\nvalue = [0, 11, 0, 0, 0, 0, 0, 0, 0, 0, 0, 0, 0, 0\n0]"] ;
554 -> 555 ;
556 [label="tcp.checksum <= 1.7\ngini = 0.0\nsamples = 918\nvalue = [0, 18, 0, 0, 0, 0, 0, 0, 0, 0, 0, 0, 0, 0\n900]"] ;
554 -> 556 ;
557 [label="tcp.checksum <= 0.8\ngini = 0.0\nsamples = 858\nvalue = [0, 15, 0, 0, 0, 0, 0, 0, 0, 0, 0, 0, 0, 0\n843]"] ;
556 -> 557 ;
558 [label="tcp.checksum <= 0.7\ngini = 0.0\nsamples = 537\nvalue = [0, 13, 0, 0, 0, 0, 0, 0, 0, 0, 0, 0, 0, 0\n524]"] ;
557 -> 558 ;
559 [label="tcp.ack_raw <= 0.1\ngini = 0.0\nsamples = 503\nvalue = [0, 8, 0, 0, 0, 0, 0, 0, 0, 0, 0, 0, 0, 0\n495]"] ;
558 -> 559 ;
560 [label="gini = 0.1\nsamples = 154\nvalue = [0, 5, 0, 0, 0, 0, 0, 0, 0, 0, 0, 0, 0, 0\n149]"] ;
559 -> 560 ;
561 [label="gini = 0.0\nsamples = 349\nvalue = [0, 3, 0, 0, 0, 0, 0, 0, 0, 0, 0, 0, 0, 0\n346]"] ;
559 -> 561 ;
562 [label="tcp.seq <= -0.2\ngini = 0.3\nsamples = 34\nvalue = [0, 5, 0, 0, 0, 0, 0, 0, 0, 0, 0, 0, 0, 0\n29]"] ;
558 -> 562 ;
563 [label="gini = 0.0\nsamples = 4\nvalue = [0, 4, 0, 0, 0, 0, 0, 0, 0, 0, 0, 0, 0, 0\n0]"] ;
562 -> 563 ;
564 [label="gini = 0.1\nsamples = 30\nvalue = [0, 1, 0, 0, 0, 0, 0, 0, 0, 0, 0, 0, 0, 0\n29]"] ;
562 -> 564 ;
565 [label="tcp.seq <= -0.2\ngini = 0.0\nsamples = 321\nvalue = [0, 2, 0, 0, 0, 0, 0, 0, 0, 0, 0, 0, 0, 0\n319]"] ;
557 -> 565 ;
566 [label="gini = 0.0\nsamples = 2\nvalue = [0, 2, 0, 0, 0, 0, 0, 0, 0, 0, 0, 0, 0, 0\n0]"] ;
565 -> 566 ;
567 [label="gini = 0.0\nsamples = 319\nvalue = [0, 0, 0, 0, 0, 0, 0, 0, 0, 0, 0, 0, 0, 0\n319]"] ;
565 -> 567 ;
568 [label="tcp.seq <= -0.2\ngini = 0.1\nsamples = 60\nvalue = [0, 3, 0, 0, 0, 0, 0, 0, 0, 0, 0, 0, 0, 0\n57]"] ;
556 -> 568 ;
569 [label="gini = 0.0\nsamples = 1\nvalue = [0, 1, 0, 0, 0, 0, 0, 0, 0, 0, 0, 0, 0, 0\n0]"] ;
568 -> 569 ;
570 [label="tcp.seq <= -0.2\ngini = 0.1\nsamples = 59\nvalue = [0, 2, 0, 0, 0, 0, 0, 0, 0, 0, 0, 0, 0, 0\n57]"] ;
568 -> 570 ;
571 [label="tcp.checksum <= 1.7\ngini = 0.0\nsamples = 58\nvalue = [0, 1, 0, 0, 0, 0, 0, 0, 0, 0, 0, 0, 0, 0\n57]"] ;
570 -> 571 ;
572 [label="gini = 0.0\nsamples = 1\nvalue = [0, 1, 0, 0, 0, 0, 0, 0, 0, 0, 0, 0, 0, 0\n0]"] ;
571 -> 572 ;
573 [label="gini = 0.0\nsamples = 57\nvalue = [0, 0, 0, 0, 0, 0, 0, 0, 0, 0, 0, 0, 0, 0\n57]"] ;
571 -> 573 ;
574 [label="gini = 0.0\nsamples = 1\nvalue = [0, 1, 0, 0, 0, 0, 0, 0, 0, 0, 0, 0, 0, 0\n0]"] ;
570 -> 574 ;
575 [label="tcp.seq <= -0.2\ngini = 0.1\nsamples = 322\nvalue = [0, 22, 0, 0, 0, 0, 0, 0, 0, 0, 0, 0, 0, 0\n300]"] ;
553 -> 575 ;
576 [label="gini = 0.0\nsamples = 17\nvalue = [0, 17, 0, 0, 0, 0, 0, 0, 0, 0, 0, 0, 0, 0\n0]"] ;
575 -> 576 ;
577 [label="tcp.checksum <= 0.5\ngini = 0.0\nsamples = 305\nvalue = [0, 5, 0, 0, 0, 0, 0, 0, 0, 0, 0, 0, 0, 0\n300]"] ;
575 -> 577 ;
578 [label="tcp.checksum <= 0.5\ngini = 0.1\nsamples = 156\nvalue = [0, 5, 0, 0, 0, 0, 0, 0, 0, 0, 0, 0, 0, 0\n151]"] ;
577 -> 578 ;
579 [label="tcp.ack_raw <= 0.1\ngini = 0.1\nsamples = 155\nvalue = [0, 4, 0, 0, 0, 0, 0, 0, 0, 0, 0, 0, 0, 0\n151]"] ;
578 -> 579 ;
580 [label="gini = 0.0\nsamples = 48\nvalue = [0, 0, 0, 0, 0, 0, 0, 0, 0, 0, 0, 0, 0, 0\n48]"] ;
579 -> 580 ;
581 [label="tcp.ack_raw <= 0.1\ngini = 0.1\nsamples = 107\nvalue = [0, 4, 0, 0, 0, 0, 0, 0, 0, 0, 0, 0, 0, 0\n103]"] ;
579 -> 581 ;
582 [label="gini = 0.0\nsamples = 1\nvalue = [0, 1, 0, 0, 0, 0, 0, 0, 0, 0, 0, 0, 0, 0\n0]"] ;
581 -> 582 ;
583 [label="gini = 0.1\nsamples = 106\nvalue = [0, 3, 0, 0, 0, 0, 0, 0, 0, 0, 0, 0, 0, 0\n103]"] ;
581 -> 583 ;
584 [label="gini = 0.0\nsamples = 1\nvalue = [0, 1, 0, 0, 0, 0, 0, 0, 0, 0, 0, 0, 0, 0\n0]"] ;
578 -> 584 ;
585 [label="gini = 0.0\nsamples = 149\nvalue = [0, 0, 0, 0, 0, 0, 0, 0, 0, 0, 0, 0, 0, 0\n149]"] ;
577 -> 585 ;
586 [label="gini = 0.0\nsamples = 1\nvalue = [0, 1, 0, 0, 0, 0, 0, 0, 0, 0, 0, 0, 0, 0\n0]"] ;
552 -> 586 ;
587 [label="gini = 0.0\nsamples = 14\nvalue = [0, 0, 0, 0, 0, 0, 0, 0, 0, 0, 0, 0, 0, 14\n0]"] ;
551 -> 587 ;
588 [label="gini = 0.0\nsamples = 26\nvalue = [0, 0, 0, 0, 0, 0, 0, 0, 0, 0, 0, 0, 0, 26\n0]"] ;
526 -> 588 ;
589 [label="tcp.ack <= -0.2\ngini = 0.7\nsamples = 8162\nvalue = [0, 2597, 0, 0, 0, 0, 0, 0, 0, 0, 0, 0, 0\n2772, 2793]"] ;
525 -> 589 ;
590 [label="tcp.ack <= -0.2\ngini = 0.4\nsamples = 3392\nvalue = [0, 785, 0, 0, 0, 0, 0, 0, 0, 0, 0, 0, 0, 194\n2413]"] ;
589 -> 590 ;
591 [label="tcp.flags.ack <= -0.3\ngini = 0.6\nsamples = 1341\nvalue = [0, 701, 0, 0, 0, 0, 0, 0, 0, 0, 0, 0, 0, 192\n448]"] ;
590 -> 591 ;
592 [label="tcp.seq <= -0.2\ngini = 0.6\nsamples = 995\nvalue = [0, 355, 0, 0, 0, 0, 0, 0, 0, 0, 0, 0, 0, 192\n448]"] ;
591 -> 592 ;
593 [label="tcp.seq <= -0.2\ngini = 0.5\nsamples = 717\nvalue = [0, 114, 0, 0, 0, 0, 0, 0, 0, 0, 0, 0, 0, 155\n448]"] ;
592 -> 593 ;
594 [label="tcp.seq <= -0.2\ngini = 0.3\nsamples = 157\nvalue = [0, 26, 0, 0, 0, 0, 0, 0, 0, 0, 0, 0, 0, 131\n0]"] ;
593 -> 594 ;
595 [label="tcp.seq <= -0.2\ngini = 0.5\nsamples = 22\nvalue = [0, 11, 0, 0, 0, 0, 0, 0, 0, 0, 0, 0, 0, 11\n0]"] ;
594 -> 595 ;
596 [label="gini = 0.0\nsamples = 8\nvalue = [0, 0, 0, 0, 0, 0, 0, 0, 0, 0, 0, 0, 0, 8\n0]"] ;
595 -> 596 ;
597 [label="tcp.checksum <= 1.3\ngini = 0.3\nsamples = 14\nvalue = [0, 11, 0, 0, 0, 0, 0, 0, 0, 0, 0, 0, 0, 3\n0]"] ;
595 -> 597 ;
598 [label="tcp.checksum <= 1.0\ngini = 0.2\nsamples = 12\nvalue = [0, 11, 0, 0, 0, 0, 0, 0, 0, 0, 0, 0, 0, 1\n0]"] ;
597 -> 598 ;
599 [label="gini = 0.0\nsamples = 9\nvalue = [0, 9, 0, 0, 0, 0, 0, 0, 0, 0, 0, 0, 0, 0\n0]"] ;
598 -> 599 ;
600 [label="tcp.checksum <= 1.1\ngini = 0.4\nsamples = 3\nvalue = [0, 2, 0, 0, 0, 0, 0, 0, 0, 0, 0, 0, 0, 1\n0]"] ;
598 -> 600 ;
601 [label="gini = 0.0\nsamples = 1\nvalue = [0, 0, 0, 0, 0, 0, 0, 0, 0, 0, 0, 0, 0, 1\n0]"] ;
600 -> 601 ;
602 [label="gini = 0.0\nsamples = 2\nvalue = [0, 2, 0, 0, 0, 0, 0, 0, 0, 0, 0, 0, 0, 0\n0]"] ;
600 -> 602 ;
603 [label="gini = 0.0\nsamples = 2\nvalue = [0, 0, 0, 0, 0, 0, 0, 0, 0, 0, 0, 0, 0, 2\n0]"] ;
597 -> 603 ;
604 [label="tcp.seq <= -0.2\ngini = 0.2\nsamples = 135\nvalue = [0, 15, 0, 0, 0, 0, 0, 0, 0, 0, 0, 0, 0, 120\n0]"] ;
594 -> 604 ;
605 [label="tcp.seq <= -0.2\ngini = 0.1\nsamples = 117\nvalue = [0, 7, 0, 0, 0, 0, 0, 0, 0, 0, 0, 0, 0, 110\n0]"] ;
604 -> 605 ;
606 [label="tcp.seq <= -0.2\ngini = 0.0\nsamples = 92\nvalue = [0, 2, 0, 0, 0, 0, 0, 0, 0, 0, 0, 0, 0, 90\n0]"] ;
605 -> 606 ;
607 [label="tcp.seq <= -0.2\ngini = 0.2\nsamples = 7\nvalue = [0, 1, 0, 0, 0, 0, 0, 0, 0, 0, 0, 0, 0, 6\n0]"] ;
606 -> 607 ;
608 [label="gini = 0.0\nsamples = 6\nvalue = [0, 0, 0, 0, 0, 0, 0, 0, 0, 0, 0, 0, 0, 6\n0]"] ;
607 -> 608 ;
609 [label="gini = 0.0\nsamples = 1\nvalue = [0, 1, 0, 0, 0, 0, 0, 0, 0, 0, 0, 0, 0, 0\n0]"] ;
607 -> 609 ;
610 [label="tcp.checksum <= -0.2\ngini = 0.0\nsamples = 85\nvalue = [0, 1, 0, 0, 0, 0, 0, 0, 0, 0, 0, 0, 0, 84\n0]"] ;
606 -> 610 ;
611 [label="tcp.checksum <= -0.2\ngini = 0.1\nsamples = 36\nvalue = [0, 1, 0, 0, 0, 0, 0, 0, 0, 0, 0, 0, 0, 35\n0]"] ;
610 -> 611 ;
612 [label="gini = 0.0\nsamples = 35\nvalue = [0, 0, 0, 0, 0, 0, 0, 0, 0, 0, 0, 0, 0, 35\n0]"] ;
611 -> 612 ;
613 [label="gini = 0.0\nsamples = 1\nvalue = [0, 1, 0, 0, 0, 0, 0, 0, 0, 0, 0, 0, 0, 0\n0]"] ;
611 -> 613 ;
614 [label="gini = 0.0\nsamples = 49\nvalue = [0, 0, 0, 0, 0, 0, 0, 0, 0, 0, 0, 0, 0, 49\n0]"] ;
610 -> 614 ;
615 [label="tcp.checksum <= -0.6\ngini = 0.3\nsamples = 25\nvalue = [0, 5, 0, 0, 0, 0, 0, 0, 0, 0, 0, 0, 0, 20\n0]"] ;
605 -> 615 ;
616 [label="tcp.checksum <= -0.9\ngini = 0.5\nsamples = 5\nvalue = [0, 2, 0, 0, 0, 0, 0, 0, 0, 0, 0, 0, 0, 3\n0]"] ;
615 -> 616 ;
617 [label="gini = 0.0\nsamples = 2\nvalue = [0, 0, 0, 0, 0, 0, 0, 0, 0, 0, 0, 0, 0, 2\n0]"] ;
616 -> 617 ;
618 [label="tcp.seq <= -0.2\ngini = 0.4\nsamples = 3\nvalue = [0, 2, 0, 0, 0, 0, 0, 0, 0, 0, 0, 0, 0, 1\n0]"] ;
616 -> 618 ;
619 [label="gini = 0.0\nsamples = 2\nvalue = [0, 2, 0, 0, 0, 0, 0, 0, 0, 0, 0, 0, 0, 0\n0]"] ;
618 -> 619 ;
620 [label="gini = 0.0\nsamples = 1\nvalue = [0, 0, 0, 0, 0, 0, 0, 0, 0, 0, 0, 0, 0, 1\n0]"] ;
618 -> 620 ;
621 [label="tcp.checksum <= 0.2\ngini = 0.3\nsamples = 20\nvalue = [0, 3, 0, 0, 0, 0, 0, 0, 0, 0, 0, 0, 0, 17\n0]"] ;
615 -> 621 ;
622 [label="gini = 0.0\nsamples = 6\nvalue = [0, 0, 0, 0, 0, 0, 0, 0, 0, 0, 0, 0, 0, 6\n0]"] ;
621 -> 622 ;
623 [label="tcp.checksum <= 0.2\ngini = 0.3\nsamples = 14\nvalue = [0, 3, 0, 0, 0, 0, 0, 0, 0, 0, 0, 0, 0, 11\n0]"] ;
621 -> 623 ;
624 [label="gini = 0.0\nsamples = 1\nvalue = [0, 1, 0, 0, 0, 0, 0, 0, 0, 0, 0, 0, 0, 0\n0]"] ;
623 -> 624 ;
625 [label="gini = 0.3\nsamples = 13\nvalue = [0, 2, 0, 0, 0, 0, 0, 0, 0, 0, 0, 0, 0, 11\n0]"] ;
623 -> 625 ;
626 [label="tcp.checksum <= 1.6\ngini = 0.5\nsamples = 18\nvalue = [0, 8, 0, 0, 0, 0, 0, 0, 0, 0, 0, 0, 0, 10\n0]"] ;
604 -> 626 ;
627 [label="tcp.checksum <= 1.0\ngini = 0.5\nsamples = 16\nvalue = [0, 6, 0, 0, 0, 0, 0, 0, 0, 0, 0, 0, 0, 10\n0]"] ;
626 -> 627 ;
628 [label="tcp.checksum <= -0.5\ngini = 0.5\nsamples = 12\nvalue = [0, 6, 0, 0, 0, 0, 0, 0, 0, 0, 0, 0, 0, 6\n0]"] ;
627 -> 628 ;
629 [label="tcp.checksum <= -0.8\ngini = 0.3\nsamples = 5\nvalue = [0, 1, 0, 0, 0, 0, 0, 0, 0, 0, 0, 0, 0, 4\n0]"] ;
628 -> 629 ;
630 [label="gini = 0.0\nsamples = 2\nvalue = [0, 0, 0, 0, 0, 0, 0, 0, 0, 0, 0, 0, 0, 2\n0]"] ;
629 -> 630 ;
631 [label="gini = 0.4\nsamples = 3\nvalue = [0, 1, 0, 0, 0, 0, 0, 0, 0, 0, 0, 0, 0, 2\n0]"] ;
629 -> 631 ;
632 [label="tcp.seq <= -0.2\ngini = 0.4\nsamples = 7\nvalue = [0, 5, 0, 0, 0, 0, 0, 0, 0, 0, 0, 0, 0, 2\n0]"] ;
628 -> 632 ;
633 [label="gini = 0.0\nsamples = 4\nvalue = [0, 4, 0, 0, 0, 0, 0, 0, 0, 0, 0, 0, 0, 0\n0]"] ;
632 -> 633 ;
634 [label="gini = 0.4\nsamples = 3\nvalue = [0, 1, 0, 0, 0, 0, 0, 0, 0, 0, 0, 0, 0, 2\n0]"] ;
632 -> 634 ;
635 [label="gini = 0.0\nsamples = 4\nvalue = [0, 0, 0, 0, 0, 0, 0, 0, 0, 0, 0, 0, 0, 4\n0]"] ;
627 -> 635 ;
636 [label="gini = 0.0\nsamples = 2\nvalue = [0, 2, 0, 0, 0, 0, 0, 0, 0, 0, 0, 0, 0, 0\n0]"] ;
626 -> 636 ;
637 [label="tcp.seq <= -0.2\ngini = 0.3\nsamples = 560\nvalue = [0, 88, 0, 0, 0, 0, 0, 0, 0, 0, 0, 0, 0, 24\n448]"] ;
593 -> 637 ;
638 [label="tcp.seq <= -0.2\ngini = 0.4\nsamples = 226\nvalue = [0, 52, 0, 0, 0, 0, 0, 0, 0, 0, 0, 0, 0, 5\n169]"] ;
637 -> 638 ;
639 [label="tcp.seq <= -0.2\ngini = 0.3\nsamples = 208\nvalue = [0, 36, 0, 0, 0, 0, 0, 0, 0, 0, 0, 0, 0, 3\n169]"] ;
638 -> 639 ;
640 [label="gini = 0.0\nsamples = 1\nvalue = [0, 1, 0, 0, 0, 0, 0, 0, 0, 0, 0, 0, 0, 0\n0]"] ;
639 -> 640 ;
641 [label="tcp.checksum <= 1.7\ngini = 0.3\nsamples = 207\nvalue = [0, 35, 0, 0, 0, 0, 0, 0, 0, 0, 0, 0, 0, 3\n169]"] ;
639 -> 641 ;
642 [label="tcp.checksum <= 1.6\ngini = 0.3\nsamples = 195\nvalue = [0, 35, 0, 0, 0, 0, 0, 0, 0, 0, 0, 0, 0, 2\n158]"] ;
641 -> 642 ;
643 [label="tcp.checksum <= 1.1\ngini = 0.3\nsamples = 187\nvalue = [0, 31, 0, 0, 0, 0, 0, 0, 0, 0, 0, 0, 0, 2\n154]"] ;
642 -> 643 ;
644 [label="gini = 0.3\nsamples = 152\nvalue = [0, 28, 0, 0, 0, 0, 0, 0, 0, 0, 0, 0, 0, 2\n122]"] ;
643 -> 644 ;
645 [label="gini = 0.2\nsamples = 35\nvalue = [0, 3, 0, 0, 0, 0, 0, 0, 0, 0, 0, 0, 0, 0\n32]"] ;
643 -> 645 ;
646 [label="tcp.seq <= -0.2\ngini = 0.5\nsamples = 8\nvalue = [0, 4, 0, 0, 0, 0, 0, 0, 0, 0, 0, 0, 0, 0\n4]"] ;
642 -> 646 ;
647 [label="gini = 0.0\nsamples = 4\nvalue = [0, 0, 0, 0, 0, 0, 0, 0, 0, 0, 0, 0, 0, 0\n4]"] ;
646 -> 647 ;
648 [label="gini = 0.0\nsamples = 4\nvalue = [0, 4, 0, 0, 0, 0, 0, 0, 0, 0, 0, 0, 0, 0\n0]"] ;
646 -> 648 ;
649 [label="tcp.checksum <= 1.8\ngini = 0.2\nsamples = 12\nvalue = [0, 0, 0, 0, 0, 0, 0, 0, 0, 0, 0, 0, 0, 1\n11]"] ;
641 -> 649 ;
650 [label="tcp.checksum <= 1.8\ngini = 0.3\nsamples = 6\nvalue = [0, 0, 0, 0, 0, 0, 0, 0, 0, 0, 0, 0, 0, 1\n5]"] ;
649 -> 650 ;
651 [label="gini = 0.0\nsamples = 5\nvalue = [0, 0, 0, 0, 0, 0, 0, 0, 0, 0, 0, 0, 0, 0\n5]"] ;
650 -> 651 ;
652 [label="gini = 0.0\nsamples = 1\nvalue = [0, 0, 0, 0, 0, 0, 0, 0, 0, 0, 0, 0, 0, 1\n0]"] ;
650 -> 652 ;
653 [label="gini = 0.0\nsamples = 6\nvalue = [0, 0, 0, 0, 0, 0, 0, 0, 0, 0, 0, 0, 0, 0\n6]"] ;
649 -> 653 ;
654 [label="tcp.checksum <= 0.5\ngini = 0.2\nsamples = 18\nvalue = [0, 16, 0, 0, 0, 0, 0, 0, 0, 0, 0, 0, 0, 2\n0]"] ;
638 -> 654 ;
655 [label="tcp.checksum <= 0.3\ngini = 0.3\nsamples = 10\nvalue = [0, 8, 0, 0, 0, 0, 0, 0, 0, 0, 0, 0, 0, 2\n0]"] ;
654 -> 655 ;
656 [label="tcp.checksum <= -0.4\ngini = 0.2\nsamples = 9\nvalue = [0, 8, 0, 0, 0, 0, 0, 0, 0, 0, 0, 0, 0, 1\n0]"] ;
655 -> 656 ;
657 [label="tcp.checksum <= -0.6\ngini = 0.4\nsamples = 3\nvalue = [0, 2, 0, 0, 0, 0, 0, 0, 0, 0, 0, 0, 0, 1\n0]"] ;
656 -> 657 ;
658 [label="gini = 0.0\nsamples = 2\nvalue = [0, 2, 0, 0, 0, 0, 0, 0, 0, 0, 0, 0, 0, 0\n0]"] ;
657 -> 658 ;
659 [label="gini = 0.0\nsamples = 1\nvalue = [0, 0, 0, 0, 0, 0, 0, 0, 0, 0, 0, 0, 0, 1\n0]"] ;
657 -> 659 ;
660 [label="gini = 0.0\nsamples = 6\nvalue = [0, 6, 0, 0, 0, 0, 0, 0, 0, 0, 0, 0, 0, 0\n0]"] ;
656 -> 660 ;
661 [label="gini = 0.0\nsamples = 1\nvalue = [0, 0, 0, 0, 0, 0, 0, 0, 0, 0, 0, 0, 0, 1\n0]"] ;
655 -> 661 ;
662 [label="gini = 0.0\nsamples = 8\nvalue = [0, 8, 0, 0, 0, 0, 0, 0, 0, 0, 0, 0, 0, 0\n0]"] ;
654 -> 662 ;
663 [label="tcp.checksum <= 1.1\ngini = 0.3\nsamples = 334\nvalue = [0, 36, 0, 0, 0, 0, 0, 0, 0, 0, 0, 0, 0, 19\n279]"] ;
637 -> 663 ;
664 [label="tcp.seq <= -0.2\ngini = 0.3\nsamples = 259\nvalue = [0, 31, 0, 0, 0, 0, 0, 0, 0, 0, 0, 0, 0, 18\n210]"] ;
663 -> 664 ;
665 [label="tcp.checksum <= 1.0\ngini = 0.3\nsamples = 249\nvalue = [0, 21, 0, 0, 0, 0, 0, 0, 0, 0, 0, 0, 0, 18\n210]"] ;
664 -> 665 ;
666 [label="tcp.checksum <= -1.0\ngini = 0.3\nsamples = 241\nvalue = [0, 18, 0, 0, 0, 0, 0, 0, 0, 0, 0, 0, 0, 17\n206]"] ;
665 -> 666 ;
667 [label="gini = 0.0\nsamples = 19\nvalue = [0, 0, 0, 0, 0, 0, 0, 0, 0, 0, 0, 0, 0, 0\n19]"] ;
666 -> 667 ;
668 [label="tcp.checksum <= -1.0\ngini = 0.3\nsamples = 222\nvalue = [0, 18, 0, 0, 0, 0, 0, 0, 0, 0, 0, 0, 0, 17\n187]"] ;
666 -> 668 ;
669 [label="gini = 0.6\nsamples = 5\nvalue = [0, 2, 0, 0, 0, 0, 0, 0, 0, 0, 0, 0, 0, 1\n2]"] ;
668 -> 669 ;
670 [label="gini = 0.3\nsamples = 217\nvalue = [0, 16, 0, 0, 0, 0, 0, 0, 0, 0, 0, 0, 0, 16\n185]"] ;
668 -> 670 ;
671 [label="tcp.checksum <= 1.1\ngini = 0.6\nsamples = 8\nvalue = [0, 3, 0, 0, 0, 0, 0, 0, 0, 0, 0, 0, 0, 1\n4]"] ;
665 -> 671 ;
672 [label="gini = 0.0\nsamples = 1\nvalue = [0, 1, 0, 0, 0, 0, 0, 0, 0, 0, 0, 0, 0, 0\n0]"] ;
671 -> 672 ;
673 [label="tcp.checksum <= 1.1\ngini = 0.6\nsamples = 7\nvalue = [0, 2, 0, 0, 0, 0, 0, 0, 0, 0, 0, 0, 0, 1\n4]"] ;
671 -> 673 ;
674 [label="gini = 0.5\nsamples = 6\nvalue = [0, 1, 0, 0, 0, 0, 0, 0, 0, 0, 0, 0, 0, 1\n4]"] ;
673 -> 674 ;
675 [label="gini = 0.0\nsamples = 1\nvalue = [0, 1, 0, 0, 0, 0, 0, 0, 0, 0, 0, 0, 0, 0\n0]"] ;
673 -> 675 ;
676 [label="gini = 0.0\nsamples = 10\nvalue = [0, 10, 0, 0, 0, 0, 0, 0, 0, 0, 0, 0, 0, 0\n0]"] ;
664 -> 676 ;
677 [label="tcp.seq <= -0.2\ngini = 0.1\nsamples = 75\nvalue = [0, 5, 0, 0, 0, 0, 0, 0, 0, 0, 0, 0, 0, 1\n69]"] ;
663 -> 677 ;
678 [label="tcp.checksum <= 1.4\ngini = 0.1\nsamples = 72\nvalue = [0, 3, 0, 0, 0, 0, 0, 0, 0, 0, 0, 0, 0, 0\n69]"] ;
677 -> 678 ;
679 [label="gini = 0.0\nsamples = 30\nvalue = [0, 0, 0, 0, 0, 0, 0, 0, 0, 0, 0, 0, 0, 0\n30]"] ;
678 -> 679 ;
680 [label="tcp.checksum <= 1.4\ngini = 0.1\nsamples = 42\nvalue = [0, 3, 0, 0, 0, 0, 0, 0, 0, 0, 0, 0, 0, 0\n39]"] ;
678 -> 680 ;
681 [label="tcp.checksum <= 1.4\ngini = 0.4\nsamples = 3\nvalue = [0, 2, 0, 0, 0, 0, 0, 0, 0, 0, 0, 0, 0, 0\n1]"] ;
680 -> 681 ;
682 [label="gini = 0.0\nsamples = 1\nvalue = [0, 1, 0, 0, 0, 0, 0, 0, 0, 0, 0, 0, 0, 0\n0]"] ;
681 -> 682 ;
683 [label="gini = 0.5\nsamples = 2\nvalue = [0, 1, 0, 0, 0, 0, 0, 0, 0, 0, 0, 0, 0, 0\n1]"] ;
681 -> 683 ;
684 [label="tcp.checksum <= 1.8\ngini = 0.0\nsamples = 39\nvalue = [0, 1, 0, 0, 0, 0, 0, 0, 0, 0, 0, 0, 0, 0\n38]"] ;
680 -> 684 ;
685 [label="gini = 0.0\nsamples = 31\nvalue = [0, 0, 0, 0, 0, 0, 0, 0, 0, 0, 0, 0, 0, 0\n31]"] ;
684 -> 685 ;
686 [label="gini = 0.2\nsamples = 8\nvalue = [0, 1, 0, 0, 0, 0, 0, 0, 0, 0, 0, 0, 0, 0\n7]"] ;
684 -> 686 ;
687 [label="tcp.checksum <= 1.6\ngini = 0.4\nsamples = 3\nvalue = [0, 2, 0, 0, 0, 0, 0, 0, 0, 0, 0, 0, 0, 1\n0]"] ;
677 -> 687 ;
688 [label="gini = 0.0\nsamples = 1\nvalue = [0, 0, 0, 0, 0, 0, 0, 0, 0, 0, 0, 0, 0, 1\n0]"] ;
687 -> 688 ;
689 [label="gini = 0.0\nsamples = 2\nvalue = [0, 2, 0, 0, 0, 0, 0, 0, 0, 0, 0, 0, 0, 0\n0]"] ;
687 -> 689 ;
690 [label="tcp.seq <= -0.2\ngini = 0.2\nsamples = 278\nvalue = [0, 241, 0, 0, 0, 0, 0, 0, 0, 0, 0, 0, 0, 37\n0]"] ;
592 -> 690 ;
691 [label="tcp.seq <= -0.2\ngini = 0.1\nsamples = 170\nvalue = [0, 163, 0, 0, 0, 0, 0, 0, 0, 0, 0, 0, 0, 7\n0]"] ;
690 -> 691 ;
692 [label="tcp.seq <= -0.2\ngini = 0.2\nsamples = 37\nvalue = [0, 32, 0, 0, 0, 0, 0, 0, 0, 0, 0, 0, 0, 5\n0]"] ;
691 -> 692 ;
693 [label="gini = 0.0\nsamples = 21\nvalue = [0, 21, 0, 0, 0, 0, 0, 0, 0, 0, 0, 0, 0, 0\n0]"] ;
692 -> 693 ;
694 [label="tcp.checksum <= 1.0\ngini = 0.4\nsamples = 16\nvalue = [0, 11, 0, 0, 0, 0, 0, 0, 0, 0, 0, 0, 0, 5\n0]"] ;
692 -> 694 ;
695 [label="tcp.checksum <= 0.9\ngini = 0.5\nsamples = 13\nvalue = [0, 8, 0, 0, 0, 0, 0, 0, 0, 0, 0, 0, 0, 5\n0]"] ;
694 -> 695 ;
696 [label="tcp.checksum <= -0.9\ngini = 0.4\nsamples = 12\nvalue = [0, 8, 0, 0, 0, 0, 0, 0, 0, 0, 0, 0, 0, 4\n0]"] ;
695 -> 696 ;
697 [label="gini = 0.0\nsamples = 2\nvalue = [0, 2, 0, 0, 0, 0, 0, 0, 0, 0, 0, 0, 0, 0\n0]"] ;
696 -> 697 ;
698 [label="tcp.checksum <= 0.2\ngini = 0.5\nsamples = 10\nvalue = [0, 6, 0, 0, 0, 0, 0, 0, 0, 0, 0, 0, 0, 4\n0]"] ;
696 -> 698 ;
699 [label="gini = 0.5\nsamples = 5\nvalue = [0, 2, 0, 0, 0, 0, 0, 0, 0, 0, 0, 0, 0, 3\n0]"] ;
698 -> 699 ;
700 [label="gini = 0.3\nsamples = 5\nvalue = [0, 4, 0, 0, 0, 0, 0, 0, 0, 0, 0, 0, 0, 1\n0]"] ;
698 -> 700 ;
701 [label="gini = 0.0\nsamples = 1\nvalue = [0, 0, 0, 0, 0, 0, 0, 0, 0, 0, 0, 0, 0, 1\n0]"] ;
695 -> 701 ;
702 [label="gini = 0.0\nsamples = 3\nvalue = [0, 3, 0, 0, 0, 0, 0, 0, 0, 0, 0, 0, 0, 0\n0]"] ;
694 -> 702 ;
703 [label="tcp.checksum <= 0.5\ngini = 0.0\nsamples = 133\nvalue = [0, 131, 0, 0, 0, 0, 0, 0, 0, 0, 0, 0, 0, 2\n0]"] ;
691 -> 703 ;
704 [label="gini = 0.0\nsamples = 80\nvalue = [0, 80, 0, 0, 0, 0, 0, 0, 0, 0, 0, 0, 0, 0\n0]"] ;
703 -> 704 ;
705 [label="tcp.checksum <= 0.5\ngini = 0.1\nsamples = 53\nvalue = [0, 51, 0, 0, 0, 0, 0, 0, 0, 0, 0, 0, 0, 2\n0]"] ;
703 -> 705 ;
706 [label="gini = 0.0\nsamples = 1\nvalue = [0, 0, 0, 0, 0, 0, 0, 0, 0, 0, 0, 0, 0, 1\n0]"] ;
705 -> 706 ;
707 [label="tcp.seq <= -0.2\ngini = 0.0\nsamples = 52\nvalue = [0, 51, 0, 0, 0, 0, 0, 0, 0, 0, 0, 0, 0, 1\n0]"] ;
705 -> 707 ;
708 [label="tcp.checksum <= 1.1\ngini = 0.4\nsamples = 3\nvalue = [0, 2, 0, 0, 0, 0, 0, 0, 0, 0, 0, 0, 0, 1\n0]"] ;
707 -> 708 ;
709 [label="gini = 0.0\nsamples = 1\nvalue = [0, 0, 0, 0, 0, 0, 0, 0, 0, 0, 0, 0, 0, 1\n0]"] ;
708 -> 709 ;
710 [label="gini = 0.0\nsamples = 2\nvalue = [0, 2, 0, 0, 0, 0, 0, 0, 0, 0, 0, 0, 0, 0\n0]"] ;
708 -> 710 ;
711 [label="gini = 0.0\nsamples = 49\nvalue = [0, 49, 0, 0, 0, 0, 0, 0, 0, 0, 0, 0, 0, 0\n0]"] ;
707 -> 711 ;
712 [label="tcp.seq <= -0.2\ngini = 0.4\nsamples = 108\nvalue = [0, 78, 0, 0, 0, 0, 0, 0, 0, 0, 0, 0, 0, 30\n0]"] ;
690 -> 712 ;
713 [label="tcp.checksum <= -0.8\ngini = 0.5\nsamples = 62\nvalue = [0, 34, 0, 0, 0, 0, 0, 0, 0, 0, 0, 0, 0, 28\n0]"] ;
712 -> 713 ;
714 [label="gini = 0.0\nsamples = 5\nvalue = [0, 5, 0, 0, 0, 0, 0, 0, 0, 0, 0, 0, 0, 0\n0]"] ;
713 -> 714 ;
715 [label="tcp.seq <= -0.2\ngini = 0.5\nsamples = 57\nvalue = [0, 29, 0, 0, 0, 0, 0, 0, 0, 0, 0, 0, 0, 28\n0]"] ;
713 -> 715 ;
716 [label="gini = 0.0\nsamples = 7\nvalue = [0, 7, 0, 0, 0, 0, 0, 0, 0, 0, 0, 0, 0, 0\n0]"] ;
715 -> 716 ;
717 [label="tcp.checksum <= 1.3\ngini = 0.5\nsamples = 50\nvalue = [0, 22, 0, 0, 0, 0, 0, 0, 0, 0, 0, 0, 0, 28\n0]"] ;
715 -> 717 ;
718 [label="tcp.checksum <= 0.9\ngini = 0.5\nsamples = 38\nvalue = [0, 14, 0, 0, 0, 0, 0, 0, 0, 0, 0, 0, 0, 24\n0]"] ;
717 -> 718 ;
719 [label="tcp.checksum <= -0.1\ngini = 0.5\nsamples = 27\nvalue = [0, 12, 0, 0, 0, 0, 0, 0, 0, 0, 0, 0, 0, 15\n0]"] ;
718 -> 719 ;
720 [label="gini = 0.2\nsamples = 7\nvalue = [0, 1, 0, 0, 0, 0, 0, 0, 0, 0, 0, 0, 0, 6\n0]"] ;
719 -> 720 ;
721 [label="gini = 0.5\nsamples = 20\nvalue = [0, 11, 0, 0, 0, 0, 0, 0, 0, 0, 0, 0, 0, 9\n0]"] ;
719 -> 721 ;
722 [label="tcp.seq <= -0.2\ngini = 0.3\nsamples = 11\nvalue = [0, 2, 0, 0, 0, 0, 0, 0, 0, 0, 0, 0, 0, 9\n0]"] ;
718 -> 722 ;
723 [label="gini = 0.0\nsamples = 1\nvalue = [0, 1, 0, 0, 0, 0, 0, 0, 0, 0, 0, 0, 0, 0\n0]"] ;
722 -> 723 ;
724 [label="gini = 0.2\nsamples = 10\nvalue = [0, 1, 0, 0, 0, 0, 0, 0, 0, 0, 0, 0, 0, 9\n0]"] ;
722 -> 724 ;
725 [label="tcp.checksum <= 1.7\ngini = 0.4\nsamples = 12\nvalue = [0, 8, 0, 0, 0, 0, 0, 0, 0, 0, 0, 0, 0, 4\n0]"] ;
717 -> 725 ;
726 [label="tcp.seq <= -0.2\ngini = 0.3\nsamples = 10\nvalue = [0, 8, 0, 0, 0, 0, 0, 0, 0, 0, 0, 0, 0, 2\n0]"] ;
725 -> 726 ;
727 [label="gini = 0.4\nsamples = 6\nvalue = [0, 4, 0, 0, 0, 0, 0, 0, 0, 0, 0, 0, 0, 2\n0]"] ;
726 -> 727 ;
728 [label="gini = 0.0\nsamples = 4\nvalue = [0, 4, 0, 0, 0, 0, 0, 0, 0, 0, 0, 0, 0, 0\n0]"] ;
726 -> 728 ;
729 [label="gini = 0.0\nsamples = 2\nvalue = [0, 0, 0, 0, 0, 0, 0, 0, 0, 0, 0, 0, 0, 2\n0]"] ;
725 -> 729 ;
730 [label="tcp.checksum <= -0.5\ngini = 0.1\nsamples = 46\nvalue = [0, 44, 0, 0, 0, 0, 0, 0, 0, 0, 0, 0, 0, 2\n0]"] ;
712 -> 730 ;
731 [label="tcp.checksum <= -0.6\ngini = 0.2\nsamples = 7\nvalue = [0, 6, 0, 0, 0, 0, 0, 0, 0, 0, 0, 0, 0, 1\n0]"] ;
730 -> 731 ;
732 [label="gini = 0.0\nsamples = 6\nvalue = [0, 6, 0, 0, 0, 0, 0, 0, 0, 0, 0, 0, 0, 0\n0]"] ;
731 -> 732 ;
733 [label="gini = 0.0\nsamples = 1\nvalue = [0, 0, 0, 0, 0, 0, 0, 0, 0, 0, 0, 0, 0, 1\n0]"] ;
731 -> 733 ;
734 [label="tcp.seq <= -0.2\ngini = 0.0\nsamples = 39\nvalue = [0, 38, 0, 0, 0, 0, 0, 0, 0, 0, 0, 0, 0, 1\n0]"] ;
730 -> 734 ;
735 [label="tcp.seq <= -0.2\ngini = 0.1\nsamples = 16\nvalue = [0, 15, 0, 0, 0, 0, 0, 0, 0, 0, 0, 0, 0, 1\n0]"] ;
734 -> 735 ;
736 [label="gini = 0.0\nsamples = 13\nvalue = [0, 13, 0, 0, 0, 0, 0, 0, 0, 0, 0, 0, 0, 0\n0]"] ;
735 -> 736 ;
737 [label="tcp.checksum <= 0.7\ngini = 0.4\nsamples = 3\nvalue = [0, 2, 0, 0, 0, 0, 0, 0, 0, 0, 0, 0, 0, 1\n0]"] ;
735 -> 737 ;
738 [label="gini = 0.0\nsamples = 2\nvalue = [0, 2, 0, 0, 0, 0, 0, 0, 0, 0, 0, 0, 0, 0\n0]"] ;
737 -> 738 ;
739 [label="gini = 0.0\nsamples = 1\nvalue = [0, 0, 0, 0, 0, 0, 0, 0, 0, 0, 0, 0, 0, 1\n0]"] ;
737 -> 739 ;
740 [label="gini = 0.0\nsamples = 23\nvalue = [0, 23, 0, 0, 0, 0, 0, 0, 0, 0, 0, 0, 0, 0\n0]"] ;
734 -> 740 ;
741 [label="gini = 0.0\nsamples = 346\nvalue = [0, 346, 0, 0, 0, 0, 0, 0, 0, 0, 0, 0, 0, 0\n0]"] ;
591 -> 741 ;
742 [label="tcp.seq <= -0.2\ngini = 0.1\nsamples = 2051\nvalue = [0, 84, 0, 0, 0, 0, 0, 0, 0, 0, 0, 0, 0, 2\n1965]"] ;
590 -> 742 ;
743 [label="gini = 0.0\nsamples = 1365\nvalue = [0, 0, 0, 0, 0, 0, 0, 0, 0, 0, 0, 0, 0, 0\n1365]"] ;
742 -> 743 ;
744 [label="tcp.seq <= -0.2\ngini = 0.2\nsamples = 686\nvalue = [0, 84, 0, 0, 0, 0, 0, 0, 0, 0, 0, 0, 0, 2\n600]"] ;
742 -> 744 ;
745 [label="tcp.ack_raw <= 2.2\ngini = 0.2\nsamples = 684\nvalue = [0, 84, 0, 0, 0, 0, 0, 0, 0, 0, 0, 0, 0, 0\n600]"] ;
744 -> 745 ;
746 [label="tcp.checksum <= -1.1\ngini = 0.2\nsamples = 683\nvalue = [0, 83, 0, 0, 0, 0, 0, 0, 0, 0, 0, 0, 0, 0\n600]"] ;
745 -> 746 ;
747 [label="gini = 0.0\nsamples = 1\nvalue = [0, 1, 0, 0, 0, 0, 0, 0, 0, 0, 0, 0, 0, 0\n0]"] ;
746 -> 747 ;
748 [label="tcp.checksum <= -0.7\ngini = 0.2\nsamples = 682\nvalue = [0, 82, 0, 0, 0, 0, 0, 0, 0, 0, 0, 0, 0, 0\n600]"] ;
746 -> 748 ;
749 [label="tcp.checksum <= -0.8\ngini = 0.3\nsamples = 92\nvalue = [0, 18, 0, 0, 0, 0, 0, 0, 0, 0, 0, 0, 0, 0\n74]"] ;
748 -> 749 ;
750 [label="tcp.ack_raw <= -0.6\ngini = 0.3\nsamples = 86\nvalue = [0, 14, 0, 0, 0, 0, 0, 0, 0, 0, 0, 0, 0, 0\n72]"] ;
749 -> 750 ;
751 [label="tcp.checksum <= -0.9\ngini = 0.5\nsamples = 15\nvalue = [0, 6, 0, 0, 0, 0, 0, 0, 0, 0, 0, 0, 0, 0\n9]"] ;
750 -> 751 ;
752 [label="tcp.ack_raw <= -1.0\ngini = 0.4\nsamples = 8\nvalue = [0, 6, 0, 0, 0, 0, 0, 0, 0, 0, 0, 0, 0, 0\n2]"] ;
751 -> 752 ;
753 [label="gini = 0.0\nsamples = 2\nvalue = [0, 0, 0, 0, 0, 0, 0, 0, 0, 0, 0, 0, 0, 0\n2]"] ;
752 -> 753 ;
754 [label="gini = 0.0\nsamples = 6\nvalue = [0, 6, 0, 0, 0, 0, 0, 0, 0, 0, 0, 0, 0, 0\n0]"] ;
752 -> 754 ;
755 [label="gini = 0.0\nsamples = 7\nvalue = [0, 0, 0, 0, 0, 0, 0, 0, 0, 0, 0, 0, 0, 0\n7]"] ;
751 -> 755 ;
756 [label="tcp.checksum <= -1.1\ngini = 0.2\nsamples = 71\nvalue = [0, 8, 0, 0, 0, 0, 0, 0, 0, 0, 0, 0, 0, 0\n63]"] ;
750 -> 756 ;
757 [label="gini = 0.0\nsamples = 21\nvalue = [0, 0, 0, 0, 0, 0, 0, 0, 0, 0, 0, 0, 0, 0\n21]"] ;
756 -> 757 ;
758 [label="tcp.ack_raw <= 2.1\ngini = 0.3\nsamples = 50\nvalue = [0, 8, 0, 0, 0, 0, 0, 0, 0, 0, 0, 0, 0, 0\n42]"] ;
756 -> 758 ;
759 [label="gini = 0.2\nsamples = 49\nvalue = [0, 7, 0, 0, 0, 0, 0, 0, 0, 0, 0, 0, 0, 0\n42]"] ;
758 -> 759 ;
760 [label="gini = 0.0\nsamples = 1\nvalue = [0, 1, 0, 0, 0, 0, 0, 0, 0, 0, 0, 0, 0, 0\n0]"] ;
758 -> 760 ;
761 [label="tcp.ack_raw <= 1.8\ngini = 0.4\nsamples = 6\nvalue = [0, 4, 0, 0, 0, 0, 0, 0, 0, 0, 0, 0, 0, 0\n2]"] ;
749 -> 761 ;
762 [label="gini = 0.0\nsamples = 4\nvalue = [0, 4, 0, 0, 0, 0, 0, 0, 0, 0, 0, 0, 0, 0\n0]"] ;
761 -> 762 ;
763 [label="gini = 0.0\nsamples = 2\nvalue = [0, 0, 0, 0, 0, 0, 0, 0, 0, 0, 0, 0, 0, 0\n2]"] ;
761 -> 763 ;
764 [label="tcp.checksum <= -0.5\ngini = 0.2\nsamples = 590\nvalue = [0, 64, 0, 0, 0, 0, 0, 0, 0, 0, 0, 0, 0, 0\n526]"] ;
748 -> 764 ;
765 [label="gini = 0.0\nsamples = 45\nvalue = [0, 0, 0, 0, 0, 0, 0, 0, 0, 0, 0, 0, 0, 0\n45]"] ;
764 -> 765 ;
766 [label="tcp.checksum <= -0.4\ngini = 0.2\nsamples = 545\nvalue = [0, 64, 0, 0, 0, 0, 0, 0, 0, 0, 0, 0, 0, 0\n481]"] ;
764 -> 766 ;
767 [label="gini = 0.0\nsamples = 1\nvalue = [0, 1, 0, 0, 0, 0, 0, 0, 0, 0, 0, 0, 0, 0\n0]"] ;
766 -> 767 ;
768 [label="tcp.checksum <= 0.3\ngini = 0.2\nsamples = 544\nvalue = [0, 63, 0, 0, 0, 0, 0, 0, 0, 0, 0, 0, 0, 0\n481]"] ;
766 -> 768 ;
769 [label="tcp.checksum <= 0.3\ngini = 0.3\nsamples = 148\nvalue = [0, 23, 0, 0, 0, 0, 0, 0, 0, 0, 0, 0, 0, 0\n125]"] ;
768 -> 769 ;
770 [label="gini = 0.3\nsamples = 147\nvalue = [0, 22, 0, 0, 0, 0, 0, 0, 0, 0, 0, 0, 0, 0\n125]"] ;
769 -> 770 ;
771 [label="gini = 0.0\nsamples = 1\nvalue = [0, 1, 0, 0, 0, 0, 0, 0, 0, 0, 0, 0, 0, 0\n0]"] ;
769 -> 771 ;
772 [label="tcp.ack_raw <= 1.9\ngini = 0.2\nsamples = 396\nvalue = [0, 40, 0, 0, 0, 0, 0, 0, 0, 0, 0, 0, 0, 0\n356]"] ;
768 -> 772 ;
773 [label="gini = 0.2\nsamples = 363\nvalue = [0, 33, 0, 0, 0, 0, 0, 0, 0, 0, 0, 0, 0, 0\n330]"] ;
772 -> 773 ;
774 [label="gini = 0.3\nsamples = 33\nvalue = [0, 7, 0, 0, 0, 0, 0, 0, 0, 0, 0, 0, 0, 0\n26]"] ;
772 -> 774 ;
775 [label="gini = 0.0\nsamples = 1\nvalue = [0, 1, 0, 0, 0, 0, 0, 0, 0, 0, 0, 0, 0, 0\n0]"] ;
745 -> 775 ;
776 [label="gini = 0.0\nsamples = 2\nvalue = [0, 0, 0, 0, 0, 0, 0, 0, 0, 0, 0, 0, 0, 2\n0]"] ;
744 -> 776 ;
777 [label="tcp.connection.fin <= 1.7\ngini = 0.6\nsamples = 4770\nvalue = [0, 1812, 0, 0, 0, 0, 0, 0, 0, 0, 0, 0, 0\n2578, 380]"] ;
589 -> 777 ;
778 [label="tcp.seq <= -0.2\ngini = 0.5\nsamples = 3365\nvalue = [0, 831, 0, 0, 0, 0, 0, 0, 0, 0, 0, 0, 0\n2195, 339]"] ;
777 -> 778 ;
779 [label="tcp.ack <= -0.2\ngini = 0.5\nsamples = 925\nvalue = [0, 50, 0, 0, 0, 0, 0, 0, 0, 0, 0, 0, 0, 545\n330]"] ;
778 -> 779 ;
780 [label="gini = 0.0\nsamples = 329\nvalue = [0, 0, 0, 0, 0, 0, 0, 0, 0, 0, 0, 0, 0, 0\n329]"] ;
779 -> 780 ;
781 [label="tcp.ack_raw <= -1.0\ngini = 0.2\nsamples = 596\nvalue = [0, 50, 0, 0, 0, 0, 0, 0, 0, 0, 0, 0, 0, 545\n1]"] ;
779 -> 781 ;
782 [label="gini = 0.0\nsamples = 2\nvalue = [0, 2, 0, 0, 0, 0, 0, 0, 0, 0, 0, 0, 0, 0\n0]"] ;
781 -> 782 ;
783 [label="tcp.seq <= -0.2\ngini = 0.2\nsamples = 594\nvalue = [0, 48, 0, 0, 0, 0, 0, 0, 0, 0, 0, 0, 0, 545\n1]"] ;
781 -> 783 ;
784 [label="tcp.checksum <= 1.9\ngini = 0.2\nsamples = 362\nvalue = [0, 43, 0, 0, 0, 0, 0, 0, 0, 0, 0, 0, 0, 318\n1]"] ;
783 -> 784 ;
785 [label="tcp.ack_raw <= -1.0\ngini = 0.2\nsamples = 361\nvalue = [0, 42, 0, 0, 0, 0, 0, 0, 0, 0, 0, 0, 0, 318\n1]"] ;
784 -> 785 ;
786 [label="gini = 0.0\nsamples = 1\nvalue = [0, 1, 0, 0, 0, 0, 0, 0, 0, 0, 0, 0, 0, 0\n0]"] ;
785 -> 786 ;
787 [label="tcp.checksum <= -0.9\ngini = 0.2\nsamples = 360\nvalue = [0, 41, 0, 0, 0, 0, 0, 0, 0, 0, 0, 0, 0, 318\n1]"] ;
785 -> 787 ;
788 [label="tcp.seq <= -0.2\ngini = 0.4\nsamples = 24\nvalue = [0, 7, 0, 0, 0, 0, 0, 0, 0, 0, 0, 0, 0, 17\n0]"] ;
787 -> 788 ;
789 [label="tcp.checksum <= -1.1\ngini = 0.4\nsamples = 22\nvalue = [0, 5, 0, 0, 0, 0, 0, 0, 0, 0, 0, 0, 0, 17\n0]"] ;
788 -> 789 ;
790 [label="gini = 0.0\nsamples = 8\nvalue = [0, 0, 0, 0, 0, 0, 0, 0, 0, 0, 0, 0, 0, 8\n0]"] ;
789 -> 790 ;
791 [label="gini = 0.5\nsamples = 14\nvalue = [0, 5, 0, 0, 0, 0, 0, 0, 0, 0, 0, 0, 0, 9\n0]"] ;
789 -> 791 ;
792 [label="gini = 0.0\nsamples = 2\nvalue = [0, 2, 0, 0, 0, 0, 0, 0, 0, 0, 0, 0, 0, 0\n0]"] ;
788 -> 792 ;
793 [label="tcp.ack_raw <= 0.9\ngini = 0.2\nsamples = 336\nvalue = [0, 34, 0, 0, 0, 0, 0, 0, 0, 0, 0, 0, 0, 301\n1]"] ;
787 -> 793 ;
794 [label="tcp.seq <= -0.2\ngini = 0.1\nsamples = 191\nvalue = [0, 13, 0, 0, 0, 0, 0, 0, 0, 0, 0, 0, 0, 177\n1]"] ;
793 -> 794 ;
795 [label="gini = 0.1\nsamples = 125\nvalue = [0, 5, 0, 0, 0, 0, 0, 0, 0, 0, 0, 0, 0, 119\n1]"] ;
794 -> 795 ;
796 [label="gini = 0.2\nsamples = 66\nvalue = [0, 8, 0, 0, 0, 0, 0, 0, 0, 0, 0, 0, 0, 58\n0]"] ;
794 -> 796 ;
797 [label="tcp.ack_raw <= 0.9\ngini = 0.2\nsamples = 145\nvalue = [0, 21, 0, 0, 0, 0, 0, 0, 0, 0, 0, 0, 0, 124\n0]"] ;
793 -> 797 ;
798 [label="gini = 0.0\nsamples = 3\nvalue = [0, 3, 0, 0, 0, 0, 0, 0, 0, 0, 0, 0, 0, 0\n0]"] ;
797 -> 798 ;
799 [label="gini = 0.2\nsamples = 142\nvalue = [0, 18, 0, 0, 0, 0, 0, 0, 0, 0, 0, 0, 0, 124\n0]"] ;
797 -> 799 ;
800 [label="gini = 0.0\nsamples = 1\nvalue = [0, 1, 0, 0, 0, 0, 0, 0, 0, 0, 0, 0, 0, 0\n0]"] ;
784 -> 800 ;
801 [label="tcp.seq <= -0.2\ngini = 0.0\nsamples = 232\nvalue = [0, 5, 0, 0, 0, 0, 0, 0, 0, 0, 0, 0, 0, 227\n0]"] ;
783 -> 801 ;
802 [label="tcp.seq <= -0.2\ngini = 0.0\nsamples = 218\nvalue = [0, 2, 0, 0, 0, 0, 0, 0, 0, 0, 0, 0, 0, 216\n0]"] ;
801 -> 802 ;
803 [label="gini = 0.0\nsamples = 184\nvalue = [0, 0, 0, 0, 0, 0, 0, 0, 0, 0, 0, 0, 0, 184\n0]"] ;
802 -> 803 ;
804 [label="tcp.ack_raw <= -0.5\ngini = 0.1\nsamples = 34\nvalue = [0, 2, 0, 0, 0, 0, 0, 0, 0, 0, 0, 0, 0, 32\n0]"] ;
802 -> 804 ;
805 [label="tcp.ack_raw <= -0.7\ngini = 0.4\nsamples = 3\nvalue = [0, 1, 0, 0, 0, 0, 0, 0, 0, 0, 0, 0, 0, 2\n0]"] ;
804 -> 805 ;
806 [label="gini = 0.0\nsamples = 2\nvalue = [0, 0, 0, 0, 0, 0, 0, 0, 0, 0, 0, 0, 0, 2\n0]"] ;
805 -> 806 ;
807 [label="gini = 0.0\nsamples = 1\nvalue = [0, 1, 0, 0, 0, 0, 0, 0, 0, 0, 0, 0, 0, 0\n0]"] ;
805 -> 807 ;
808 [label="tcp.checksum <= 0.1\ngini = 0.1\nsamples = 31\nvalue = [0, 1, 0, 0, 0, 0, 0, 0, 0, 0, 0, 0, 0, 30\n0]"] ;
804 -> 808 ;
809 [label="tcp.checksum <= 0.0\ngini = 0.2\nsamples = 8\nvalue = [0, 1, 0, 0, 0, 0, 0, 0, 0, 0, 0, 0, 0, 7\n0]"] ;
808 -> 809 ;
810 [label="gini = 0.0\nsamples = 7\nvalue = [0, 0, 0, 0, 0, 0, 0, 0, 0, 0, 0, 0, 0, 7\n0]"] ;
809 -> 810 ;
811 [label="gini = 0.0\nsamples = 1\nvalue = [0, 1, 0, 0, 0, 0, 0, 0, 0, 0, 0, 0, 0, 0\n0]"] ;
809 -> 811 ;
812 [label="gini = 0.0\nsamples = 23\nvalue = [0, 0, 0, 0, 0, 0, 0, 0, 0, 0, 0, 0, 0, 23\n0]"] ;
808 -> 812 ;
813 [label="tcp.ack_raw <= 0.8\ngini = 0.3\nsamples = 14\nvalue = [0, 3, 0, 0, 0, 0, 0, 0, 0, 0, 0, 0, 0, 11\n0]"] ;
801 -> 813 ;
814 [label="tcp.checksum <= 0.5\ngini = 0.5\nsamples = 6\nvalue = [0, 3, 0, 0, 0, 0, 0, 0, 0, 0, 0, 0, 0, 3\n0]"] ;
813 -> 814 ;
815 [label="tcp.ack_raw <= 0.2\ngini = 0.4\nsamples = 4\nvalue = [0, 3, 0, 0, 0, 0, 0, 0, 0, 0, 0, 0, 0, 1\n0]"] ;
814 -> 815 ;
816 [label="tcp.ack_raw <= -0.2\ngini = 0.5\nsamples = 2\nvalue = [0, 1, 0, 0, 0, 0, 0, 0, 0, 0, 0, 0, 0, 1\n0]"] ;
815 -> 816 ;
817 [label="gini = 0.0\nsamples = 1\nvalue = [0, 1, 0, 0, 0, 0, 0, 0, 0, 0, 0, 0, 0, 0\n0]"] ;
816 -> 817 ;
818 [label="gini = 0.0\nsamples = 1\nvalue = [0, 0, 0, 0, 0, 0, 0, 0, 0, 0, 0, 0, 0, 1\n0]"] ;
816 -> 818 ;
819 [label="gini = 0.0\nsamples = 2\nvalue = [0, 2, 0, 0, 0, 0, 0, 0, 0, 0, 0, 0, 0, 0\n0]"] ;
815 -> 819 ;
820 [label="gini = 0.0\nsamples = 2\nvalue = [0, 0, 0, 0, 0, 0, 0, 0, 0, 0, 0, 0, 0, 2\n0]"] ;
814 -> 820 ;
821 [label="gini = 0.0\nsamples = 8\nvalue = [0, 0, 0, 0, 0, 0, 0, 0, 0, 0, 0, 0, 0, 8\n0]"] ;
813 -> 821 ;
822 [label="tcp.seq <= -0.2\ngini = 0.4\nsamples = 2440\nvalue = [0, 781, 0, 0, 0, 0, 0, 0, 0, 0, 0, 0, 0\n1650, 9]"] ;
778 -> 822 ;
823 [label="tcp.ack <= -0.2\ngini = 0.5\nsamples = 794\nvalue = [0, 396, 0, 0, 0, 0, 0, 0, 0, 0, 0, 0, 0, 398\n0]"] ;
822 -> 823 ;
824 [label="tcp.seq <= -0.2\ngini = 0.4\nsamples = 396\nvalue = [0, 96, 0, 0, 0, 0, 0, 0, 0, 0, 0, 0, 0, 300\n0]"] ;
823 -> 824 ;
825 [label="tcp.ack_raw <= 0.1\ngini = 0.2\nsamples = 14\nvalue = [0, 12, 0, 0, 0, 0, 0, 0, 0, 0, 0, 0, 0, 2\n0]"] ;
824 -> 825 ;
826 [label="gini = 0.0\nsamples = 5\nvalue = [0, 5, 0, 0, 0, 0, 0, 0, 0, 0, 0, 0, 0, 0\n0]"] ;
825 -> 826 ;
827 [label="tcp.ack_raw <= 0.2\ngini = 0.3\nsamples = 9\nvalue = [0, 7, 0, 0, 0, 0, 0, 0, 0, 0, 0, 0, 0, 2\n0]"] ;
825 -> 827 ;
828 [label="gini = 0.0\nsamples = 1\nvalue = [0, 0, 0, 0, 0, 0, 0, 0, 0, 0, 0, 0, 0, 1\n0]"] ;
